-0.1350359535341312
-0.011892614424570399
0.1599698595987859
0.14402770875317616
0.015663299341968032
-0.11292684574775753
0.009613546515039149
-0.11028667398704388
-0.08017407532108937
0.018382476827610125
0.07351966990199012
-0.007687415799496988
0.04138009510588794
0.06792172912707425
0.06315389323539393
0.13793150155842407
0.16240412560525244
-0.1476616171309888
0.029533818987653757
-0.04661128292240073
-0.14621266990189902
-0.05753869393698238
-0.10787787919214277
0.09160179410418168
-0.13224916044338064
0.05415085489259466
0.1554414364825157
-0.13380092557889273
0.11861057783218962
-0.02086955408093424
-0.11133802081955016
0.1426200809542133
0.13725150693794216
0.18072807308270522
0.11235719693057421
-0.08920745434471457
0.035671731030766846
0.1556275296746553
0.12647573709336324
-0.01762172309811969
-0.025878499436476975
0.13686227181954008
-0.03607088102313171
0.16679140819386692
0.03725134219453724
-0.07768319052939009
-0.036561732738629255
-0.06584372133122388
0.11174536383016505
-0.1130981503834217
-0.06085981399138467
0.08522614954333929
0.0359521824628369
0.14021433015007423
0.14141047220411737
0.16165802138172317
-0.08710575613000787
-0.04245911502001535
-0.0374724902991876
-0.05582893871646137
0.013672050653750436
0.1402863265358549
0.1646894027146692
-0.10638017759325118
0.11343436292908465
0.15679714471039666
0.002877990933952552
0.04368256673112424
0.054653544953798996
-0.03270196318001552
0.13151338449077016
-0.10592728044341615
0.10157961780889246
-0.003496687369832857
-0.014519389999365813
0.14413456447909348
0.03681537838282905
0.045925473677544196
0.14774587386477786
0.15566457957751764
0.0958503384975496
-0.0880716528600765
-0.07225743602508936
0.14516216555496986
-0.10993192406329003
-0.09170225027533188
0.12979017706918097
-0.04962169885101447
-0.14116755925834099
-0.07149897004167402
0.13598775707591496
0.1401545844301488
-0.02656991336785594
0.15028315299529843
0.10441074359051081
-0.05644886454116038
0.13273744883718622
0.1628071602159637
0.11823123458205649
-0.1390437521331466
0.08161150793322527
-0.0728092473276585
0.02281895305405156
-0.0844291024536489
-0.09376771378175552
0.11948787360499687
-0.12766084746736114
0.08556682966968368
-0.14079358960257762
0.003906317168295407
-0.03609363465638104
-0.059751419977000585
-0.17233305491429984
0.05425516486741021
-0.11342999659600124
0.05833535450802444
-0.10094306542213745
0.10544864387848876
0.06801916421480662
0.08101515609867492
-0.1180665679815449
-0.017446439107842784
0.05523270855206253
0.03628347795609252
0.09242970566919921
0.10999457343327712
0.021348035241444224
0.08070231493563812
0.11495412496365982
0.048127758117575754
0.06945276166521293
-0.06913409781589396
-0.08960934941355624
-0.09688743036616648
0.046374803297339465
0.025034314837915485
-0.08027601646056177
-0.0962639932910737
-0.02057598331514297
0.15204239410951959
0.1303631682276769
0.02038073935682177
-0.008808092658016398
0.08653067307325048
-0.06589267082304083
-0.024443027539960832
0.0336249007327132
0.01868893736264226
-0.10027502931161117
0.07585631456169734
-0.022776851423374628
0.1059905839532164
0.013857236159396658
-0.02347089459307635
0.03611976684133228
-0.0557936198039341
0.10914951375639251
0.10132732343902692
-0.01632670528842127
-0.12520683724122825
0.15070617495517424
0.031016590092876682
-0.1403661654563001
-0.0886941836649579
0.08590993616196733
-0.12184462541758677
0.006855437933019849
0.12766755450900763
0.12283585654890164
-0.08978147380773062
0.02166767851129414
0.05557285992326075
-0.0010883620359936003
-0.037184480100054325
-0.14301400144311732
0.14083179333892068
-0.11020329245775144
-0.11776773212059136
-0.13109640757630686
0.15297879391635186
-0.09597983550547415
0.14449661453231963
0.08804128534113569
0.058639980075212414
0.10496941190140935
0.1389158040171386
-0.07682678881052461
-0.03126101255974925
-0.059775287327868507
-0.02442988272073828
-0.021835334872490737
-0.058222876473798035
-0.07094153832016406
0.0450573340425211
0.15213232976151467
0.052849503739421023
0.07814748434558377
0.07302629086453037
-0.05715460778579488
0.006171223188607941
0.09301426887935134
-0.08050726979543063
0.01583951556310679
0.09295067436126966
-0.14191713929515704
-0.003683549239850729
-0.03095220061745052
-0.10112080410196223
-0.13241445721643738
-0.0773282710864104
-0.02203344794430074
-0.03130467386306667
0.0023292241690095116
-0.11023470458018496
-0.06307035530317191
0.019297769301954225
0.07079189419479777
-0.023520399816128666
-0.06035955420507093
-0.12805007739337587
0.06434745846368282
-0.1100721732705777
0.0002939403977093312
0.08951691742719659
-0.13183800668050422
0.03535715079943706
-0.05204293264860037
-0.0008937360145663192
-0.08180397518232378
-0.11246268565163928
-0.10912744725282665
0.017505251993836905
-0.12157837252606266
0.10329959683246884
0.13492201328917394
0.040950937863221994
-0.041644759475358055
-0.11070242637599169
-0.05962935991704599
0.14402581612690168
0.10833777740296915
-0.0055799282376694315
0.03696523197751435
0.08498539336728475
-0.10757880418597636
-0.09088374077882376
-0.10504038821295054
-0.062340669043731756
-0.11774394960499106
0.042659546230206534
0.05395728567261878
0.061443016005332106
-0.12459409403998953
0.040842982179166
0.13397470008074094
0.0814928662792012
0.10635850432886756
-0.15836156041279864
-0.14626396037404404
-0.043662143892466136
-0.17963078903636343
0.046954091013566436
-0.11978932436406942
0.13995163825199627
0.0813737608359553
-0.11537257431688128