-0.15474427913013053
0.1455631113895911
-0.10395931393041476
-0.01916505075719053
-0.048990600208625286
0.05341099141670477
0.010512831982210319
0.08720961039878103
-0.05713496963480013
-0.09749300952349603
-0.08142175143561234
-0.034896419495004036
0.14160721577988644
-0.17453571626754683
0.16352722044597853
0.1167312635669969
0.04072147738661819
-0.024392381017043475
-0.12825973463903245
-0.12994323666702084
-0.021814295488714035
-0.1063541798272583
-0.08380642253752774
0.1459846683476552
0.022481877421051726
0.15393599907214392
-0.0025548111771844
0.008495545517620136
-0.027991464739335746
-0.11413846062281013
-0.0506032401063762
0.0028326373372367653
-0.15834010110894653
-0.03955987953063372
-0.09601800161546319
-0.02461171005142971
-0.005645615811281775
0.1015568769173631
0.06210479690959038
-0.08193674345119616
0.04750944009065072
0.052293458426997966
-0.034647391842967126
-0.10986229575311009
0.06426738365683018
0.05707097152322563
-0.088490999078809
-0.04148675124832768
0.02392261076115515
0.16349557613639462
-0.06202530040775884
0.16933056866269944
0.023792922711594732
0.06810458954657223
-0.047606536502442405
0.027483417995133635
-0.11930846039108825
0.16521241605760922
0.12902503072852595
0.16235988384972758
0.10944380796469072
-0.02701801950857455
-0.050074230832606204
0.14089058496030213
-0.007242947313767345
-0.04579407767787791
0.09595752549374226
-0.01749371022860996
0.0657858066189019
-0.08126703259797076
0.0913956416363043
0.15209450194775329
0.12249489891914069
0.07383822973696107
-0.05923685233525367
-0.09608368121489513
0.05501708251099868
0.1115963757781782
0.13815807228685908
-0.07505621944102564
-0.015059897238211828
0.04836472648699808
-0.015441667146472358
-0.024781364684274252
-0.13475664163665027
0.1465757054818761
0.14415939693849714
-0.040284912959427335
-0.17367055443317736
0.04086139181419998
0.12589600499827644
-0.10668471033241826
-0.03440916972487309
0.1310204693387015
-0.11589324591777597
0.05986110145254053
0.0322793278859736
-0.10516649687869767
-0.05584011806802757
-0.06504217431875584
-0.06531073520843472
-0.09066266759711435
-0.1495751405601744
0.0005333048109609773
-0.1257233324849441
-0.14284595967224312
0.08886411193995442
0.021973216250822016
0.09617724443658979
-0.16774667698165124
0.15792505578101948
0.010813582683039748
-0.031060678180181156
0.1657552391307243
-0.04117636278686662
-0.051880337305506626
-0.05601276067712278
0.08918528446653734
-0.03511095900822115
0.18895061628499055
-0.16348117732318684
0.12502964180393006
-0.1565236976697425
-0.10580318251491425
-0.047281203069033606
0.16606978903928113
-0.11298776299784656
-0.16890595094648433
-0.08982186129183585
-0.1078768897425825
0.12475426714551666
0.16185256380973548
0.09824172396818584
-0.005448132275870621
-0.1152880533250273
-0.01270985441565297
-0.008310657073160779
-0.10919594622609426
-0.1516834760585639
-0.00971602595321465
-0.057252402300588805
0.06623241178753139
0.016890076482109172
0.09921119819097492
-0.12380271337922452
0.09703027591872372
-0.10935313512789341
-0.07722481880038201
0.0700751816660594
0.11125561419039369
0.04906869553407937
-0.011008510742556682
-0.07057416685648175
-0.08027000897762716
0.09749917884596287
-0.15255773770625358
0.006329252692891979
-0.02563756202030092
-0.0930604950765151
0.08451049114225964
0.13129197217900876
-0.09615130036426874
0.10607369654005065
-0.10095602616112348
0.0335853165472436
-0.09672613389331124
0.13438753025021444
0.14528890230251892
0.04322518096911196
-0.10259361113243905
0.056066519873387684
0.04151790855063023
-0.12019219458347075
-0.038050467429098914
0.08110780395813702
0.061369612161748265
-0.08475694089104654
0.12171809465652311
0.0024998754896811853
-0.12817540951800938
0.08022450630379642
-0.020400329759460427
-0.06952287376712567
0.024494467172678894
-0.05778838888489135
0.09405835262794109
0.021849909720049694
0.0074997620156546495
-0.00025535179508590284
0.14578488215908494
0.051697346616227595
-0.038559389422487586
0.016009889764371066
-0.09284716285355878
-0.15440874228038207
0.11728789164845602
-0.008567209911179872
0.16524601744165598
0.04951145566270889
-0.1476412390759677
0.1532888117348275
-0.006239137842549845
0.13443126413237125
-0.05289849440468749
-0.10604477185768833
0.005208202317266477
-0.07846093087785969
0.15711661512516303
-0.11468259344997678
-0.0013505514261706146
-0.1401849369090553
0.11675268700425906
0.14839433546769806
0.13770629232854
-0.005016494455593433
-0.17692959892432933
-0.08228705898870883
0.1723134485809633
0.06855448800535054
-0.062469789639616476
-0.04132281646062396
-0.11170588819458592
0.013218577070978187
-0.16826964156670385
-0.1247870680776487
-0.07867278078684586
0.03134380712701996
-0.09088366255742251
0.02306186666447969
0.052664335697750156
0.11116004039946857
-0.09126461392742546
-0.1204933612452266
-0.12876261924944477
0.11892964478650075
-0.11374925223851302
-0.08066910250266626
-0.015614855031598629
0.06408019510505811
0.18539790782710316
0.02409300456343899
-0.12398737568827643
-0.0990855237919612
-0.17572384495884433
0.1493487883845692
0.1659744297943291
-0.07432946785722515
0.0572474652531144
0.04653439061335174
0.15029716199528476
0.093387545979588
-0.06695545681311503
-0.07955689726633819
0.04758583427648927
0.16168819029849427
0.021645313770284887
0.04640584964525338
-0.1746959671290391
0.0037139733555769583
-0.1547505334869514
-0.01656508496600552
0.14982749371499784
0.028995651729948675
0.08559568144060326
-0.10623213473290176
0.11418356451042308
0.11867594683559972
0.09998888430872371
-0.01057300723211732
-0.1041813213299396
-0.07314743391464486
-0.11346646045400849
-0.05360007150250838
-0.1379793188329046
0.06714275786222783
-0.02647920374613375
-0.031508048187274415
0.17484934362283897
-0.1545608532410233
0.15822318889978795
-0.11951787418466267
0.10194543836854969
0.07813161133838087
0.08062194641459462
-0.13484669477657907
-0.10636178405888988
0.11573128379433895
-0.05598408748112692
0.1608403109352923
-0.06528228650398907
0.03546344225769369
-0.045732482062353634
-0.04638141947906404
0.03229926989210122
-0.004286814091942652
0.060288461098213286
0.12355838350330742
0.09116780966866671
-0.05934496929369403
-0.12579701738059826
0.06534805024274368
0.1137188251201214
-0.1484307051560219
-0.12281601204629689
-0.06228831465956283
-0.02585770216708162
-0.06270212925024797
0.1489466182086552
-0.04991882988250142
0.07700454433972623
0.0307122086872939
0.11412297756844494
0.10637179854645798
0.008085438912774419
-0.0035422997610877437
-0.08827775946156763
-0.07210524688526632
-0.13723172288467286
0.09984941315612578
-0.08863008044150052
-0.06357281772332757
0.11983129620392911
0.06627317323041905
0.07904239599819993
-0.06496740473699035
-0.10135110718318567
0.10813025485756163
-0.0271528611210181
-0.09353154029196172
0.11226419788114318
-0.0039781571016012885
-0.02469449291236025
-0.050212824472708376
0.16611531608897862
-0.08282997473661736
-0.06576609107731916
0.009363477964486167
0.13872409896361435
-0.00960075923729555
0.133090276527384
-0.11530771499641523
0.11446844511685252
-0.031017170313327527
0.17635505490543657
0.14125515565714794
0.10463736551073133
-0.1760814746708205
0.008412748138898769
-0.14417334659981307
-0.08306889608866899
-0.06691424468073215
-0.06610709358160978
-0.10790852335531534
-0.02279715468714528
-0.10624275832708462
-0.08653848933365295
-0.11605594835991709
-0.13682085823233814
0.1544018630869388
-0.0916862140538589
0.11668282583602932
0.017488680705044793
-0.08170945343015537
0.07840521167830164
0.09044536526132295
0.023905018433114815
0.13477211372284514
0.12922457458133432
0.17598287784137454
-0.09105687155425633
-0.10072582219470798
0.12454622184513729
0.05712154777268234
0.1811044192785431
0.06861976109790427
0.08810507875213476
0.1449202955108221
0.06305527435803225
-0.006142223924769208
-0.11446053411708465
0.1464391983048644
0.1148719717082612
0.10226172786084314
-0.16606255155220548
-0.15940760731947123
-0.09894284548151212
0.0744251327434579
0.16189556649231163
0.16455956701412086
-0.020911526457499642
0.06004867240815165
0.040529183610727326
-0.17748340617944708
0.13474357481578955
-0.05463924519444192
0.04725743272957004
0.029791672698835175
0.07003231371339377
-0.01908016548247242
0.05827151659849243
-0.07359701069702332
-0.09583634806192758
0.02186427905958385
0.09609631164428384
0.10735043211018218
-0.07707925312144236
0.006267139188075261
-0.003076947767875712
-0.042710322991172826
-0.10807787001279101
0.1441213557380217
0.13793441428869327
-0.12385897758741837
0.15287690420620692
0.006095965608898964
0.003522858207697266
-0.07273982929042111
-0.10368266567554635
0.012712302954334972
0.02912312447425208
0.15348356725721085
-0.029878584772387137
-0.013888799302550705
-0.1286264804008226
0.1673413427926362
0.1116090887378898
-0.12795181236954603
-0.02667276664559972
-0.04029559323789816
0.13245382353281748
-0.07199240066559254
-0.12686141505364562
0.11199824494593577
0.0040089284156177565
-0.024801254245832766
-0.16870042763184265
0.11889159513262802
0.16236514575132088
-0.10064730004000418
0.038539390937635615
0.016681369155181924
-0.06708535059094041
0.04355330535859024
-0.053903422764227986
-0.11178142584134691
0.14304999856516137
0.14866885767434074
0.015845758719110942
-0.1547855286127893
0.11053595592616185
0.14783207197937667
-0.13162042528034507
-0.007558417936643094
0.08442047434679402
0.1318001512077536
0.0403334198789215
0.09282190111753583
-0.11145519673671017
0.054301783647237874
0.1474468707803997
-0.0007982105385125469
-0.1524907647682592
-0.04133425113172055
0.08991991969070265
-0.03259533332382636
0.07417456312765405
-0.07384383802183012
-0.10795049785205722
-0.02409181846913631
-0.11582542984447865
-0.10558860401959302
0.1105491601286545
-0.06927528225440947
-0.10734102017554682
-0.12776618682681798
-0.03498426846722607
0.011180410945773564
-0.09041041176759321
-0.09105065581864313
-0.06426601303260066
-0.009692956888897264
0.00689075771661721
0.17086546924876642
0.055742462824480726
0.02889698400832646
0.01608820455163974
0.03182323451337561
0.07573298299870981
0.008054371426483325
0.07961263238402785
-0.056077469487985275
0.12207026733572358
0.17486897535446905
-0.1224419441168312
-0.08716421870425854
0.07323117703327478
0.04109710010364928
-0.12624806850274292
-0.0920946421798213
-0.15659951825596197
-0.1399795909631116
-0.04289577902134613
0.004280915644958536
-0.06987006227498932
-0.04787055729533188
-0.08161358035428365
0.0798332952975451
0.06534249678763837
0.09720297739323326
0.061497394882523114
0.10591374953740862
-0.10207977797779934
-0.1467855042647172
-0.12926632663153761
-0.06135977531893874
-0.025541868750453025
-0.05269065314150582
0.0009173411664294939
0.12769860515348908
-0.06553792453729719
0.013269174463295036
0.06897936050682361
0.017608591749571956
-0.027989351101863832
-0.17138671085185186
-0.011240126057702228
0.06403904748361441
0.06422576626080553
-0.058425368154483986
-0.07893315157474573
-0.13625592481107257
-0.12973513454438293
0.04082663455117994
-0.09113333555008954
0.06515217133932626
-0.07950255991459496
-0.012749386684036268
-0.07431881693304067
-0.0627056906922364
0.034506225884029615
-0.09823262403377521
0.1471490739352665
-0.06283191513409692
-0.0635283392817023
-0.17468890937677864
0.07856672759128715
-0.02202943529323978
-0.02628816500651653
0.00928112184249869
-0.0019254062214281672
0.009510400131147281
0.0020799172482235673
-0.05300043482858724
-0.021186620524544585
-0.16957470232980207
-0.14807705992114134
-0.14059474855940732
-0.08750454506719604
-0.0291372262261329
-0.1195569459379613
-0.08911501363695222
-0.0904618778110664
-0.05977458749282203
0.1614715092104108
-0.0026453173571489466
-0.08065209416845909
0.024853895846472445
0.126442855495957
0.0987237435158195
0.017021864493069402
0.10682397824266601
-0.05765534888535404
0.1444321437807051
-0.031252281657342035
0.06148191776217262
-0.09918172713760756
0.09218107151650659
0.036637838805157114
0.042115880569898984
0.11090558419750761
0.09948648479386951
0.11677491493391493
0.09434302891809049
-0.05450356080045829
0.03244478257463834
0.11238134023393095
0.15720888614777234
0.04237068075691585
-0.0961151984339132
0.07464573489312536
0.07486245667711905
0.14236817150228598
-0.08248475874022507
0.1323606732649876
0.08487097899252823
0.10464779420954586
-0.13376778932384895
-0.0007659204077666541
0.13676551044386692
-0.17551488538513038
-0.21874275013880887
-0.1636008145168789
0.0818697211760018
0.09253709534722872
0.05255343338999171
0.05667635189975874
-0.05560965617716906
0.15067497300814817
-0.13006779675757515
0.03146910363986294
-0.17889135335224474
0.0019113381796248133
-0.02090397533547577
-0.14091998511383602
-0.0709407417625665
0.06660596326256904
-0.1043602742268615
-0.0133250485467273
0.13798465487416472
-0.13838440062769924
-0.07992147729130555
0.1397974533179754
0.013125995059488908
0.07516077376111335
-0.09417476032538004
-0.07276294990260536
-0.05256005259781067
0.08610514851606561
-0.15708178903392847
0.06401321734275442
0.05660807424985115
-0.09227946900222339
-0.009394012243079147
-0.13780350955054557
-0.04855503683398945
0.08958323502488602
-0.08619465580122236
0.010676299407353372
-0.11802463639800152
-0.008078076147435009
-0.11788292619039466
0.026267918650297005
-0.132871944944185
-0.16717509028005845
0.11150646473389034
0.11292319232932217
0.07923028921963304
0.0965918579053571
0.0041242752477173026
-0.07160909658879022
-0.16029968446939927
-0.13361816107449895
-0.06826230687690157
0.16436074599294095
0.06772561512928371
-0.025654935874821306
0.10408739832528466
0.06877448986654869
-0.051906196109856105
0.16031517664573774
-0.11019564877886322
-0.03665548593577314
-0.16529048807124708
-0.0815789265695909
-0.09637470971452403
-0.12314078862061993
0.061626846879996734
0.10154023595666369
0.11429718464427015
0.09859853724033812
0.13823142772868108
-0.11062117564916361
-0.10632970045784032
-0.16478112647292587
0.09444992508046125
-0.041449007776505904
-0.05756086141542242
-0.019061776629993945
0.07080146302492958
0.1506894192323837
-0.162797445730527
0.009920866901778111
0.019760005428681678
0.011697112079924046
0.0725663485511953
0.14918759728251568
-0.08486931984357646
0.05923682664329342
0.05362981433913991
-0.0020118966563967664
0.14892876278465153
-0.07091747415269874
0.053653976529592314
-0.11880523460303175
-0.07746602115753938
-0.12612982130635805
-0.04086395623394207
-0.003249634288691343
0.03434286087998387
0.09144439978079993
-0.09578604944770384
-0.07848172268861185
-0.12465404250368275
0.03274715837560119
-0.048642700218213625
0.06027650808261179
-0.14362482191783002
0.08134546755772382
0.1428398824966119
-0.1454380102310973
0.13859636010747878
-0.11522856419015716
-0.032263352985465746
-0.050504804932735216
-0.02340502034202097
-0.11569496546522161
0.033013239677142
0.13602407055891375
-0.02240576021551759
0.06640395472260413
0.023200965950176955
-0.06539694002803252
-0.1516287252327105
-0.10659014690806184
-0.0026564628680601737
-0.0745072031591057
0.05267433549449989
-0.0956241867905778
-0.08704652198293286
0.008120693553469898
-0.14762756429548693
-0.15750237075722257
-0.023108572408034284
-0.14272232371823262
0.06409622972646113
0.012215259071398143
0.16215588448149046
-0.09966676474338393
-0.1141091167119519
-0.10492327960819146
0.06912860244844636
0.07676525345404872
0.005509937432759739
-0.05031528817487699
0.10992833394470322
0.15271017371616158
0.15562583550760034
-0.1639242006856534
-0.14585269341652166
0.16297230492948528
-0.057373541399587766
0.05765123516921208
-0.015947881097979733
-0.061185168676039674
0.10259222646850347
-0.0489060614881914
-0.027214045126740617
-0.10467298272291901
-0.13727222582348417
-0.11581940789541746
-0.10661509863888854
-0.04112039045902019
0.0952376105648045
0.07004449943489251
0.02360128083138042
0.17799542552193856
0.06643640338604018
0.15211906883087062
0.10123143891352113
0.04269219533142286
0.1440983374874874
-0.11530865189506538
0.04314812640409229
0.08651068127385986
0.13765688985209404
-0.015650891149165833
0.11201028785998712
-0.1367765658479749
0.09366640773236273
0.02155876508826595
0.020397417141956132
0.02575030585170747
-0.019954175170643528
0.02724621049033008
-0.057877993875661615
0.1236728835660868
0.025878612387488745
0.09968588397051477
0.04082298391680804
0.14987525736442567
-0.01008399467302579
-0.1513066800460513
-0.12671001542057136
0.054766051629243834
0.14870366523650147
0.06484508620672577
-0.05455426174985817
-0.1294146121385083
-0.13896169115463977
0.17013561435554272
0.13259854377823024
-0.045280469124948416
0.02041898166763824
0.04170970386051803
-0.1204466956023502
0.15968791134865198
0.06180715115999831
0.07258337895761763
0.1089362094084397
0.018465247390866413
-0.008399579667631172
-0.10194893179002287
-0.14269068466628942
-0.0005994531069677728
-0.1232891996932219
0.05477952109750873
-0.12421489432033328
-0.09519952217631242
0.030275408633993965
0.08029880192070402
-0.15066397692013103
-0.01804363944588249
-0.0376494403002018
-0.15587257416581438
0.10361829591450292
-0.059450608418494005
-0.057647469384336784
-0.09053282310696484
-0.15933827596186084
0.04878337234808197
-0.07048568826841611
0.007199050154283548
-0.1554836227428243
-0.002771514673822089
-0.12256450692094044
0.1563700441166806
0.008891058797588523
0.0013762629034033322
0.08818590985001183
-0.09116075380854607
0.14758942071138234
0.11111128322419353
0.02228451089764708
-0.15412429094885396
0.0520412451208641
-0.02173316632823178
-0.05446336406706381
-0.07859722714488566
-0.1753440474737514
0.09337166046352766
-0.09000141249160727
-0.006171215411176681
0.1398879085371876
0.04920670195180029
0.09758862899835713
-0.06270489878272228
0.17372151780924863
-0.06225605243326878
0.15087889111804242
0.16709205416335696
0.04856568749309406
0.14353377676826728
0.14287286522652595
0.06262440569953401
0.14768376073965436
-0.16578024646343867
0.09111683170128883
0.1417495899674546
-0.1383168351878537
0.11949157387302535
-0.09076978508692062
-0.10097427470442098
0.0055264926982744045
-0.012452649761955915
-0.029645343438564526
-0.06682696999489393
-0.12042613419922348
-0.0004024308335276978
0.021052217267345276
-0.1368464946074729
-0.011511044992317698
0.15534324374391767
0.14349106756354355
-0.1575066200502935
0.14340351597658177
-0.16390909163702855
0.13578486711433885
-0.05159287195062949
-0.13715495204952688
-0.1754632244040598
0.16083672023202436
-0.009474420742318912
-0.16320146795567259
-0.02326991130893088
0.00887299193454915
0.08593585324911139
0.05907125835725449
-0.1693596756587596
0.029223906342966635
-0.017095913305277877
-0.0815349694991317
-0.05277987911795069
-0.14236651517277493
0.1646244330346119
0.22958623358574146
-0.04073498320381372
0.11678721032116132
-0.1021291278731253
-0.043931840204365
0.1458090302453925
-0.07778508747274657
0.007152847807281601
-0.1280184759493489
0.13378752524267293
-0.03397728836042645
0.055391008712254
0.009497753128699582
0.13303928974559748
0.1445320901779372
-0.13731120909463465
0.016783722773346495
0.04091068232420833
0.09079835563881261
-0.09724953498151825
0.10778174465027257
0.14146269208971138
-0.05026719266297107
0.04982792858192803
0.05380229295949729
-0.01413218839382919
0.15577560884203054
0.0634825361825713
0.11642956336614231
0.10103721129080441
0.13856344651798091
-0.0923694255552706
0.07052767370506591
0.1468435499226162
-0.019902362969685703
-0.09679282475180707
-0.03856033761641765
-0.14392876572199018
0.03695870273751159
0.12397871632306058
0.07393289913185233
-0.067039089341505
0.055221066785211444
0.05022114226281256
-0.14766596892247888
0.05976479372814357
-0.034536554583689094
0.06785094858538078
-0.05770444421669482
-0.05836993754036631
-0.04577417488246389
0.10277511837839459
-0.015252759516385014
-0.1040341194401163
-0.06236019104817243
-0.07075958520891974
-0.05104158084982549
0.025049203730892793
-0.13621582854718584
0.09269240883297475
-0.06916730754443284
0.018881165803933394
7.818686160492831e-05
-0.1021260632130975
0.11916310025579001
-0.03258534479611099
-0.08145661724887733
0.026741351627518766
0.05960348713865025
0.10717579550240319
0.12444563583633116
-0.12552194334543113
0.07803495019983334
0.16996339283787126
0.11593513043204315
-0.1657531923406096
0.11400267901054799
0.1298995406527615
-0.051226627987835116
-0.0036208925793164933
-0.021758083247520266
0.04010982574881817
0.04012467298079332
0.06998345291089733
0.07547590846664082
0.010258320151366643
0.01136333843813914
-0.03633322075317261
-0.13726610981558343
-0.09793713512499742
-0.05872748448924108
-0.0795742326205354
0.06509194987009745
0.028052941408019266
-0.07657819507452159
0.05807115071968194
-0.017972380163748164
-0.13048974103366678
0.015888060330745975
-0.04469955408610918
-0.07640741909050845
0.06730042686297186
-0.09390825041858286
-0.016586932770919587
0.09552954976220338
0.034066387882523926
0.1567706329555089
0.10727922359509139
0.07147621980186639
-0.013380055372536904
0.10900991888074382
-0.07950031663965579
-0.1386624320717042
-0.10116161615546149
0.10420366511876526
-0.030447313471769873
0.01756441865098776
0.03692082504086008
-0.14309176841430668
-0.1423856818768858
-0.09032856443692557
-0.05953969969478208
0.05673982108794779
0.00938449435600445
-0.09795933231164061
-0.16181653470059468
-0.10684202596001706
-0.12638930670362866
0.07463815038123162
0.020463378574377914
-0.09771305643199066
-0.07940182473022697
-0.02850361897157706
-0.023438993705064824
0.16961963179774062
0.03866794899689739
-0.00021707279336258267
0.1294695369744795
0.16229808794117895
0.13843942782942786
-0.003629689849513825
-0.08345611857137936
-0.13790784638393988
0.01359070642947646
-0.1706090511694843
-0.08714573976832792
0.03178618192288777
-0.12991132559639343
-0.14236039344061782
-0.020270279396039384
0.11197632461384245
0.04487038859002951
-0.11804948019166725
0.07464655936587491
0.17637770309937786
-0.15196296401535708
-0.16630197294041765
-0.024124086343003188
0.02894529344272202
0.15413589387328527
0.07171566557662035
-0.1611747794869651
-0.04430623606269351
0.11833861821181754
-0.1699330945918244
0.0629757117182275
0.13836666709842182
-0.18832909428882977
0.11305662493593491
-0.01651557481434249
0.13969603656439078
0.016797894386653148
-0.10456162708916245
-0.0789397643608438
-0.012180271777680291
-0.10537171134108889
-0.1012950021787031
-0.05343673342248135
0.08096463518134084
0.11968666259697604
-0.029323938981289793
-0.1105955801120072
-0.12301267621247923
-0.0338676501390177
-0.026745091796410908
-0.05182605318907886
0.12155917960349656
0.04072517917325051
-0.14052429415402032
-0.15701728362481115
0.04239778133736867
0.09042070523636037
0.1926495574938786
-0.07821767643781058
0.038849126455651126
0.0028152426581372976
0.13902244743325945
-0.014682037527355436
-0.009965521072980257
-0.13398667666061104
0.07269719678306302
-0.12142602584053395
0.1379935335568405
0.11289056231194741
-0.06700391933014202
-0.12727523667100019
-0.15358003576826418
0.014986488570928429
-0.05340923754245091
0.0008110910342101219
-0.07919651356009637
0.05003410992858616
-0.030850562252847883
0.0878477744383165
-0.08460160516069896
-0.166537756968651
0.10887189129332633
0.18031160232529828
-0.17190306467607094
-0.07696905769042084
-0.17017902518814015
0.10490893974346173
0.006372458922348944
0.06146813828500147
0.037818632159293625
0.1314803125047912
0.07013915088006886
0.07247480921086225
0.17299900418476505
-0.01464562411768379
-0.10467357662665841
-0.11759620053103195
-0.05176220624740499
0.1350541830636096
0.1493521187030535
-0.044930104412139245
0.15235091913087748
-0.11248287492695369
-0.045841629819462125
-0.060665038922627035
0.052469703802084544
-0.1059890730161087
0.0712252077413672
0.11397752897390326
-0.09378243585348502
-0.11168425354795819
-0.010871773058921945
0.10588931687143607
-0.151723781006828
-0.1277498596692663
-0.1409256976234094
0.16922772348600176
0.040942099381396445
0.16240503309528392
0.08405346694007342
-0.10852488879528924
0.17314360957602207
0.09515722458217998
-0.01938592483532288
0.05931209612128081
-0.03026788350758984
0.1280035486629998
-0.06820591474137168
-0.05277362095540221
-0.10351662780193693
0.14918458353402483
-0.014439996912870345
-0.05811011782494319
-0.17433803889697153
0.026407169902539076
-0.1275980340413998
0.0071309118900866495
0.029791268472834653
0.06334308447432767
-0.13514776487863878
0.14296422764606942
-0.11727672716140945
-0.06934259522212757
0.17981333748431655
-0.05394410034485857
-0.07445178317997757
-0.15275742079850893
-0.05994988440734834
-0.16771819737017454
-0.020356494654439165
-0.055579545177170495
0.006882050466636599
0.0812853915426546
0.06962183593117544
-0.07345706688726078
0.01230578838827447
0.026807443436267852
0.023216079696937963
0.10249258699486885
0.14772369885715564
-0.15499082564813044
0.043248201756958815
-0.04884391087751025
0.11604092929092265
-0.17620621130896605
0.0882235711423614
-0.007794189725503582
-0.0290798731881738
0.05530883604318467
-0.07303825861391411
-0.021571194115815873
-0.015849943947757354
0.10455204862427508
-0.13124734186819473
0.13730043541987783
0.023684666343298064
0.07206839484018134
0.1129053710758022
0.039982796133509996
0.16866947530554297
-0.09591065210547678
-0.16686669178942692
-0.043829170603470906
-0.1455792803147857
0.012112410661401462
-0.11731727200113405
-0.12842778262564103
-0.06757660038356617
-0.01937212674771055
0.13907744830884744
-0.14677306163830914
-0.1038553927394253
-0.14055240141461833
0.013801520233640174
0.00991120956303264
-0.15694313416902128
0.04820478525520279
-0.01769099728216546
-0.03952828187345579
0.09253873309221182
0.11402842905516264
0.08554399770934355
-0.15911247104702023
-0.10011336397023364
0.07500355282870753
-0.1293023921584605
0.0886673576561329
0.00832334702405672
0.13625951987445298
0.031009238195292776
0.0016375569131573042
0.13486481785730384
-0.09636173103048243
-0.014906992240111314
-0.16948148387748024
-0.09754660227422497
0.08443063422026778
0.12760233894918985
0.09002142043660265
-0.1150375054544097
-0.07022480573127574
-0.03965246431951158
-0.15066193613457385
0.12233073783660817
-0.10101385522737687
-0.11738719030565287
0.02862307735566378
-0.14102149459302413
0.004561435468633754
-0.07778314332064559
0.17492045952412777
0.1580178581485789
-0.12734134970858493
0.1731446236556615
0.08894987992287491
0.039437057458793945
-0.10298957908630646
-0.16337358282572909
-0.05422114436287571
0.10201071152830316
0.1709519191517062
0.03599019869803635
-0.12976242491850584
0.1541726708518937
-0.030158134511613123
0.019753613872627845
-0.16115565155264625
-0.01947358803701382
-0.13807290055687013
0.16031485051536262
-0.05312231490125276
0.07025073712012767
0.007036238773467475
-0.020819594978071992
-0.02131844864783698
-0.017684492274516787
-0.023747236737874374
-0.17179133228249288
0.14923865669395628
-0.12612751185959167
-0.05953638916500203
-0.013507333241960986
0.12898164560927908
0.08044629167274137
0.0851466598020833
0.11471738554538974
0.07793748165390219
0.13093761725953906
0.09422483139570892
-0.16898562846755794
0.05843604222895698
0.04693500640665751
-0.16541697833524785
-0.08482624591947902
0.027669676456799516
-0.14873231492026684
-0.09491254202256028
0.08438084747502486
-0.16977090560556607
-0.054138504064155546
-0.12851739860897377
-0.09987074340475931
-0.016034544843744485
-0.08735023531000466
-0.15546794921457296
0.14039120094150453
0.03314032757727479
0.09891380221045941
-0.00271947606250983
-0.09086123124839478
0.13405211033115674
-0.0966092781282703
0.13533723013527496
-0.15119478847504889
0.0813626409853532
0.12293830035443416
-0.03837183998093153
-0.10893515979524199
0.008109432420244235
0.09730024183275163
-0.05833935136545004
-0.06142375501957999
-0.09947121168333815
-0.027649223872235975
-0.0647803829591472
-0.05184688685105891
-0.1138893927465605
0.09107593424072385
-0.12244730822942688
0.08167031821231484
-0.0936473163779239
0.0919492739635515
-0.035421908513081295
0.00841554731027673
-0.06763014157477427
0.04955296406422515
0.1406019023241885
0.1645106337469802
-0.025476571409065285
-0.08690352783676566
0.13868548075262732
0.16816749213378943
0.09050167050210965
0.05100369141179089
0.16919062440263544
0.056804705154028086
0.08309263427288477
0.1259083455820374
0.07083818190593165
-0.0511169366906058
-0.10633653479378087
-0.11640179491254393
-0.12254173157783219
0.15885160942439078
-0.05432335081521976
0.02126104977307298
-0.10844552699112375
-0.1283588223083884
-0.0397207151844078
-0.05124940893715792
-0.08033034820102732
0.12892708067439002
-0.13203489691869494
-0.08272800717188243
-0.11600521577068018
-0.17206176825377384
-0.026220326086445072
0.14596468010877128
0.017154548069065707
-0.15198944118394211
-0.10046162141690132
0.01775622705454051
-0.10365154260075143
0.0695369992876455
0.04776532014533355
-0.04466681686215042
-0.12174970136502924
0.0920623554959106
-0.059841090726647
-0.009314214438436134
0.10000600243263945
0.026181433593127912
-0.02559453060484616
0.050483242538528504
-0.06874490211831022
0.08894669419560605
-0.05337345786692766
-0.018553076563938026
0.06496288942275665
0.08153658175707143
0.059604832031064876
0.07292345708337289
-0.05474454785054922
-0.044795471295766484
-0.1112436784679165
-0.06555541081978272
0.14811320822486268
0.08806428456552434
-0.16335995001653666
-0.11226632287252135
-0.14722895282220247
0.10464290498156445
0.17522968734955488
0.043099126897747496
0.017650453836960123
-0.1238268474130263
-0.10176045800713616
0.09806560000292194
0.1347093764660063
0.09440586661675926
-0.14424938412224642
-0.01599803212135101
0.16177157108716558
0.08453359274826072
0.13315545000529871
-0.12396765467233523
-0.1591319332182632
-0.09006325839440552
0.08132597811971187
-0.060978587609581685
0.0290079940269157
0.12056122576405184
0.023759746564010868
-0.1164390899285697
-0.06493301112016303
0.18197763800685612
0.16668482134766818
0.06281207798019033
0.09074370661837469
-0.04558526151057851
0.049265023188817605
-0.018991976567794368
-0.03448430895743523
0.07544384331688771
0.02037917047373899
-0.0331577741559749
0.10879146819764203
0.14117378390263383
0.13989845680989774
-0.012530501580487453
0.10130491157150442
-0.12484088970819869
-0.025767391430557174
0.11558811017437966
0.02072649590514797
-0.04062856340478013
-0.13780633470612352
-0.10582121569901462
-9.922209268195539e-05
-0.1355026583212973
0.06408651220991064
0.009905424347016446
-0.11234259268795888
0.05209985867652775
-0.10622679763056123
0.15527753590202223
0.15963687044980188
0.03306463526976255
0.008126898510377036
0.13094456789903863
-0.13717598976060205
0.07578137067433857
0.049727209418769326
0.09645198797489205
-0.026764933126669516
-0.11060704041175795
0.0804532107713789
-0.046051323906760394
-0.1091500898159115
-0.05704360394666763
0.12610093267277353
0.08291366944513515
-0.1784600114908428
-0.09061659421926148
-0.10022342143504373
0.040636232022014565
0.17966940280608693
-0.14100231157193813
-0.048037627681543585
-0.15271284276883415
0.12699086531213516
0.09377339263466955
-0.08361401617966974
-0.08591351498832847
-0.05454492160794276
0.1111241118745653
-0.03530007679470348
0.07667485334706305
-0.006894133542286785
0.02725687660174034
-0.09997746831472891
0.04665497845538884
0.059153639282883586
-0.1054023201328656
0.1568413548205878
0.07695091907685339
-0.13187185684201255
-0.11463547221768938
-0.08682479557396071
0.1373556935966369
-0.1167478642911726
0.08858457188354654
0.028668502906158876
-0.11544573278738146
-0.1763477921282215
-0.02985619303294265
0.05052722017283235
-0.13252897454852688
-0.20344381754057705
0.09676054075736237
-0.02628568667875834
0.08947568801703101
-0.02931343676654939
-0.08417402403146591
-0.04409751195619033
-0.05655645941564435
0.09326619676753514
0.07875305716876277
0.0580053782135321
-0.032193910537671684
0.1296266435703927
-0.07628687127298353
0.05834379551942117
0.107573637780285
-0.010215536608337968
-0.013523197320801858
0.1406893089838368
-0.07666875685055441
-0.06691845983876822
0.054854080709576196
0.10799793367726865
-0.1449632745624653
-0.05249314041483817
-0.057644709283098824
0.15779156259413496
-0.08453701607001639
-0.15338642519533466
-0.16529903814513808
-0.0049339210912089405
0.04150293880810471
-0.2111824950927349
0.1236295076098436
0.06332257263949494
-0.11435755268575681
0.03409162313669589
-0.04126551786183622
-0.168904454731855
-0.11019231198140333
0.09720545819269868
-0.043901293652104434
0.14279017495952698
0.16003994860786414
0.11563576956067494
0.04707920148486307
0.15516844291258033
-0.0673261773837968
0.139129279628921
0.09098092487894502
0.12245968380588429
-0.020179490074773567
0.10984191726669619
0.048312877765939524
-0.11447151792835655
0.09918482163640106
0.09203658873353612
0.05314561022338243
0.1632151405562986
-0.11768788039149114
0.10947087923195338
0.019228484155004093
-0.06955363717578847
-0.08222503860921825
-0.010322139218010288
0.0733303888084342
-0.13138984550375837
-0.1686791090560417
0.07074067940064169
0.006379279496273894
-0.08702516612971786
-0.04652760111105383
-0.04063869056847848
-0.03791555053159343
0.11934439212118467
-0.16823434616906294
-0.1251462486455685
-0.15805013590492656
-0.017925757258927543
-0.05613536943603127
-0.2054216437135523
-0.04893292618101163
-0.00375206417276508
-0.060943553437935505
0.11300151142211093
0.15640253766575593
0.04118912729385195
0.03566440236453552
0.12763638510387573
0.09580083091952621
0.057344309255067734
-0.015277471525326504
0.06564897389170629
-0.07504915457298732
0.15929467851709186
0.1109646765009698
0.04647956310917177
0.163201888061936
0.11781090346018694
0.06068875286694574
-0.16402557196148143
-0.07461827226275508
-0.048177612562211966
-0.1735888817409888
-0.12357585423025796
0.07254194767369446
0.0631792012058485
-0.16002410819230303
-0.04668504996812945
-0.15252706958854756
-0.11803994053216046
-0.06882892768015651
-0.037885311928785
-0.028174932951804593
0.05483910469342127
-0.010781347161920245
-0.07300776631931116
0.16418767953383315
0.03255780136825506
-0.09625016710263873
-0.17050274682921437
0.133039061392529
-0.08737969232939878
0.11615153044964276
0.14334300982287815
0.13446833118974802
-0.06595111313218935
-0.04108676335418267
-0.02231521877404631
-0.042327206289176744
-0.007818855065611661
-0.15766586046849085
0.13213642992362
0.1225056329845741
0.14959370978713862
-0.15355627438000352
-0.09104485198273449
-0.10185481834056198
-0.07737975339387451
-0.01807161162565645
0.0905798503758528
0.13591577137217753
-0.07396952746497856
-0.052375410441100397
-0.08306684198237764
0.056605683386763694
-0.013330354457523655
0.10836002178569566
0.14055607983481402
-0.026589047245872906
-0.17533278408692776
-0.16333729465893085
0.05770219207675224
0.05489492620415287
0.08011771444499177
0.12507508352212388
0.0633668333671856
0.08804314185014792
-0.04653978142197135
0.08325111929109663
-0.14257870340537976
0.0486586282069459
-0.035986480368497796
0.09074035620074791
0.011237928967255199
-0.0478068027778893
0.13597601208926646
-0.08002219421705177
0.13203853987149047
0.032069552257142614
0.026675524888257866
-0.047620183684983795
0.03441390495705051
0.14355952440412592
0.11808208605921078
-0.1519956397895736
0.056945683453306584
0.0060808928661237605
-0.0980025679354762
0.13952725480692227
-0.09528683077578444
0.10091129633489736
-0.058950641321679535
-0.21311716586204182
0.16437849507856872
-0.03375989146525557
0.002704114369737234
0.03891540559289184
-0.09910849168886154
-0.15481390830546882
0.1656088963158975
-0.006531485640636406
-0.13015987922195316
-0.036930359517664824
0.056982098199756005
-0.1308842095121119
0.05391450725513755
-0.15130060619125554
-0.0870067753007816
0.12074266424436585
-0.18158934892271583
-0.051756883733360154
0.12165051957052374
-0.13916451995857715
0.0991194158622606
-0.0474236659678067
-0.05649203983432021
-0.07259804834311752
0.061284095610344334
0.09440726744407565
-0.11864354909383407
0.0383868086407304
0.04649258130142464
-0.016755657625607254
0.15789981352891855
0.0931539308230333
0.1437030918281923
-0.058395152873382775
-0.030340626476127473
-0.04756666089316749
-0.10122044835778295
0.17483035481266831
-0.08529669336043749
0.11702238483326122
-0.024631750203090393
0.01363288734355629
0.02903637824498213
-0.12375544681196728
0.05958242774767805
0.0612532104051584
-0.11632016986079587
-0.06113039413552518
0.17627339860956273
-0.1427227988583812
0.06425963818796207
-0.04345126041234408
-0.13119097977970676
0.09242928089037808
-0.07616003597286385
0.07773414358454067
0.11296811812493238
0.11628579595069291
0.05706433912479368
0.14386381878754861
-0.16520085162430942
-0.11794790094970632
-0.028199234207080055
0.00694338676239888
0.11558167415146547
0.0824039113463392
0.13217592133849587
-0.07491548383670915
-0.12790353363635937
0.1400353737875712
-0.12241022300495176
-0.13154671052121686
0.02533777355891842
-0.15066076506171416
0.1166224534691417
-0.056827332881397505
-0.006159029489122067
0.010632890624867206
0.07864308546287312
-0.16207725593014483
0.02983180415600135
0.06119077955630331
-0.1492804239709488
0.16034082863472268
0.1143071055934564
0.05233048101121252
0.14546150351366496
0.011796297939214419
0.021420163473970362
0.0509439630596992
-0.03967346441911802
-0.027296999286341276
0.04862982630894419
-0.14122954682358224
-0.16648890112015768
-0.17732267578363067
0.11152960247695169
0.06129275744996873
-0.1235604758922434
-0.10231620251591253
0.0960001480378336
0.003695361666452725
0.08307154089419663
0.03221457984559153
0.11500089629622037
0.03269553589788615
-0.04364280248209123
0.14377970501958293
0.061312274254473526
0.14753346571976167
0.11044388012751175
0.10225936392172764
-0.14233707208148072
-0.006628034691788992
-0.021778875485434973
0.12892778347945696
0.04481958077550599
0.13834426922831294
0.03957367831490843
-0.06651993980089303
0.10301202862071482
0.15123212213273493
0.15856746029399468
-0.15633019625567499
-0.1445556258895361
-0.17782586081103668
-0.152630060796031
0.04319761601792568
-0.19038577492186456
0.03633956762165666
-0.1559323926631963
-0.013754463403941975
0.12981883260019245
0.16280288735032414
0.011911789225761592
0.14149758862772635
-0.07676106780893528
-0.0615536243209857
-0.012204550590462028
-0.17142713211883062
0.0388412486768172
0.00027407711663866266
0.03135410173710482
-0.12147741914350935
-0.06549068128300745
0.03720155265717237
0.06958707963116925
0.0573580990944305
-0.03411328424301386
0.0373806904823338
-0.12023070102145797
0.0987521411876143
0.07092575019579185
-0.07258468009748631
-0.060976977615506085
-0.09905302423797137
0.024624953185633965
-0.1241501337885814
-0.10517322222713313
-0.16133868154424147
0.025896713863470575
-0.16634223233729256
-0.15563034567381986
-0.12974682123031128
-0.1352007242737983
-0.12271937263644242
-0.12386102272963968
0.15107936650429624
0.0713677893339084
0.08087261302248581
-0.012805221086686093
-0.165281343918724
0.06546269178014481
-0.15159948991322544
0.12167346340822095
0.03830831929765845
-0.00981261263447017
0.03971767718060379
0.06785854627837043
-0.04475937203514719
0.15703026269924927
-0.028519469169573014
0.06604105458159307
0.1379320848242947
0.14438379815738636
0.0015603437333068793
0.0037291224447702728
-0.158611941944477
-0.1422780758267724
0.05906833637795175
-0.12864813726716598
-0.07477172033386648
-0.11419075539515258
0.05219573372200256
0.004545111383155448
0.07066673341756784
0.16006998881935403
0.00654433233660492
0.00609848073266072
0.042903919051431476
0.1567399381038998
0.11613648418663738
0.03190835986945847
-0.0582851509051261
0.10539904901604225
-0.1126036859099877
0.09007173854983992
-0.11704402592665639
0.01417529412800856
-0.1709614434863065
-0.14977192923650934
-0.02952424782076006
0.09803927811861518
0.102170088136012
0.15783028190179602
-0.027852745689684946
0.13408664641723333
0.01764468692629294
0.07507107814681112
-0.0017931388753282104
-0.15568279522670972
-0.1413598078452596
-0.14577402378847532
-0.13020071788926935
-0.10148420181222359
-0.1389034753750053
0.1055326240700306
0.008282725592324817
0.038809658881462546
0.06402466166581022
0.1360710345410395
0.10473741739193951
-0.04963334681118704
0.12802941895590098
0.01265930579391574
0.11957905151847639
0.08503578161879696
0.11692436036712667
0.06535969300615711
0.16236720007626343
0.17195662434045902
-0.14299701206352924
-0.010294204724308559
-0.011354901539933404
0.13754149761291073
-0.07119031518944222
-0.04763462892015347
-0.08681896125196553
-0.056085808312091825
0.1348643412008297
-0.09095860074170582
0.16804377690386127
0.11120332480538792
-0.035180027880060145
-0.10794403423110915
-0.1571646191361238
0.13963479514488367
-0.0572202039549346
-0.17845274500471564
0.10721544544812497
-0.06860525676463115
0.10505753740153415
-0.00891192957614535
-0.04419357300874172
0.10589951550975152
0.1425417736453616
0.10802995949875356
-0.05385308506283718
-0.07872137987792391
0.021089071992896526
-0.007708858045407788
0.03854328383742032
-0.15125358321020388
0.044182226472737424
0.142397815246552
0.08588863834987057
-0.12860265565295317
-0.14599072393801474
0.16540158284022427
0.025702315030700053
0.10665332063136305
-0.05911459398829604
-0.0634853804426586
0.059408212020515175
-0.08673189655174939
-0.13888625981356237
0.11140238482602322
-0.14191754228269013
-0.002490769751525604
0.000796891883658446
0.1403771899237435
0.011676504394961392
-0.13767700021217988
-0.10347358023659078
-0.06505844370225962
-0.018253113316455086
0.10741724146803236
0.16503912217425795
0.00658186224414315
-0.14950866032431187
-0.10257025790107724
-0.14132072280180494
0.02955661886799816
0.10611192880955671
0.13521461572566526
0.11197922062152224
0.07158755519522214
-0.0556047321503933
-0.15360563416692835
-0.006525410809821995
0.02687028754969759
0.0474273493239212
0.1347978595062115
-0.048607254273453804
-0.12715177437430478
-0.10815119028240179
0.1309412022438188
-0.09850155358162764
0.03889296282979481
-0.1688272647634254
0.11733949027672679
0.12036092593395123
-0.009528875079574407
0.08711417090822321
-0.0069368089759813505
0.04197994997173429
-0.15560420709551617
0.12390453118819873
-0.09018511722181898
0.10944661238339728
-0.08920861501376615
0.13866829792403965
0.13725120642946545
0.11170683591239454
-0.11913483298058633
0.12927363017935684
0.0342998575377427
0.13524360232807972
-0.03272235096040199
0.14316370415384888
0.008847549443828965
-0.09421814597079889
0.029004627081689743
0.10386754246019951
0.08312118609549458
0.09748987998542981
-0.17684822596403513
0.1495014908197393
-0.16952221966337416
0.08420575451680606
0.1691924565816401
0.17009743143966005
0.07588308914074876
0.12395211223085487
0.1580562766846676
-0.10969631732751615
-0.10844762210164323
-0.05192435547997167
-0.11532090487298678
0.06464650477529217
-0.04974824933152517
-0.16873627300484814
0.13815894200047843
-0.03691839242286105
-0.08654611297928042
0.10279259891146508
0.1392508258723814
0.059508105142526135
-0.09538660486650867
0.030544923074623642
0.1534992871726246
0.0023487796912701094
0.04373314473443421
0.026256799166647818
-0.06976521864060403
-0.14769988156299677
-0.06115838375705443
0.05083771390046868
-0.028557295261208017
0.09373983235017275
0.15938724941072688
-0.05071687248935781
-0.12888708587881526
0.1363634434870649
0.11734291832376903
-0.10162796897904625
0.11091781951252581
-0.17505324244771273
0.06489386921552592
0.08289010899369911
-0.1251791608655727
0.025403275682876487
-0.054799598063621315
0.02607934587622049
-0.009611729144448258
0.10003089048003125
0.022165863162147227
0.16263347115190702
-0.1340936636186268
0.1356759152878016
-0.1443459692885682
0.10283474573450038
0.06023659642730035
-0.005227974662522913
-0.0208142902115775
0.13029287507698709
-0.15222716698807381
0.015838881889797023
0.04937474229942058
-0.1408849268440321
-0.03810103763618672
0.11386462441453674
-0.007557418923614498
-0.05906073682468613
0.029925794660346842
0.16659436613737072
0.08029970955380021
-0.08597256772146078
-0.03322456395020112
0.03093985741817683
0.015228211949553877
-0.12995467149694684
-0.010675011539998369
-0.04726716528264983
0.010657385699267049
0.18586182688674405
0.06086787400969976
0.12954012912261653
0.013110473779611222
0.08488853831514302
0.08727810427651532
-0.029024577469646443
0.025990030474924708
0.05453852493125941
-0.11715670121425519
-0.10857210050683119
0.0628564508177845
-0.11932413297342274
-0.031573291759887934
-0.007797547650203024
-0.12167034209048608
-0.07656812669513181
-0.1873366490036946
-0.05616468036542009
-0.10686841634778194
-0.06540662921475811
0.03262768362391273
-0.01525314558293137
0.014812930798054768
-0.108608116806836
-0.060241595212335616
0.14450653420918097
-0.1115963567854876
0.0629243606384586
-0.034100959691329036
-0.017527157680532705
-0.14408089992863382
-0.12928770099628384
-0.1160007152072679
-0.13709029096768727
-0.02596983965381081
-0.15737306611106577
-0.15346605684548728
-0.02756203371538738
0.025453043226012335
-0.03365769925928622
-0.1264916383988321
0.011060748328837364
0.1648405078055516
-0.13912453480181272
0.03987928518956163
0.04209149486537079
-0.062186605699397345
0.06670500926880293
0.12953478631994705
0.055216530824455046
-0.15287583325900592
-0.19499271508396482
-0.13648744236841784
-0.14795658223266941
0.1577040843181504
-0.15288562872755626
0.12732025612693604
-0.17223616146864681
0.08006502495233914
0.006733050639479783
0.029279831913605843
-0.05416872673327706
0.10304417562132116
-0.08322207669643727
-0.09596512417475393
0.11726956349845924
-0.00031614556686876806
-0.013248022077443362
-0.06168500097467782
-0.12634900447667313
0.13285245206736454
0.028919125195579265
0.06252339185649076
0.048898373743832005
-0.02348109104066658
0.03450289623810007
0.08384154170605435
-0.1393590515699545
0.012116637499582084
0.11400306780608718
-0.027629425966574795
0.03401383674160754
0.1068841206028208
0.021416263106121932
-0.02983428665175347
0.12220547977993333
0.05055546430232744
0.13547683614609676
0.08535095385158381
-0.13381398792995755
0.14888881807383433
0.05052353877157223
0.041798076474055555
-0.06229985581567853
-0.10868352488541941
-0.05650125990584297
-0.07567247668195763
0.09814386777550058
0.05541549815550746
0.017380424145026753
0.14014300927521456
0.07784154816975196
-0.15119197668683015
-0.10675618671184232
-0.031431116314261424
0.11245902616986479
0.006189368234019214
-0.12810258422104448
-0.050164078608087054
0.0378727418737193
-0.06106945476484196
-0.13570069545918975
0.15031383671895723
-0.016587679456325246
0.13364927819762287
0.14324109634783153
0.15287060022249
0.11607601586214131
0.10532144861125171
0.16257385559139056
0.16335552596955288
-0.0455643673018638
0.0031313642889132013
0.0597766356382305
-0.046279460496375956
-0.02109258486370364
-0.10321942855208484
-0.043064950102288606
0.08990116044745612
-0.013166547262885587
-0.11100222098822607
-0.05452856279413938
-0.07488688194335867
0.021388637308533562
-0.15679013893424323
0.12185256445004441
-0.015109445596480857
-0.09913430177182127
0.1769017587233738
0.06620563539188518
0.04191146497872821
0.022432891073266202
-0.0599264089766373
0.03910296743331085
-0.12791301419009332
0.1617519736070923
-0.07080996784687672
-0.040728244987489684
-0.02532572155471062
-0.09027063339911393
0.12278536934055537
0.039336614981157814
0.15996697986193936
0.07038854328371794
0.11086370568485063
-0.10958496314972682
-0.1170032668651334
0.035229714516474796
0.0833582608685116
0.044898250611748014
0.07936182951933689
0.1515418028041764
-0.1006180619209773
-0.1624254756644745
0.12891980389396746
0.0011180946006764114
0.07347044965203751
-0.09026347300785574
0.0425201811040926
0.14492621785308651
-0.12652637556281288
0.060361164832355436
0.08789734792218924
0.05414447505295451
-0.03165816925857021
-0.0616459345647633
-0.1550829140529897
0.14018833608763934
0.012990401766572028
-0.07082036150584292
0.05363602345222458
-0.1380795819202567
0.1397582934027241
-0.03588772602543955
-0.009033501129999696
-0.06909610282936637
-0.05521462133363295
0.09253748224162044
0.09471997139047393
0.09377686237379301
-0.14299121680046054
-0.11594440105142474
0.07241897733824178
-0.11922810924544257
0.1353288248765596
0.0360939121879765
0.09115724342680177
0.024947492345985933
0.1332959142895014
-0.13361816592033607
-0.06840704156293893
0.1366791383179454
-0.09119986248549618
0.08655866613940431
0.009909601409799986
-0.11598592757031786
0.11842803039194902
0.06513496223395007
-0.1391175953468415
-0.001432915500067466
0.12061975348906918
-0.16205894848144853
-0.1581242378081672
-0.17133812902286738
0.06047814576974223
-0.14537325795546557
0.13041480997557695
0.06531599916269301
0.026567487523363853
0.1451827000411632
-0.02195119728932479
0.12818023641962123
0.1068429439619297
-0.10423860589887149
-0.10120978381291804
0.07039620197024216
-0.016946156881982873
-0.09003730614404722
0.12459956620173131
0.09125564098699364
-0.04428322512275106
-0.014924302613048335
0.0674978123848221
-0.011304092971406665
-0.03772361110967663
0.04545762415307839
0.1331981782858722
-0.016681983884718064
0.04495411844122509
0.0698225868892641
0.02315452666317336
-0.09127828138897931
0.16061989217391476
0.15093129749268713
-0.06853419389940264
0.07664055364482879
-0.039604633967551435
0.04607520113177416
0.1004843806732334
0.02380992501003587
0.012603794789769486
0.1619117561481104
0.15587821700768778
0.08767475658335618
-0.0170124262444615
0.10486806830264848
0.07653340923680012
-0.058962255948379824
0.09768230197010502
-0.10727143438377791
0.14056038046217428
-0.003961811328204062
0.0620196182860909
-0.052609369061281025
0.04672216970884489
0.014341318321299467
0.01949882606473052
0.008468039804325238
-0.10144369622214891
0.09965007470081898
0.026657876386475043
-0.16593361370652557
0.06528101385817674
0.07935579361781166
-0.016235768376706056
0.039648293843676526
0.06810941391710916
0.15128873424005496
-0.09779794356723297
-0.0852074766730872
-0.0027665953868315084
0.16366754901977862
0.07894381099719293
0.0769113006687931
-0.05771654573181137
-0.10460939555318581
0.0943780922611759
-0.07864296050118547
0.16327113235171042
-0.14076891649339443
0.1258289510847107
-0.14256897431871168
0.049570477339498424
-0.05867692375412119
0.03892890375048988
0.08640974058170811
0.1082942780462266
-0.14470400302989242
0.05319175639683956
-0.1092110060872152
0.06054739735085173
0.15291494709562564
-0.058228225769505565
0.2103655044129282
-0.11875922053915307
-0.03673652192066379
0.06330410143662027
0.06328133310820525
0.09534459513168167
0.014788080135688532
0.004679946362217294
-0.08676916174654709
0.15589880805153702
0.09497121674880542
0.11347241938792263
0.08232783667726398
-0.06728247102561448
0.006424062741350294
-0.12509707945273418
0.11092085016988129
0.11340344439275192
-0.08346674856452019
0.05158192267868992
0.01217360924482657
-0.07733170576434943
0.14264451693717167
-0.00693057269433045
0.016826953405915834
0.08170476692313534
-0.10013085033137538
0.06730774904465955
0.12830866449675873
-0.136303218264186
-0.17793931946402008
-0.05805236043553666
-0.05594974279685459
-0.06951150733927908
0.019240523731193622
-0.06428025240335943
0.057940494462674165
-0.1313257385561056
0.08673839807106394
-0.20581289757911045
-0.14313573985017078
-0.15479829262205239
-0.03198998349648388
-0.07851433914279438
0.036274427145006664
-0.04558611157431835
0.16949753607322907
0.10534090224181786
-0.06768492392965943
-0.12457687110543705
-0.01773941456265938
0.06511731154331381
-0.1559415671396384
-0.0493567325947901
-0.08143849578093232
-0.10333535956933022
-0.14701612681409204
-0.05948050661948582
0.16635010433079728
-0.029400492471202935
-0.0012533663749924005
0.06229813362467926
0.002623174468634587
-0.11592420654565873
-0.16069680942406275
-0.10965041323442895
-0.0463981031967143
-0.009767215763244437
-0.09965305710868537
-0.12275749366674972
0.07167837616013113
-0.02848295641693359
0.12556504806514565
-0.1059109727636675
-0.1162370190883691
0.07641822934668473
0.09038901901471644
0.14342953210750511
0.03909705901577192
0.1523069765047831
0.03250958524045785
-0.14626388394271497
-0.013126909179211055
0.06254979722952937
0.03629527420647516
0.03585068390171331
-0.005790958802879203
0.08983836995412423
0.05210198419090087
0.05881961506344331
0.10326364643885548
-0.12880668688706215
-0.1326722406333486
-0.14911236082397344
-0.07496929775824747
-0.029724592279859213
-0.06521380967428139
-0.023011404199783512
-0.04793707026724813
0.043173913770429666
-0.03391791580847021
0.01621128383045661
-0.08921743884445055
0.16475045103717043
-0.05188870940280725
-0.06429415940479488
0.07316124740834153
-0.1253840091808809
0.06126394527999182
-0.00963034066995174
0.16629039822269698
-0.1300822778539497
0.025929146212573445
-0.15593318198457556
-0.07910704435305027
0.046997771291505785
0.0880163684301261
0.15376335218230144
-0.05346183713812694
-0.030031444922828197
0.05753191369524363
0.13226918824167108
-0.012345956948622692
0.06528705642450564
-0.09294159337513655
-0.034911899291558274
-0.0008395802489116942
-0.08535923644189705
-0.06985506336486337
-0.14392224999095102
0.007729699491053174
-0.1298373375094841
0.16595221851509984
0.10645822020396901
0.03423196985881158
0.1323585726046538
-0.006174652868502523
-0.13456674627576348
-0.1550076031612932
-0.15410039287368069
-0.0709797329202937
-0.12041906760597756
-0.030569765261537495
0.06080965658749575
0.05758444573131387
0.06980164986962034
0.05984731477796528
-0.1463664021267296
0.15135239938221265
0.14670973264579215
0.08945624588520065
0.06367560126256214
0.05726791416669086
-0.0432995499986443
-0.016360509392226257
-0.06712569246781616
0.01723468191693971
-0.05045590999497575
0.1484413986004414
-0.07217142584183223
-0.13120015286531644
-0.03483160606605336
-0.012579506350230732
-0.08945221217156152
0.12245841006943226
-0.05189091005638276
0.08758893957889131
0.06579612518090468
0.06425359771185268
0.005989836473052549
0.07347360227475151
-0.05273710475658762
-0.12187561323089346
0.11004288877608562
0.007856114987874955
0.07992330702637761
0.041074887792914155
-0.060955863793090086
0.012485106009266448
0.07624526394657259
-0.16020113175920261
0.10236903914406287
-0.09627302223619372
-0.13400720596772434
0.1404009400792582
-0.12348096778163532
0.14799878141695227
-0.04137403159675013
0.09718937555477372
-0.11241685813657701
0.0879413121852928
-0.09693641439449842
-0.19528558507581018
-0.0031833572373535903
-0.16886886728672013
-0.027420056155270912
0.05376562930091888
0.007535663389033881
0.07704321499630874
-0.09298556050519209
0.05546133841275899
-0.1310178917334423
-0.0335111070843321
0.06500162720142819
0.09685639932181632
0.12568132137200438
-0.08765578367020425
-0.08197042485868826
0.17577980178802854
-0.14162387576670937
0.0896601799344872
-0.07302216627306732
0.07815874011788944
-0.14285723058938452
-0.13780090670557052
-0.08269809546435465
-0.16662794673323572
-0.016894078991372855
-0.03490365104942984
-0.13854852698034678
0.10519013715168032
0.11672998699633895
0.02610438772344584
0.09196294044330597
-0.14867554290195198
0.03303129329528527
0.024132252643955396
-0.10528177407898184
0.1401716672158267
-0.14555337048630748
0.11903836495150026
-0.0613003164597472
0.08534877118050224
-0.15232518029011582
-0.09297280067011861
0.13593708989338832
0.014590180195445408
0.13029704893040425
-0.03559928202271138
0.1063077878142982
0.04719007377498849
-0.023294406722722816
-0.14914409413896948
0.07128991803124111
-0.05865821370065196
-0.038836725298765654
-0.050474355275918974
0.17794914814654483
-0.12582108005768022
0.08763717864504189
0.018224417866278052
-0.15686254107318479
0.14350865083715075
0.16984594229000713
0.08593751617902136
0.12096717694257667
-0.03199755563395454
-0.03557524419530514
-0.029741889527337317
0.13242484968855978
0.11848114354606787
-0.1178361994055992
0.0498420876878209
0.07739340653764966
0.008827931830264563
-0.13668923318740614
0.1220919040739939
0.0985322856341613
0.03882996139893478
0.02827247480613783
0.1791341653454943
-0.14931362400596934
0.023236779398642306
-0.1394448713056114
0.1527091229505172
-0.14510657250578476
0.04425439638183504
-0.12638932501595496
-0.1264850675313997
-0.14349481718007218
-0.11184217447688172
0.184583104367053
-0.14331104918468476
0.03513729883254692
0.02382338099300436
-0.13922999540705866
0.09143136090083889
-0.1753608029235476
-0.07416278901308355
0.028991083933235753
0.10555962556643571
-0.14810119406199432
0.015568031832717402
-0.024619755411418916
0.16217460885201038
0.16952729611303047
-0.03130957288012867
0.0044182878329211755
0.1369789665532812
-0.05730596484016524
0.07965251377916983
-0.16301190688316744
-0.16966358113186333
0.10885367887126733
0.09874763229787079
0.04850733893551531
0.11707532262901134
-0.10438804544867887
0.14028110456011086
-0.10968862743537741
0.10912061388565869
-0.06518342983176613
-0.10759199522847326
0.10266310352383091
-0.10988819298415403
0.09640476194628939
-0.12944291830419916
-0.11140676320619655
-0.024361106788904734
-0.018498864638202345
0.027178889102435842
0.09080313824261128
-0.1491996581015588
-0.10117952480590162
0.03282053519886395
-0.07916009694606169
0.16185586898389043
-0.006727166028297835
-0.0680933824333735
-0.14800405043834386
-0.1463439096373757
0.12406785434422876
0.06419787119694056
-0.16879997258253118
-0.1263977220064346
0.1516288635395976
-0.1844947695434404
-0.16758977314918788
-0.01755973450255065
0.08684805560350758
0.10029968291254536
-0.01279003909186586
0.05012848996919184
-0.1482163276646613
0.08899111858298628
-0.11108483643729541
0.12447044047188897
-0.1361303068513186
0.06335417521033802
0.04061374681321441
0.12863292866117626
-0.13699059082281195
-0.07329869374207694
0.11891292815362647
0.05379228246573541
0.06738234220199515
0.07850965144288526
-0.033015272991348696
0.1026806289644583
-0.1608769248919229
-0.02890721227701956
0.10221722107403437
0.09053756894267496
0.11363382194772532
-0.14218399228736417
0.1623014698204408
-0.09767239113767824
-0.04323556250500976
0.040934445064492564
0.04667124301709305
0.061881253910440505
-0.1102276000870972
0.05938386967288819
0.15870370317655302
0.08433083458884152
-0.030002929664706544
0.1485134295973898
0.08794348382797189
-0.11569213958903214
-0.08850741328490302
0.06719074305234486
0.03709973813203395
-0.002483490683945036
-0.026782476757964024
0.03777053862842131
0.0053685845390506965
-0.01628025113615244
-0.07703458847186764
-0.025901144981510544
0.020234602213464715
0.15451618191897734
0.16359911765529614
0.01655838569513257
-0.16744895280372898
0.08109890720618325
-0.11494008873841455
-0.06190123201961926
-0.16951586896327903
-0.11045607846218916
-0.13818572592036607
-0.09665674430326984
0.11340218218634039
0.0786232720544224
0.02876852155597757
-0.11112849102604092
0.16961201574697704
0.10325567502824047
0.11450165075168947
-0.12423532800349374
0.10820920924500309
-0.027534085271541227
0.11267368011837865
-0.1186142148434598
0.1474407128276537
0.007109044448113795
0.16530189266977566
0.08712480877873643
-0.012908486382282418
-0.022000036693808244
0.1764890031258408
0.14619594507308678
0.05025337784438043
0.0069569055014507076
-0.0014681570166245293
-0.030508092275816467
-0.10771499450680937
-0.010663389747991825
-0.04290848544742355
0.13251175325460413
-0.0395731860100106
0.047647009654011634
0.04526099392274367
0.1363807193803003
-0.1277311048813623
0.006816369406453165
0.18075099574114398
0.1646891196618015
0.06046660752210555
0.06661041243577438
-0.07756911581179048
0.08990691001403753
0.03851120281708207
0.1517418659194873
0.029835741617455138
0.14159077728579428
-0.0848199213209565
0.017812015094166463
0.01845376532986312
-0.16380513546481032
0.03499951729971147
-0.08957432811952681
0.13801125605787865
0.11666134451733108
-0.16311871530113464
0.1177090078485474
-0.051090507593565176
0.08594972294936779
0.09962071174927126
0.01697140775960749
0.01689725205005404
-0.10088049140925884
-0.12292088960411739
-0.09188359011803154
0.10517004807769048
0.06034967036952815
-0.01956420846295684
0.07426881838626974
0.013356477165206089
-0.1534776324197981
0.14529809165383348
0.08677087863045817
0.1719679745910753
-0.13706907033976606
0.14442350770409196
0.039839930573285755
-0.06910713864218719
-0.08936200494012642
-0.06076049364510805
0.12813017858726047
-0.1715450600628621
0.0591398912487128
-0.1011016499116965
-0.11873187921742198
-0.08150692948009623
-0.014707290993187828
0.11506657247061615
-0.05739718374554109
-0.005633898838290009
-0.08349415697995864
0.11104215912419331
0.1639308452311668
0.1685429168144222
-0.11080273851697145
0.004674959290530997
0.1632401323338239
0.10086844919777048
0.17284229250058927
0.03405899486528398
-0.047147181931456984
-0.017786544165477276
0.027506667707215923
0.11328627463853097
-0.1458292701185864
0.0841592036203713
0.021116865460270834
-0.08680968000982922
0.011436805080461156
-0.1551948723795792
-0.1536376619910416
-0.13391170988841875
0.007102664732728659
-0.06432144287739776
-0.05115468887620539
-0.15979667045601045
0.05784359107291006
-0.14035304549830674
-0.035090919003668675
-0.14552714457424334
-0.031465172975507626
0.13030565776497283
-0.05787953919755305
0.03502716274736543
0.14076999922422348
0.10675837267637767
-0.009904042302942886
-0.12410261193787449
0.0822112297212559
0.064923249254029
0.0210196269681001
-0.09079956511673733
-0.09182933783374729
0.1208125225355319
0.16931661366828546
0.032430068044417476
-0.040008349719394556
0.12362237283851549
-0.03244271030567772
0.11073282726419685
-0.13923808384429578
-0.0762486837242792
-0.05601706941803956
-0.02966339692022852
0.028176698715215772
-0.08081635450255989
-0.022252301729900115
0.15578468261410802
0.03636767837071499
-0.10429590224350656
-0.0942033766345803
0.03551052364217394
0.11339730909009396
-0.08469789635854565
-0.07348802566183436
-0.044374239901595905
0.042387345347729595
0.00731591845795657
-0.010348296509224988
0.16243612333089852
0.16171670468030477
0.11092385917084682
0.10940814302161492
-0.17059836408064738
-0.13374094482513685
-0.11096464031871499
0.09109945492792242
0.0599677766556016
-0.12194264037578151
0.06074759901551824
0.16175596670091827
-0.0398714210223332
-0.09893355271846956
-0.10538317126259537
0.05861900630490102
0.035309180056743154
0.05415296819169083
-0.08069253971762638
0.14156031668678118
0.0206804265688376
-0.038437900701296504
0.06397016952004858
0.11631273972786133
0.11047337176045613
-0.16684864488512247
0.08691401871939203
0.06037958881377459
-0.12973932823861092
0.14615198746494404
-0.03915883943331468
0.14765935899250007
-0.061534980993046384
0.05613365519161838
0.099277928540524
0.022246062159021956
-0.0874967644488971
0.15940193897983948
-0.029366779073910453
-0.1542657857934662
0.048242693265323676
0.15559843982556967
-0.15255900913096426
0.1690207003782879
0.06908892153512525
0.13358368161620063
-0.14486951669624776
0.16789824385216515
-0.15997183803797843
0.1552307373837353
-0.09646529772361638
0.056434819998487346
0.15002913751588845
0.16137755900912887
0.0639646701083261
0.11668627937444398
-0.14843662912941277
-0.09693402536568034
0.16006186696722044
-0.16422294431738038
-0.13731194199012584
-0.15893685378882302
-0.16229452660289914
-0.0821227614569174
-0.14211960802562965
0.1337993100152476
0.0891909500435461
-0.16935254031299224
-0.04305985146558818
0.1350977007288755
-0.13237434222414843
-0.03262201832519031
0.14430735030010153
-0.11204738726848688
0.06936838639444068
0.05612519075860714
0.06119835739927887
0.025718399308340193
0.1077063180975087
0.049954548491480906
0.019114290511490238
0.14506709831957454
-0.07904022778452448
0.2355431393993759
-0.12830391704982805
-0.07795543715490215
0.06159232395266457
-0.012692204894650142
-0.16062249553834518
-0.04580107510752149
0.06569974383808565
-0.16369616225367234
-0.07606177993708531
-0.0094749809697005
0.054073836499542595
0.06054515165546654
0.025145824283178197
-0.15471279880319372
-0.18694721861349317
-0.12316081063521728
-0.11697800101590085
0.11457712862954317
-0.044349784928192956
0.070186568036171
0.0628890448929572
0.11094374040002622
0.059492323869966834
-0.044747665623801364
-0.1088539744579037
0.15873337911489502
-0.043493162766431864
0.07642560459365302
-0.05333257532481639
0.11378092725530937
-0.0001852045180342765
-0.13709925508268384
-0.136784875335552
0.14195251471609388
0.11242599393961464
-0.028572682376060157
0.1665837488100091
-0.010003286065906968
0.1951670511694507
-0.07844763867151311
0.10701986005424613
0.039784257616024526
-0.045578312030366865
0.14766306091901435
0.06721329624055135
0.06476784566655429
0.03437794487487463
0.14955297441860185
0.10580054080005477
0.061633562446320865
0.06204294898147809
0.0002426292767935278
-0.05099383125920612
0.13913748874122736
-0.03427964755254146
-0.08124946691832971
-0.09662572636558499
-0.14377367638042804
0.07739356893030841
0.10070961717426226
-0.012756141286048244
-0.08189282243485141
0.1386531408995691
-0.12176308007321959
0.10212142780173854
-0.13934317056338832
0.12205303117399888
-0.06269381528305487
0.04188080550423498
-0.11603622234995957
-0.01812502238484413
0.1191513242482293
-0.13995325755492294
-0.14055445332042532
0.005555228589754998
-0.0998544541035833
0.032298717114613476
0.07106832610185725
0.1340703993325307
-0.05131195359034589
0.07293245761833922
-0.11030578273376569
0.1707870196386528
-0.030116229674757435
0.027151126186328388
-0.0865538050188601
-0.15865834790720723
0.1650216158895614
0.03478542102906599
0.01443059612443983
-0.13954105542603754
-0.13453657068411917
0.15740130964491222
0.03447087678330152
0.16288364963410276
0.018006731536991227
-0.07240831038506149
-0.07270102947183313
0.02432174107323204
0.16874708304179967
-0.1692684719491147
-0.014913024541603556
0.11469958988276409
0.14407647310750335
-0.08333973385870037
-0.010494315042637684
-0.1458092744440658
0.013935312432127527
-0.1487855685519856
-0.16396289043069753
0.012705093207027113
-0.01428928147139008
0.0025769664152591886
0.10159915165845873
-0.11566571791323198
-0.07198443473254883
0.01938366402274786
-0.14556658121362784
-0.13178535444672054
0.07722279691949083
0.13207723137405875
-0.17252315632158124
0.06785907315200944
0.12013142156315491
-0.11327183238031356
0.028905605043695614
0.08157600124945777
-0.08614279579729725
0.17275153159072115
-0.04109610000143696
-0.06159331597042873
0.005301618548502354
0.1619182417027679
-0.01626313926408424
-0.08297794243130721
0.05990892328375788
-0.08881122393031467
0.037000761633543204
0.08256744124871163
0.06790780119405969
0.07552047721434636
0.010791314767644349
-0.0009163734111400854
-0.11697293637331067
-0.08146732781075282
0.0034546387902900226
-0.15099098131070915
-0.04728279228036279
-0.14262557756134703
0.00017226887137250716
0.14616097671742798
-0.13452790104258228
-0.13386861204161274
-0.10625567106505797
0.15059754236216186
-0.12512194733686607
-0.0644507407688704
-0.07880263572807304
-0.021780612068780514
0.1631841671556669
-0.1481395304262995
0.058037455384047365
-0.02771349384583129
0.15646289581665881
-0.025961374732776394
0.01730969239187655
-0.0710054135986585
-0.0985453257519628
-0.02988920551827337
0.09906423969091967
0.013667839996538157
0.08896769875385525
-0.10881291945290056
0.023560988900126617
0.03071014055383223
-0.029387160187567873
0.13727897221681393
0.1463908148983424
-0.060402600829960205
0.11330875996442802
0.08245584744068207
-0.02404208029337651
-0.021356948948982178
0.10211747292924686
0.12501179138718269
0.08882327496869795
0.1292272243976547
0.09972208253436983
-0.024959251179186622
0.03277854217006012
0.13407212616491115
-0.16913641151072628
0.07221585115764484
0.061559582812770096
0.08058714400613391
-0.0069303692866310345
0.08828641966453275
0.004925825801091006
0.0008314307641527041
0.141560345020567
0.09041902104875758
0.0012828906571912494
0.0974341425356891
0.06980150251115462
-0.10927620605470229
0.08066643610220775
-0.011103260126547393
-0.1420135625647553
-0.053596811494996816
-0.1479724868313568
0.07218476356341699
0.01952626794108162
-0.015098310454097005
-0.10228515356090905
-0.05063318338826561
0.060842667993610544
0.011041739407622727
0.06008641984562249
-0.09932758116977089
-0.06610287641359894
0.12094092822721593
-0.1614282527601927
-0.09763647710694189
0.03268524545512691
0.08099719221209149
0.05858456951605638
-0.11368885648653623
0.024943837478293897
0.07408910232812123
-0.12908304724651776
-0.005738526276962097
-0.1393442438361738
0.029638560639757096
-3.101227339270833e-05
0.07494130111197075
0.115680687703165
-0.039076815670211464
-0.025890516703009375
0.11399660724144912
0.02868439822051519
-0.1302901241486645
0.1406841852631843
-0.14490439004843017
-0.0744649617356373
0.09261798722771113
-0.013195099454396382
-0.19105562149207164
-0.08406518444268375
-0.10903327593419103
0.17791091029330952
-0.12175302210048133
0.1063575624789638
0.10103340282549894
0.0006824373176688236
-0.15394838089356305
0.04342276739889237
-0.16764664774782695
-0.15303672612626879
-0.07584054334263055
-0.14126461419301847
-0.018711704049220353
0.13325834876183007
-0.106119882046755
-0.015347919439825192
0.08420461522606631
-0.022068326514988763
-0.01800816564933713
-0.16624026059430572
0.005960252904354857
-0.1323023466601318
-0.026901621928236766
0.013956467603279402
0.16109597941397819
-0.15579066667769828
0.15467156091980333
0.17869536802149139
-0.1224545081159491
0.09767282558177554
0.1315515887344277
-0.04258418206571954
0.035977933306613634
0.12519025884689333
-0.07449850672767135
-0.07173151246797285
-0.12206342522326116
0.18442892531850325
-0.08204097474700735
0.1306862742525439
0.003218324307674721
-0.09316949633440261
-0.10486368720550686
0.006512250803448396
-0.00013568117018921324
-0.10144000000294087
0.18859954079257543
0.06584276502687758
0.05517968370129388
-0.0637170415894513
0.06248856451859352
0.13347437605584128
-0.007850846634422384
-0.030217341243105548
-0.05543854489709452
-0.0422255960707843
-0.11416730391692746
-0.15670179755272667
0.111434657643619
-0.07958374963627621
0.061714538556391384
-0.10519681936892526
0.06336190416207753
-0.16887034214996485
-0.12244640720390705
-0.12270526869366342
0.06688278173746741
0.10459883960692208
0.015433862683691043
-0.03292382578637889
-0.1535226897403319
0.1725150765071307
-0.10226339483343425
-0.14804992809815454
0.0731618386486771
-0.07252108585707501
0.10329061605007522
-0.027718826804590768
-0.03936688224865134
0.04521288271562654
-0.1888544460638442
-0.060185121517329514
-0.038154660070563645
0.1345998154868282
0.12653568349700267
0.11510209638674936
0.18226607274361148
0.04567331500822143
-0.07592193271674569
0.05446706293297478
0.019884526867891505
-0.13957794938795054
-0.10304943472357672
0.11586273914254636
-0.15938206649313405
0.0650455499937336
-0.09593907408826821
-0.09191596042296717
-0.1173984410921906
-0.02550469257745176
-0.05082638484842887
0.14854967709603265
0.022091566608740232
-0.004346555986078554
-0.04703862775540842
-0.14039302561121259
-0.13440622159963894
-0.1096938979140691
0.03209138157113814
-0.08110967421835079
0.13893712092217514
0.020644490936269938
-0.030593826086421444
-0.06317511193603782
-0.01623604466533643
-0.013312000490119463
-0.0032219055216389674
0.030565394778568417
-0.09802324867509964
0.03152529032556095
-0.05556443871650351
0.08361530521895576
0.015487031920900972
0.0005629734105389195
-0.06831802539533893
-0.03909971581977029
0.13672895379766886
-0.14412326156914032
-0.0521905147712522
-0.009027742999239924
-0.05585983535127178
0.11740618827046811
-0.16876077192176017
-0.0019126931163739795
-0.04776092019654824
-0.030562483011362718
-0.09420421102493332
0.10249322046114281
-0.006779131765841929
0.057053047605099994
-0.05583549733262341
-0.06224337378818155
0.21614748166864461
0.10418090304235614
0.10769596477377433
0.09302125478262853
0.0767979416292289
-0.04963163607718664
0.1306585692246183
0.13864629701381104
-0.13356660922269115
0.14052146408187885
-0.009007004813407075
0.07787805574268993
-0.11927052246940832
-0.021584705359658254
-0.03339068659510885
0.026139012066456357
0.07091537195652661
-0.14489301349432995
-0.043064272594254674
-0.1218398194551171
-0.06860392023401482
0.0071165967941143465
0.11014826125197924
-0.1751011143280932
-0.06446216981001408
0.04271553894820532
0.11263768068460732
0.10451179596037855
-0.08735964674025612
-0.08007661533437394
0.09573669243620081
0.07679161269513333
0.1463355134158642
-0.16651914074544533
-0.049271690697331304
-0.1506754165722772
-0.1073355544061463
0.0769794485796595
0.10903666806174521
-0.0009579116879711264
0.00043472995565428625
-0.12701469417039596
0.19407630138027446
-0.10489272050910771
-0.017841147429716802
-0.043584690701860516
0.006536380785472263
-0.06642745454556163
-0.041792538264624264
-0.04606053403944446
-0.13254789210699366
-0.09238764012972754
0.10262180605471813
-0.09750625222787022
0.011598110400982234
-0.05983656607474344
0.127877068109165
0.029332308131749064
0.03310639620651727
0.12801495993891257
0.13342927642349625
-0.12268370416033776
0.004707977901212803
0.0603741128187954
-0.06942486463411754
0.03749732927306473
0.05741572062020231
0.11597867258760201
-0.055496079651407786
-0.13070640659041377
-0.015793885706687674
-0.14787962818212186
0.07678790413508947
-0.06410105342547304
0.14937390196642047
0.01447861436860789
0.09198985446834548
0.007255794069544114
-0.06658048152818725
-0.06222315724195934
0.11322666655555688
-0.1609670429522041
-0.043142674997188456
0.015140178502766694
0.07889884450670254
-0.10321859737149965
0.1650791956108673
0.008457298544292408
-0.023498208204713295
0.035192293246458034
0.11611930650357685
-0.05363484712841733
0.09645566050022351
-0.0944544807678335
-0.1668882188910327
-0.16184313211724494
0.010317143409358895
-0.17317410691780233
0.018510428440294987
0.15416874500452304
0.019621517168635052
0.12523769083784125
0.01087391358002936
0.1288428950112967
-0.0781919465969914
0.03519487924536169
-0.1439565137078284
0.013126084016287318
-0.04852208915159144
0.13225143454743962
-0.13058580369060738
0.030369657937094115
0.047640136789034525
-0.07354863959026559
0.04726529348593966
0.055432581542378206
-0.1304115727942437
0.06740032958751434
-0.11992985645179498
-0.12487041327781614
-0.035044947134763915
-0.004359554780772924
-0.13374998063142374
-0.10191731169074245
0.10620889968920315
-0.0968476065631122
0.07433139817963562
0.13776689042637116
-0.10197735270307524
-0.09150784570975569
0.0517527358976491
-0.04548879688821599
-0.08999150212084356
-0.05859402319862926
-0.03296153168041675
0.055662455478290664
0.0542438600301848
0.1588373321775287
-0.048608876277044945
0.14589034617213784
-0.045149540309195935
-0.12215763605862844
0.16580277259539938
0.09245605076683079
0.15864210668851544
0.12017297853061329
-0.10328765800921517
-0.08909229851468166
-0.03879126549115682
0.15405520028488895
-0.15236431283719706
-0.16755198533244897
0.03646367289444086
0.09689493852269213
-0.11553218131289007
0.03042745982942462
-0.09346524970798273
-0.06823039028158644
0.038211020323285994
0.034099037350349914
-0.08509929212066852
0.019145304910877042
0.14235074652992735
-0.05871439754654871
0.0860374393459073
-0.08633888474294492
-0.14920883914649796
-0.1619826240600428
-0.14734410406974535
0.013980584291894166
0.05950150484596796
-0.1495081891749027
-0.021039266410635048
0.08103346270079624
0.10077776046136137
0.02046935435123131
0.11118067995660916
0.04156725143557061
-0.15278985468110926
0.04132244048642492
0.14696455846700693
0.11352950049551327
0.08844433054722671
0.0938530521550899
0.10528958849092229
0.012476843952673197
-0.0824655981192383
0.08320835442878961
-0.16769255376609726
0.10421060785128813
-0.11176405657612178
-0.010298740599665951
0.007271042929670058
0.09567903195475222
-0.025051669243847604
0.02939193690517077
0.14229666958923484
-0.057325953403761724
-0.07428037833042495
0.13442335310249612
0.19285674858936538
-0.2604957099687403
0.05654162197769835
0.1313765577614931
0.12107273453685027
-0.16672412889179092
-0.14044188664655896
-0.1257214291245951
-0.1317483766031956
0.0011337648654744514
0.03457119029008145
-0.06263179235497841
-0.04463416054435546
0.18230424648963484
-0.035634403047478516
-0.10157387114328878
0.06527626810829132
0.03021356298409214
0.018854226553720044
-0.10756561155344123
-0.013162201730212266
0.01996806341982909
-0.053773541943460526
0.026559369961201916
0.13091929043011719
-0.07140984752896073
0.05351442639135098
-0.10427277660800438
-0.13367800423622753
-0.08917438298209988
-0.10206928292973198
0.1193854948987775
-0.07664339787458108
-0.14644223181825733
-0.10462861541479618
0.011367004833661432
0.009002872337150516
-0.03439464863861418
-0.12321441963178566
0.05251358189516998
0.04199509702627502
0.126737345334917
-0.07198629017423475
-0.10455867005846284
-0.19784684508133535
-0.1714190149191735
-0.17384189687338775
-0.05829549629070294
-0.05060787611013035
0.14671075589798394
-0.050006827261108805
0.16500227917635857
-0.006404694590144519
-0.10392364974925258
0.13662722456620577
0.16877747718487954
0.11798516819729944
0.04153037388072109
0.16502653663857114
0.031903500945098355
-0.12669157714403065
-0.03687885226645224
-0.08601784002951117
-0.08926020574920987
0.17072377494864
-0.13075668866865822
-0.09030141734655577
0.04504719488891196
-0.13227683885957714
0.16681982143473095
-0.04522995576596459
0.1873648291671217
0.1634469963835495
-0.02932023617166396
-0.07857971187131843
0.1140570734703429
-0.10421676399213778
-0.11061963806661917
0.08464241974368193
0.05935922063664155
-0.04089451858794768
0.11024827266394424
0.03618055313433318
0.15018958653094264
-0.09807192750305088
-0.020292001644344606
-0.05408768916497114
0.14680952568424968
0.1817707153219141
-0.034788813135589014
0.03761172320328111
0.14701182350934908
-0.09012435355549764
0.16317124771741262
0.04104159088943109
0.13686635037584532
0.033448504531733474
-0.00651736357983787
-0.027900176832661515
0.1690982675208159
-0.054153477460644396
-0.10396890842909409
-0.07822057941514565
0.1568220391332065
-0.09343046614762224
-0.03931024105327241
0.0917182182785962
-0.03185231293831277
0.1355389612717871
0.039184189504192925
0.06587717583945771
-0.06707558679021608
0.08847147279564412
0.26969927450488057
-0.10676705451572617
0.022122807539207923
0.03604715808656832
-0.09955749821596117
0.15820740384931606
0.04488257056625005
-0.03592721426364873
0.07326860684462919
-0.08697420525474168
-0.17353793019189256
0.13372014933093104
0.12612685321237133
-0.03109611973675135
0.07472435305306649
-0.1163169692392655
0.05508745363335275
-0.10121411409424817
0.008686393614317788
0.08980658894818468
0.02257126336317318
-0.12802109561263236
0.14878138129816548
0.09688633511440417
0.014231766413060593
0.16806939252084638
-0.004188185651442582
0.13799167127439596
-0.05708198090522915
-0.09875196463625267
0.1560674051342311
-0.03831973684885803
-0.06960541068273793
-0.05526588689162292
-0.16960305757827668
0.13197496339832065
0.05143644625833234
0.1343174378100836
-0.13015562493177418
0.0324759391726782
-0.09594924719391958
0.08706978552002924
0.07504530488975814
0.10132028114193199
0.003832653149023404
0.06700210432983604
0.1448665666314394
0.057893947276674185
-0.09649511331970484
0.0024172895182811125
-0.10273642613846484
0.07745959811229351
-0.035376414122838575
-0.1459124232803725
0.15361131067025557
-0.1444569025641845
-0.05589731748774529
0.0297064225382155
-0.15101364654534102
-0.1485771296868072
-0.10150796865387646
-0.011004486137811973
-0.0840946778130099
-0.13905402239009315
0.11390426970255223
-0.08055255949023758
0.04016532005675207
0.11541509803338547
-0.09079299701554845
0.16123679147884265
-0.06966172972863238
-0.05387063546792672
0.14269067181508974
0.08576266451991671
0.0885273111551096
-0.02626151082149076
-0.0330224397506341
-0.04658395903976355
-0.01712745372227695
-0.018498712578935754
-0.19375755960681734
-0.12899234884088523
0.11643002380056253
0.024391932026563392
-0.05201320148629057
0.06159306913684414
0.14315357404620419
0.08867252605008788
-0.1583893341018375
-0.1456976064414476
0.04078284649999115
0.0346665315683328
-0.1013312759337441
-0.0863428234738816
0.05575919447168101
-0.165592718872766
0.01861271150137686
0.06963925286761273
-0.11750775103956912
0.05127882750974978
-0.06402737682693817
-0.13266893574022018
-0.0860590567851233
-0.007335712079079153
0.0595836186796134
-0.1416506891691437
-0.052890140934913614
-0.058669917152042735
0.17527042398847242
0.10894553978269769
0.094944927704567
0.1370746144065574
0.05893739691881708
0.09582655915550149
-0.117644969517459
0.16005348072813755
0.04921275219634885
0.13520040171878178
-0.16990614245474703
-0.06326059178279618
-0.12610789623290142
-0.04800534128660638
-0.009018570152986585
0.14796746699750488
0.10986300083633756
0.07937894656673897
-0.14817378649925886
0.0531245466869089
0.11059904057833249
-0.15948438899364453
0.10891791068337252
-0.028932946794835598
-0.16980693836873698
-0.1754821266028458
-0.13842835377220736
-0.09601239085809021
-0.10915448243059982
0.010812398491356377
-0.04310857644962784
-0.15472967226426812
0.14137639982143765
0.020111043108438892
-0.09863814413778983
0.05160824659250501
0.15457831256017754
-0.12566409597074304
-0.15342761928998488
-0.14123565338198227
0.06901219384878227
0.09589100444550527
-0.050625246048535515
-0.13583640983185255
0.04544195214841887
-0.14472225688984872
-0.09226092096221643
-0.06528607304016565
0.05007173865419896
-0.06427160250251558
0.08119325402129754
0.12823819803473221
-0.07694917642004895
-0.03292600711376467
0.060814415092531486
0.16487348706862534
-0.13472702751787197
-0.028075511410927217
-0.134037331608813
-0.02724267484284054
-0.03874242834592673
0.14644350287158242
0.13563108332257895
0.1255185461898854
-0.041539450181484305
0.10226344533725006
0.18211888588767022
-0.11694702859127508
0.0751115515072727
-0.00028687835763108643
0.049283919600966834
-0.106352216300745
0.09947898882764024
0.025749811810395623
-0.155801051278229
0.11370733535511084
0.028252043320658365
0.07077599599324118
-0.1579180484859241
-0.05572340127679386
0.042972834707664984
0.019313536901743575
-0.17612268025370545
0.13323374425015075
0.07272420164620359
0.007970386451678222
-0.1052906932444959
0.08840327392175845
0.17448101820876336
-0.07217127661967884
0.14064182205545409
0.07199629461118648
-0.029069349892536844
0.10581131007622396
0.12329329171598498
0.023060641352669716
0.045626285533000875
-0.02786024009165144
0.16138236490348828
-0.055498245688258424
0.056415760044944814
-0.1761274459907886
0.08322767292290563
-0.06625621911609748
0.028562015550186923
-0.16615876632428964
0.09638105331123582
0.03745840529036851
-0.04076518504277504
0.16546762000171028
0.1640987562619658
0.11617023626889864
0.15022794022991814
0.08787400539962112
-0.12534910608340696
0.05274099314772179
-0.15786560640189565
0.007088862619122554
0.044628590262470964
0.14230994145498777
0.08760877858282644
-0.014503387715784228
-0.10872581622367151
0.17188674203764595
-0.0073544842848466685
0.06911387085716532
0.111193845539978
-0.14838513856179336
0.0529059181352795
-0.007457194233890458
-0.14955805090067026
-0.11239556484736273
-0.15935725811471763
0.006836160385860021
0.034112268251807465
0.11289774512939094
-0.13429278776822695
-0.019690153496548877
-0.16466730502614785
0.027767638527323273
0.03817270556929481
-0.027909307971124044
-0.01119192188860912
-0.010127070685749955
-0.007444260435767958
0.07959363703479248
-0.03642531766163946
-0.0625137379993646
-0.17225223995008837
0.041333926651142223
-0.10190889817585576
0.1456768686507179
-0.018700888860191296
0.08843087730115926
-0.1567653617244356
-0.156971876408315
0.13341803436384223
-0.14999123158297042
0.13935121288228758
-0.13416427067133077
0.13804749100633365
0.14740513817856618
-0.07978918000604053
-0.03515210321552732
-0.12650258177773283
0.09090943030549668
0.09240538343760112
0.1697857971764811
0.00023773302080750327
0.029278040636031656
0.12466113216682188
-0.10049648233379198
-0.12796049677390509
-0.018017340615456026
-0.061395855403816695
0.12318764159854745
0.08995246700767992
0.12004695009404641
0.12394458911795679
-0.005014622237820482
-0.12089968085548833
0.11387506398740177
0.1324805630080751
0.06233022099304452
-0.06924561551106226
0.06895537879428752
0.06753916912384353
0.21977977548816716
0.07623133094520748
0.07211488907382649
-0.07884527629799572
0.1624280728744495
-0.1453977863031806
0.06871880513303057
-0.14389747693339855
0.15006429476626243
-0.00045316302956813215
0.05565873864972157
-0.00538316697935703
-0.07581697496373642
-0.12263427690133567
-0.06577584925612248
0.04163089397195615
-0.030333533089360643
0.03910424239805463
0.08682403029023936
-0.10221893657169091
0.13473871101505824
0.15938946408803717
-0.1553649701763497
0.1568691840983617
-0.08980494952445697
0.09511682586170257
-0.048798634941239
-0.05133659640085577
0.13256309855961756
-0.05875984300413465
0.1024827238354471
0.07391976821036068
0.03652815694096329
-0.07476531004226844
-0.11893310717600383
-0.1613615810245976
-0.142133235273818
-0.15423172052790127
0.15100912330244956
0.12435890938479162
0.09350313537411968
0.06863510520558169
0.08310787264966338
-0.10848787029974262
0.13207786771180763
-0.14286012760591016
0.09129008027497211
0.15695613386027732
0.07854663937173853
0.10601387526496306
0.049542990489316735
-0.020698464299919835
-0.019180355518364736
-0.06437102748768478
0.1310354181795267
0.016745980540445113
0.09316987941270147
-0.11598925128836077
-0.030086230413178545
-0.0643731274228582
0.014922708250457438
-0.16599213255621798
-0.09890160199907135
-0.1663285618783878
0.0975491347043979
0.1441267647887299
-0.040592588878849804
-0.038205116376768065
0.02989525546096446
0.09003768311382607
-0.03754349367288648
0.169986148686158
0.05727596063582538
-0.003426489128217608
-0.0031491833053203058
0.0734096573296714
-0.07459199201360163
-0.044789642773893606
0.08959700222710419
0.10170887149698472
0.0370692187296321
-0.14215185372676198
0.03521712211736061
0.11574960670265196
-0.13640206479973382
0.12588113394083333
0.014460305386168448
-0.13907931884047692
0.020442645975508808
0.10531150077509045
-0.001691156720377756
0.014943132370749887
-0.13339371975788486
-0.04944459640790155
-0.1357432849622969
-0.011838814176185477
-0.0014502713844460119
0.09358863163971307
0.0694316805704778
-0.1613715544217255
0.13196576223217693
-0.13239692618067672
-0.1653915280519862
0.18641251965472735
0.17435009570904453
-0.05801125934016683
0.06698791159734967
0.17161186643855275
-0.025520474365765808
0.008830827302656026
-0.08829482201836111
0.110597940880021
-0.07622439099720506
-0.1688749793752347
-0.16566812934937805
0.06286066992255379
-0.10019610754406841
-0.046854651716846545
0.1540488360846076
0.13441007628134508
-0.05269558757230053
0.06479951425599087
-0.08907550181153574
0.09497145681698983
0.058707487774395876
0.09808592695613909
-0.1182875715552376
-0.06701959211801664
0.10815718413933083
0.15491817846544717
-0.04958448918036921
-0.12023360011044953
0.1259805296870197
-0.11533194141292741
0.0035649156760938962
-0.17194388850688921
0.01584953555570208
-0.011453965117524861
-0.1325689869043223
-0.03184716369118145
-0.01651275398647466
-0.1435406278023961
0.0015167196075503648
0.0737929324031568
0.07328847180610722
0.09783152474352477
0.029622366946106825
-0.12860560452970762
-0.006556509594702516
0.15818403727071179
-0.052088686362924
-0.14184357116581417
0.0771263930354168
0.0027579043444387434
0.1541494133443268
0.062044910205388284
0.11213847288084448
-0.043192722137925924
-0.1574536048255472
0.051593561252255
0.004472491051746189
-0.16169764638195638
0.015815877686822306
-0.02485267468303782
-0.05387581425494147
-0.14932619890691237
-0.12768269635764332
0.0946978984306325
0.04224159614797522
0.12453303526683647
0.12512891765268436
0.08278762702309456
-0.12376336393463322
-0.10272407957843745
0.121289673939645
-0.08611058329447417
-0.027653488456851144
0.06543864443334182
-0.10715516827298587
0.11555132269129542
-0.09190117116138852
-0.07909908457076154
-0.15533728757413096
-0.02004233715947736
0.1284239600433776
0.06592426746824187
-0.023615121208810916
-0.14033456100195982
0.03812218510524642
-0.13905568359311354
0.12558031243985998
-0.10927804383699428
-0.09533297780243992
-0.024376116479734755
-0.0690749883144314
0.08467388270496368
-0.13188156865728834
0.09592865814630186
-0.012603032059511006
0.16718094806949352
-0.08730206714591955
0.1628773605585794
-0.09666221739515296
0.16342450207260548
0.012022569821711087
-0.0965651366325623
0.06880932853455647
-0.1480731014748874
0.10534444004958077
-0.08321386902484176
-0.017588946743478277
0.031100708736451814
0.06111086247886095
-0.16208968980125948
-0.07234432834423504
0.15363235042000944
-0.08465557707651196
0.2309887006916392
0.04430742569022793
-0.14787310717047297
0.12792343059630326
0.033939925703436125
0.10527535670366805
0.0828266069396084
0.09944699485274336
0.06606791525687042
-0.128438504096028
-0.06750466772606578
-0.07779490961214176
-0.033644870335184346
0.1501549067375712
-0.062189497416389336
0.12077811754365379
0.16221501823136777
-0.12657753491881985
-0.09376074737696237
-0.04366132674062566
0.1432458831896586
0.13270099092885032
0.11143397045213675
0.055169021305017524
0.12714085374540032
0.10865315125893249
0.15558020077008233
0.0632666876017102
0.03536732119347782
0.04398861564670951
-0.15456260318103482
0.16464417788584787
0.0552662302297329
0.0021536354399051116
-0.17061057686621586
-0.10156442217082515
0.1583273202942278
-0.045020111252791005
-0.15870901778978092
-0.1406415001138053
-0.16099061763611963
-0.12501456218317544
-0.03017506014608607
-0.17322036190977058
0.10181249602753473
-0.05326458861400679
-0.06687134309490748
-0.1818245013029572
-0.04176811421959856
-0.0649348120600893
-0.0629637259777984
0.020426133100627866
0.026663930103715077
-0.10065635346378957
0.09700466750063219
-0.05223171658708871
-0.08000109656558532
0.11406945675086849
-0.05753576169429388
0.170812170811528
0.040605909787296675
0.127227319022834
-0.010220555472809967
0.09126837453519206
0.05115571104773546
0.0135179630037753
-0.1143682155547708
-0.10073470124944184
0.05807677984557293
0.09694783319333371
-0.13824926319585104
-0.054234130651542645
0.15836658971503778
-0.026165129254247743
-0.033426920328391126
-0.0055502660549806735
0.006773545908259159
0.10474487241248782
-0.05015661599545416
-0.018870846487435658
0.07359964804643938
-0.0923124859868806
-0.04914893509684047
0.01143818699450293
-0.03230522834702052
0.07333383657387436
0.12366495495165142
-0.007166399001276136
-0.10250298369021091
0.0016463749153689334
0.15010578522199072
-0.05701612820474538
-0.00016979442921710684
-0.019255985306109592
0.0909201942903363
0.13682757844397855
-0.07980869225077172
0.14471314149389153
-0.06167441243052004
0.1586767360401631
-0.0861630715751664
0.0682192123438233
0.14109349065674795
0.1342990717622932
-0.02438768941721986
-0.08079495210124053
0.10864763304602973
0.04452257651474128
0.08175999987955056
0.011576476146151872
-0.15532416883111144
-0.08564869899849135
0.13580912710694962
0.07117183332495036
0.09750321493288451
-0.06156239213843668
-0.07714979666562585
0.12076573261662112
-0.0653745573487203
0.1119177588638116
0.0023549892530469185
0.007307618887662182
0.11953530718068371
0.09365768814924096
0.10083189113815139
-0.10425415162271605
-0.07350166765039352
0.052809713624771645
-0.014229910971426393
0.041484366749581315
-0.1277900941996216
-0.16722497403724593
-0.1551808824086396
-0.03632897728115387
0.07731690620493968
0.07601475806337761
-0.0007488688469599603
0.05455664975123794
0.1612928852497523
-0.1679708412702787
-0.12906764062319007
0.0958099582431835
0.12363043244802815
-0.017124426546042872
-0.043933752250800276
0.12096554241378825
0.10747005099390045
0.061670247990685746
0.15372815820149457
-0.11619627498296904
0.07458747322943174
0.17600551777342419
0.056524017968823476
-0.07266459121050653
-0.01774043393543691
-0.0001877072018783723
0.06673745686034097
0.14074564575634477
0.04718143486962942
0.17582115707492066
-0.15021425707974104
-0.02667167003064068
0.0422340737179678
0.009687868346954356
-0.14312234325545212
-0.14869148805560817
0.029433545965641326
0.058696935420166366
0.04422807259188924
0.1802584904484337
0.08122461517023258
-0.157550224882073
-0.005042200727243448
-0.164764839760625
-0.11535071163204906
0.1350634974661903
0.12705717602803032
0.16296329784777944
-0.09366389438116256
-0.06349027689904768
-0.1632641398615169
-0.060873073909096055
0.10074589710346003
0.042813646079320575
-0.07329695230337445
0.07366099512106418
-0.07367436649150821
-0.060715188936702295
0.0355719040718644
0.12576486137824106
-0.016428442868129525
-0.015968287509471112
-0.07057478639489838
-0.07081499369465774
0.0031038989031164925
0.15893075867233222
-0.15824998090726344
-0.015330023787412208
0.12651889739651537
0.15512586819569335
0.17306409462562153
0.1709196427097292
0.1318274178155626
-0.050882078648679156
-0.014377363315025793
-0.0627428557593498
-0.07508840175822706
-0.1369374698004475
-0.2275312949620147
-0.11722430265392261
-0.08471271576844253
0.11862101586647397
0.13430995335370213
-0.059859055371247555
0.04347185606139222
-0.11078268048896438
-0.0007826128540905641
-0.08606792561204107
0.11934156839683784
-0.17781264786263798
0.08589412493901755
-0.09582844846415033
0.07447867854591227
-0.0762718053540697
0.08466556559937014
-0.043613933787106825
0.05748323843954688
-0.03130653443789537
0.08467345373631165
-0.15426997526651115
-0.0017107084984541996
0.18015270699919095
0.1145062703475184
0.04689397156371669
0.023819092451234886
0.1341332591969672
-0.17228178763512125
0.014738498509458022
-0.16116668129868028
-0.16689085307036675
0.026975208616438817
0.030660058186163318
0.12080113499694174
-0.15457109012451398
0.05905422557877627
0.056628396440297366
0.1726604795354355
0.1108801364196602
0.037907069927828746
0.09103101260752183
0.06758960214585485
-0.008721967083844267
0.15748698467360786
-0.16367474040084665
0.029590124421583344
-0.057326036185245004
-0.054535642201832664
0.016129301582396744
-0.15991044274566016
0.00942145386692915
-0.037030930569169285
0.01569605064256775
0.012305693614797875
-0.09550349211863272
-0.07702474749899467
0.03270444454899072
-0.07707435382325913
0.1564802057664504
-0.11354267284446092
-0.17396383227481368
0.10968002304103285
0.16653663170734506
-0.19497918660662852
0.1715378676018828
0.030462457554210398
-0.07314103470036024
-0.012961106458862563
0.16286058565499992
0.14816404078704198
-0.09880643445276924
-0.1582631084331233
-0.00356842797411525
0.1357877045874871
0.16770163773465016
-0.15841420344023352
0.004925728314159748
-0.09580536687884914
0.13995832590116006
-0.030434514708137878
-0.16633302378510567
-0.12304571473876932
-0.15894733696128033
-0.05197876196342739
-0.04160218309245488
-0.08225390240857837
-0.12663570381031164
-0.001509199738192163
-0.032100192798617595
-0.04113334427614189
-0.09210674575217659
-0.031951302345768595
0.029399100183542946
-0.17053747146835793
0.1523870059690891
0.015030103378000564
-0.1596500754402337
-0.009518253053841285
0.12162358213811138
-0.1406272950232077
0.004749279824929783
0.016820922210933155
0.01369496684955152
0.05806608941410299
-0.07072798444399896
-0.048203889710105544
0.06379059621930831
0.004981107953528099
-0.12068593550367884
-0.051788328345338766
0.04061936023291038
0.005712321022712013
-0.08846325245954245
-0.04328623916368553
0.037888293919466534
-0.10774992587218644
-0.0030403831882706406
-0.11843612298064495
0.1078585664517998
0.1285671447887747
0.08577460544669019
0.06952651637140206
0.014381250283011297
-0.0744733180371166
-0.174296641728738
0.030635864178432858
-0.1012685957503537
-0.04331146528488037
-0.11149599152957919
0.14669091276815752
0.0695364146398613
-0.16839812581505703
0.09604163902894058
0.10822338562579258
-0.16504577131388146
-0.08512432989433215
-0.048747857570827176
-0.13452713291059024
0.08035528107789232
-0.03516197047290228
-0.12614076437079733
-0.1267904274708542
-0.07030648892124097
0.055442086583939926
-0.1682554282050287
0.025204314913328935
-0.027329423452954322
0.10640987490327282
0.08953343411639464
-0.06351695765282797
0.03721671697982224
-0.16040844280826705
-0.09865010569436528
0.15006850914667982
0.12263197923581416
-0.15279165395398356
-0.05304362554121513
0.18303189991960697
0.1079970117151719
0.11824111369954274
0.10468903177380658
-0.16263077433202922
0.15915432878652275
-0.06543619215109205
-0.06796021085393643
-0.14293813811089554
0.12078694677175687
-0.059269053099164706
0.01235176627817739
-0.10850715256858025
0.003500750365713368
0.08006738441550083
-0.15273342325676245
-0.15376547158095805
-0.006147115071783819
-0.15846624024484363
0.13086448489896316
-0.046158497942720686
0.15274972099642614
-0.13658465046768012
-0.018167167143095263
0.13101314608426057
-0.13263132823281434
0.1078117227926226
0.020307753570917218
-0.12342215828060023
0.12347502231847356
0.14722737998498617
-0.0776323423290359
0.11369142292858711
-0.05880869952861545
-0.07977900604078421
-0.011476306207207373
-0.05922319452401951
0.1466206602030736
-0.11518528556711644
-0.004661370417456707
0.1602945356206471
0.043459235291440634
-0.05922702312351173
0.1481494655930587
-0.07314247197389932
-0.025124231478230594
0.010096882135280396
0.1379257573619971
-0.05950751544818111
0.027220158984711695
-0.04177362727419481
0.030691487901824036
-0.006247031653390864
-0.08289012630296529
0.13447346064683088
0.002505842272651705
-0.00012265271444765236
-0.1629320739002599
-0.045939892123580545
-0.13082373726672372
-0.04431851254706503
-0.049155146122495774
-0.016648608082412735
-0.07452071872346451
0.08340744013570006
0.0742561092353636
-0.12622024198486093
0.14783868107917453
0.16026419502023231
-0.13055452459560368
0.0693037010908189
0.0888277213683485
0.08935762495179318
0.153313763614922
0.10369193995209738
0.07313021041826905
-0.16112638427210596
-0.11653565417157272
-0.05910356228413672
0.10843798816878003
-0.17096893290531262
0.02389109962714439
0.10319464500799819
-0.1335382110119215
0.06956939189855227
0.07314609377621437
0.15136192030242626
-0.047398560814489704
-0.14563474866024467
0.17052112107437972
0.01102415043342303
0.10129105932662703
0.030859229652982798
0.1282005011660334
-0.11180347655329465
0.12246112874402015
-0.0644119440933795
-0.059098530227122026
0.048817384943807024
-0.018015598564769766
0.020114644396489977
-0.1496226987974507
0.1524097568338936
0.16499670462945074
-0.09445254655210586
0.10004627117160939
0.03804562025148722
0.15149401104262067
0.05123346444174915
0.04689101541069431
0.1323095117652005
-0.16215354763678239
-0.1545483094645186
-0.05542338873069837
0.01763340403582514
-0.0006348190077011131
-0.10114465458715055
0.017880947787396972
-0.1821526739601104
-0.035573442225053466
-0.116486290599747
-0.09084110144054137
0.038787569645316794
0.09353806799753132
0.17807940119419385
-0.09358931773707835
0.0029929550275626417
-0.02525683973364433
-0.09717854321274175
-0.11914602079807309
0.16957595333303457
0.07112770741994266
-0.020793293212514524
0.06766345011415284
-0.1196644600495377
-0.014156458580349566
-0.016574819882211843
0.04639283670706281
0.17038598718171624
0.005554230436224093
0.1719314374733949
0.0763062680209154
-0.02073966967012034
-0.02272373582304722
-0.04821171735263344
-0.13593315091064812
0.07520014617359176
0.16833304485955203
0.10388684336618584
-0.04779348380062409
0.16764719008760107
-0.07186377083353675
-0.16361812985288388
0.1621322282417315
-0.06854451241308307
-0.04946652745988495
-0.023597423554968796
-0.08265108382598656
-0.0918968170095226
-0.06095128219376178
-0.11048263788027164
0.1452499810915257
0.09876352600001877
0.17540363003021656
0.11465191579452307
-0.10616837039134862
0.031488190040705126
-0.016571924807332963
0.15298976143695164
0.14314842238631972
-0.12403166032996892
0.03340289189097419
0.12628858304393675
0.05049885751136128
-0.07396469172121402
0.00023808776222236156
0.06334757538048373
0.12091424725067132
-0.02341578882729703
-0.15049862174235393
-0.012074712130352978
-0.1255374610542629
-0.15717120253482095
-0.021181325539553493
0.1302107125001603
0.02253810923317359
0.05210322605077497
-0.11740623712843568
-0.07337502993251947
0.05361228640819476
-0.0005044858211329536
-0.00730928269046603
0.1296717293102685
-0.08150718083148985
0.1321564313480932
-0.024601958571167037
0.12707501273426092
0.05977436605073263
0.14052624605134345
0.04599886407161355
-0.09435897768200263
0.04337379432344289
-0.052207009212793365
-0.055387281777132695
