0.0813678948449211
0.05847464329191759
-0.09695699622854488
0.07648189024300477
-0.15361777666503526
0.03582407154795701
0.08843528271862242
-0.046570775564423184
-0.163525387381588
-0.045185225963599376
0.11988577453977535
-0.05059724724551893
0.12552789848362675
-0.16738945827355942
0.12897104613046745
-0.008892121404512687
-0.05005795690142555
0.06734296689905264
-0.11057955507056005
-0.08679655155629667
-0.08324102788496787
-0.14864971522470904
0.15185433652805283
-0.0489688291454814
0.14985650458226282
0.06300936034813626
0.12151699164221495
-0.020076431119695943
0.13415709283925883
0.05214600429243182
0.06732191459431573
0.15308617777104946
0.1138353373447704
-0.057235891218736894
-0.014265939015253071
0.09410258521728405
0.13495319669723876
-0.10951104794128841
-0.01937677041889619
-0.03451855578133206
0.13585420405322957
0.15104931110632316
0.15025671560612106
0.12314396095267724
-0.10751663490699281
-0.10697224105873653
0.1371106947041365
0.17378396549409578
0.008674693342692106
0.12182276865463379
-0.09632430392364229
0.025586101784061878
-0.007796335710609506
0.0566400549147822
-0.17486603833149394
-0.05405192036360525
-0.036703988687440944
-0.12627375956953907
0.07960428320129571
-0.16598034860860914
0.03575256979156327
0.04332020741782773
-0.12198664941395439
0.15825303302048177
-0.0786261475130723
0.08485325912969638
0.060407056136495
-0.09802133664358188
0.12235362914941061
-0.15733412262152557
0.026823972995739027
-0.12364464087761326
-0.04630194855211682
0.030810731778148276
0.09277485583826428
-0.16102640363172668
0.12455071269514495
-0.05720341269540012
-0.1511843596544102
-0.00976199958603159
0.03294161222375447
-0.14101750389471268
-0.02731165973034243
-0.09660056858126867
-0.1535193421109158
0.04351965054149286
0.047149525152469667
0.17035086003342192
0.11724745526108392
-0.09955364533313739
-0.07185723978461407
0.0140020715435936
0.11685230720058194
0.16025642098633414
0.16668276387747658
0.10180191483855608
0.09020111925659219
0.0280294280046961
-0.10696270260526655
0.15689425984692876
0.1200826904604694
-0.09843993470509348
0.05651043572457964
0.08357945754154737
-0.008191469518447509
0.1152756186408452
0.14125819934211079
0.03337154343668971
-0.08502888143146992
-0.006780283624511589
0.0864192379743135
-0.08711019859590904
0.056300642743391645
-0.049992351899857006
-0.07870240431330805
-0.14239467057938035
0.07748475853074906
-0.13515693416332814
-0.12777280535963811
-0.008247414114986197
0.05576890860013897
0.0759510798574298
0.11471757476151094
-0.09132033681130516
0.15977969462704922
-0.03727902849279551
-0.15366078589398235
-0.17101454401145635
-0.0806543268410375
0.01820747036024407
-0.130585156572727
-0.08976251339617389
-0.0025921746379812282
0.11236227207359716
-0.040872332664802426
-0.07296318694565089
-0.07805432093120931
-0.022501332828657555
0.11479095014274159
0.056412812599567756
-0.04802929232818069
-0.01394102977058316
-0.06960184783059602
0.057771080401218484
0.10431227280463516
0.07329089747770266
0.13024135818956467
0.10432753869311408
0.014224114647279002
0.13823209044643656
-0.12449665441412389
-0.05014291810320394
-0.01992782896325815
0.06553378851072675
-0.056284497034567935
0.1380884234758289
0.05159720525925088
-0.05201547569814069
0.04950521284712462
-0.04300073190367281
0.01445142068120824
0.06936513605613735
0.14266336954887213
0.007287083699837145
0.14736651697015693
0.006735038377229249
0.1375088166147661
0.11210653794454778
0.0990691767341893
0.05272973190828835
0.01986208127817425
0.12669222246155354
-0.04888044812403052
0.14255576136618722
0.06218733517030066
-0.132832665940475
0.14624022943683224
-0.13454119404755877
0.11422167177768087
-0.06190273738701371
0.09109966798462471
0.08261798190157507
-0.10618313091169745
-0.13622698553113916
0.016529895649126377
0.07225655635015614
0.13021503116401872
0.08432231294387527
0.13768939063937632
-0.13713304341008206
0.025927640221075042
0.034445653021645574
0.14783584517659293
0.12788403600209788
0.14925556338992554
-0.008964180224726627
0.12356343320449036
0.13649437851795643
0.07356226900631672
0.032751427330182166
-0.14126984488493194
0.022514075895413998
-0.13531142799168772
0.06424723715780384
-0.058574458158873396
-0.03616884400391342
0.12223287919962803
0.15750893460460724
-0.10321974051588133
-0.12197022877138562
0.08097994036789119
-0.11203564588061847
-0.09875665397096782
0.07064698256241826
-0.05674080527541016
0.059192275293260765
-0.12119297278379933
0.08243379167259594
0.08396839178962788
-0.1254384656100385
-0.12382621940654871
-0.14908991181740444
-0.04218840880398765
0.10480676827516207
-0.06941280096512818
0.01829158498680216
-0.08265857241468481
-0.09767314671780233
-0.11247867930914869
-0.13490887887199515
-0.1298293682665919
-0.13015912557345838
0.013352267408203427
0.04768495455675296
0.09412759631949737
0.0032353447806353474
-0.04330017073347709
-0.11075615436537456
0.07397586902522311
0.08482300483429007
0.019885281607277962
0.10623241581185115
-0.09615931454611842
-0.0697279071958164
0.0024321927719551458
0.15545634903875946
0.04296966347304145
0.13812220057695102
-0.09698565641130114
-0.08224826092432998
-0.07307729467620185
0.0980205717494028
0.09443601179005717
0.007250065551875296
0.050415706714622206
-0.0986635311492783
0.06419720277590331
0.06336928885027897
-0.008030458679674207
0.12995661270476808
-0.011171859667809847
0.04430341762706109
0.12069832918848825
0.13595297634577821
-0.025274610747597282
-0.11546801573400915