-0.03161807452713447
-0.01947369528305214
-0.11777792236813982
-0.12184246523535161
0.03279807503565847
-0.03915335927399165
-0.06215024223537822
-0.11241868556472205
-0.10075092511134867
0.08071891417679866
0.06995487008955312
-0.07322585927018169
0.053824618031184226
-0.14867194685785493
0.050285882927378824
-0.08704138398434234
-0.11545567146168145
0.1538102025736196
-0.07206845981159245
-0.13726066141080057
-0.137383794600872
0.16110338935531468
0.047583500698610746
-0.02304242058749427
-0.08380777316003643
-0.0030797130788295254
-0.13034357446985304
0.13064694626488924
0.15503456229516235
0.1528651025093835
-0.03233266778054181
0.16901546639199108
-0.040683767411660327
0.12894352461056824
-0.13058117658970406
-0.15512415936702767
0.006744652132289993
0.0760404014305612
0.12430878354311159
-0.057060078073315784
-0.08630382082424717
-0.023303457150714302
-0.08128756766046309
0.07455946300757708
0.13852283638107207
0.11902609897853393
0.09715752356480374
-0.08833965948457989
-0.07866816332513815
-0.12044389953798829
-0.00992143575741833
-0.08349686647420292
0.1036064506383856
0.1417974728129746
-0.09691382052213748
-0.11235382608639428
-0.04657214603772061
-0.0999129799545747
-0.1111933016060094
0.16640048233912832
-0.006704830114390124
-0.009213827708677966
0.02524088053339395
-0.15389342779038537
0.15519090324651766
-0.1515417822969979
0.06217089907476693
-0.012066206647882403
-0.040684578067774285
-0.16816663147054772
0.041117636146111976
-0.13688110912228257
0.040320198117852514
-0.02864161118524658
0.14667158429612237
-0.041499785302347214
0.17390833984951415
0.05702166993907242
0.02897989728585714
-0.048764428832682574
-0.07072843348991041
-0.1348769971034041
-0.02350692553589578
-0.12011701773347103
0.12400841552645711
0.16595517377933489
0.004640451563308637
-0.09164477494532536
0.14488415727968038
0.1683200800804979
0.022562748191338685
0.11725738681044703
0.06538779726844132
0.031667174694084636
0.1581525237418916
0.05281752662491576
0.1444683506472623
-0.13086698534584745
0.0034182316113617723
-0.06672919218617751
-0.06278504474145974
-0.04236430240028495
0.15146110520144546
-0.018309526841973733
-0.09013413794888693
-0.0025087622826053097
0.15046145832677915
-0.03841287714367793
-0.15668447430522883
0.1637496172357607
0.15216445083381483
0.0625208095208895
0.12771715215931154
0.11242864968784878
-0.05672497407237017
0.14536434710703258
0.043098233586403606
-0.15583426895873165
-0.11948824846098795
-0.007230264747085677
0.020886800731319766
-0.02232490526281942
-0.0491384997592164
0.12407630110278903
-0.017654148982354498
0.08492653562149738
0.10890309852375922
0.10423019290690229
-0.15838746583236896
-0.03239567840474004
0.026995828462315154
-0.10470987172913979
0.0841146861116127
0.09765513722379732
-0.019446419417629878
0.09918751288142337
0.02253882489719633
-0.05577115392836534
0.05332765658880942
-0.09278284240853368
-0.043003588529584934
0.014489510356614341
-0.10422568490221053
-0.08015617636732993
0.009035793391107688
-0.16059554317421706
0.0795346491063194
-0.0029683520069822646
0.1353818067607306
0.05803388230332562
0.15455869736560968
0.06418139674111388
-0.16424235942616722
-0.08094192019193068
-0.10768483003587107
-0.09064582889310192
-0.12727951193946224
0.00812771264788688
-0.12789634146079912
0.13263495477460227
-0.09077250008746324
-0.1810095205933277
0.09621510644674874
-0.035417300901119664
-0.017679148342255854
-0.024721345976198107
-0.07808224177096122
-0.08812835606733095
0.0812934610472694
0.06534588460482914
-0.10367214491903091
-0.16568515364111994
0.03129685621226707
0.03537516526162151
0.09258915420404536
0.16412268952321776
-0.06191122448300908
-0.08447469013089583
0.14510149481718737
0.1341401690160611
-0.08666112338440242
0.09297132791198619
-0.04164554188857661
0.08796393426397094
0.1534897344117587
-0.027738897597606026
-0.004989502026141195
0.07032677977775435
-0.05423312288171147
0.06715501977517652
0.07899445483540474
-0.06530913460628344
-0.13739734306990312
-0.0534446684720573
0.09260662474991492
-0.04096126796867747
-0.011531667332216307
-0.17156598982153295
0.03589776732057269
0.08783668432710856
0.15392361912086602
-0.15306712380037074
-0.06923068288344228
0.08770821385159641
0.02124453091528691
-0.0563855653791534
-0.13854687110789277
0.17461328028196293
-0.011408569820678283
-0.07920939152722957
-0.05517357846778466
-0.062101304133883865
-0.017369910556244823
0.05495358471591151
-0.05538717475750325
-0.10106538756009088
0.12231646793250418
-0.17863050039792477
0.159971315974598
-0.08535843039130087
0.0033923226042471095
0.02435544713000558
0.06611856895319214
0.028610706248465095
0.13552906371573162
0.03364716815122836
0.03116181815900578
-0.15330599011931093
0.15432509051673887
0.05550248517205107
-0.040000617710600685
0.1309623442664589
0.09152606499540991
0.01573167353886719
-0.14225574567742158
-0.10949408290820845
0.1352480581734796
0.12103544624578834
0.020197276661974767
-0.03370484981737307
0.15499162761596239
0.045402366364238646
-0.03806638827157381
0.17757313541821587
-0.15045051472407936
0.05860012033393054
0.06555117867017869
0.07008393534534987
0.10376759927762305
0.12986064194347927
-0.13216917649190182
0.15824026426302557
-0.03413092836189944
0.08769885029857828
0.045678349541710205
0.11970738246236931
0.002278337373153666
0.07494688200380349
-0.07069622620669734
0.027335276747618778
0.1311198814638493
-0.08615463398642852
0.035850431474785956
0.02354720763930745
-0.09770997113613636
0.061139839443428955
-0.02534129716049488
-0.038851523333126255
0.08046179950217798
0.055654294287861526
-0.1628470179147042
-0.09540976630569473
0.16215386909158955
0.0198924182711254
0.009680729172073306
-0.002308148860144503
0.14596782842034878
0.06260432937611655
0.14962583050155356
-0.18777966022160256
0.03921760658768966
-0.023302885590882057
0.047828342376348164
-0.07611207710792402
-0.08572266846472301
0.03389559427381334
-0.01146564483627677
0.10917770517039779
-0.07553235055880705
-0.17655182951276518
-0.027777336280727514
0.10288735517897983
0.048990719980346376
0.09026237286165137
-0.17932037451847366
-0.08915421538356086
0.13228618715182686
-0.10848224391637255
0.01737441276388578
-0.1535261450570129
-0.08574458781781957
-0.06047725144041826
-0.03960928614644421
-0.07248291730686882
0.002840472465131555
0.11497414900917349
-0.006645673233416066
-0.007962293911088934
0.030543856594827307
-0.03142884201769076
-0.11689508507862442
-0.1886012684542979
-0.12736809057697748
0.12528112253415075
0.08980513037566427
-0.030012878704691652
0.16670965561891193
0.06640627093407876
-0.03437925131752839
-0.1401722446370988
0.013318695692692506
0.018348284751329613
-0.1306168446510942
0.15031693214253136
0.005529921053628277
0.006172006520847229
0.009907760493372724
0.03236170400634885
-0.020297571356121046
-0.034960079966835866
-0.015650922424965418
0.12644928386338009
0.04191323584579137
0.04540642812997995
0.027568544775501892
-0.11391500208973046
0.062169013019626324
0.013990972529227274
0.05266438084187584
-0.07873564441363581
-0.143960357714001
-0.08458832096499368
0.06254111198085298
-0.13080448554834845
-0.21705913107492936
-0.025983662480647474
0.06888171812643276
0.03360304364921644
0.07223589733106756
-0.0005340898821312816
0.013497153028020084
0.09512767954182114
-0.11804191345681825
0.11845436074934154
-0.1828415783179143
-0.05662020813235459
-0.123963742272798
0.09463369033696759
-0.017805105489237406
-0.050562346940084685
-0.07015999691143052
0.07947301204928169
-0.11139212970688742
-0.16013324967292342
-0.07467996935240206
-0.10828776647781718
0.0069663062973987985
-0.008106581927993467
-0.027615918020007207
0.1725847296554488
0.16701594131389574
0.04840380586342835
-0.08794928585175649
-0.04707407772231334
0.06513611839741702
0.10054110567830656
-0.08473904311533784
-0.10828191449519213
-0.0887196427620318
-0.04576266193529348
0.08552396191026229
0.0622850052944261
-0.10091974655548533
-0.07699446806079613
0.01267038591312264
0.13122165620740997
-0.07240425431828539
0.16082810365971278
0.04537068878431376
-0.07903061135436863
0.15042469692361843
-0.05472670343241091
0.018146359103483677
0.11510433624543094
-0.156196075048623
0.15903060099392913
0.07910183584908718
-0.13914827262908117
-0.13220938779149638
0.12861616619255772
-0.018671207311157678
0.0328409248673109
-0.027441691701444483
0.16575312915274887
0.13731994932045122
0.10646477810581183
-0.15168650700537567
0.0529170947862537
-0.08728796796021414
0.04576298213211745
0.08547613102627218
-0.15658658690437252
-0.1489393343656949
-0.12018003022711304
-0.10073886266434155
0.1740831881131836
0.03454137988011083
-0.056813686464887506
0.1571760866168729
0.09979282541069469
-0.10335827891612952
0.08495923637268968
0.15132169337723578
0.08950024432738687
-0.15337986544368515
0.036198901036993456
-0.08253195137657823
-0.09585901644708528
-0.0073414688068240445
-0.006333007662983911
-0.04107633184970902
0.0685699810295428
-0.06720819440690433
-0.029947215405014223
-0.016463870645285587
0.049872870077835245
-0.146513498613748
0.04272411453886019
-0.10149635239394086
-0.06722992618127474
0.026125630623397844
0.02192108199348413
-0.0736376885646495
0.11825018907543443
-0.17423888497296597
-0.05022693972354388
-0.01386140276433208
-0.06455564355525148
-0.01533194733677326
-0.07533383568386882
-0.14322872122390717
0.020612284190549782
0.03315093984647777
0.13150980216050778
-0.09701831943489204
0.18282322027187392
-0.03344742000092908
-0.01331551824031108
0.1426140145695108
-0.12907252398872107
0.05070511460926
0.004874603237548726
-0.046135817939145396
0.18935288413707088
0.05562465456995347
-0.13195842962949333
0.15811042109361104
0.003317002156014653
0.15904528075807214
-0.04659348621230288
-0.14947540685514707
-0.0462112474469473
-0.0946531183851616
-0.07058422709553137
-0.057831483857320475
0.1650304117737058
0.03958074586820405
0.07223290517168025
-0.1192713514016224
0.013109899929091201
-0.018389618863705187
0.07170345830326186
-0.1656125089946691
-0.16372352283612066
0.02723807031287583
0.11342162595075476
-0.15788823765633492
-0.16377054411563924
0.04253450797350533
0.053870220882675825
0.001661511670496053
-0.1203817866813029
-0.07531222372222846
0.095163360367006
0.02146312699829045
0.12355933784023215
-0.132891390798526
-0.12224977291323824
-0.1472357821514689
0.08426671714617524
-0.15048695196146133
-0.09365483160440766
0.12878247910432644
-0.09376270203718139
0.1346109075063381
-0.07280970964551217
-0.06508041678643696
-0.014473499353162046
-0.1520365139865774
-0.061710190358504134
-0.1512419268286145
-0.03699841909315402
0.0013290144374279167
-0.042763171388989316
-0.07587175252424407
-0.06441835396030934
0.17124103324298492
-0.08646673221716226
0.017816952803078826
0.13152338520349358
-0.008018365965286024
-0.02649323438595049
-0.06298457795789515
-0.12462708259253737
0.06346853483735126
-0.02174743940495029
-0.05849664053196309
-0.13409991818247474
-0.002008573437284389
0.0730273796689701
-0.13207997003484961
0.02552923025929379
-0.1477547020847112
0.1512344344247598
0.1485934444576774
0.06378342905885094
-0.08673121632425862
0.040706291316836375
-0.06745629187221723
-0.013862843505927838
-0.1241829098406435
-0.04402331090227748
0.16253419625678614
-0.03230668861794206
-0.002120601959403695
0.01673506923245809
-0.0030416537892086733
-0.017955548289636337
0.14328703363566345
0.08410360643226465
0.12176911703452688
0.0702752734990913
-0.05299457359047541
0.08736920099335131
-0.1286135411854639
-0.062478003391997924
-0.02635579067868956
0.052056327249324755
-0.11263813549885032
-0.03376286133690925
-0.16597687488036414
0.007364620025200559
0.11046652699942044
-0.11666853592366255
-0.02394698803871375
-0.05442698857521127
-0.007845963388397957
-0.10684165199152586
-0.16628723441346
0.0118428592315597
-0.06444652385106316
-0.016508320172470003
-0.09562464262810048
0.09515230923690285
-0.1066204013710376
0.04310788442796491
-0.03775287033654967
-0.1556513749234236
0.017360205839113196
-0.1639562965925202
0.10187575473360869
0.11605379794059088
0.03130292205750122
-0.17948712760633886
0.1705753491628184
0.14685957662846028
-0.055959424277333
0.053709701791982804
-0.006519349777997984
0.06364800540619119
0.1062699827309407
0.15323524500933794
-0.1354724166562596
0.06866860366377359
0.13612115978578457
-0.09889622460124779
0.07387942416520815
0.007524267316898777
0.13342310491625864
0.015883656789655663
-0.03806271305945191
-0.1761498603995838
0.10063213758848301
-0.012281394215930141
0.009931121336491173
0.06613131070602965
0.08497193950443362
0.08427986323927986
-0.09150780290760546
0.11668548433804532
0.039666969446875845
-0.08776931974826833
0.06787202614316251
0.03933099074718706
-0.028501878774738493
-0.17543117809849576
-0.049858584751122065
-0.17442262416728013
-0.00233015182587026
0.08388394512490488
-0.14915805826027542
0.03456178084736198
-0.09642137383307403
0.1276262390985352
-0.15349179152769415
0.09347586190192606
-0.05040465389581916
0.07820619474670903
0.06431517088043665
-0.14838693491749158
-0.02939469299482397
-0.07130400115474445
0.08474228357066313
-0.06066541409070134
0.06533282283662055
0.08763304180180712
0.1606609004156315
-0.11289295388655776
0.0018099263258727742
0.053949017926418284
0.08824015739403054
0.019077050532061744
-0.1396200158930832
0.11199243333726844
-0.03167775527664038
0.03363824655656167
0.004552786855949614
0.07171298928842226
0.0012249248673728904
-0.17754074043478102
-0.06016258088891046
0.14431370537461788
-0.08329678772507333
0.13289713110849832
-0.07173962004649183
-0.18470239904289049
0.10450105135655804
0.005511899491295283
-0.02878190312722175
-0.08388012954366404
-0.025435354865724763
-0.055359072078673806
0.005610359981518082
-0.014784624561879471
0.05475718407655232
0.041290258296140206
-0.09402839736364377
0.07415381427970177
-0.08742537228104925
0.10745082286904252
0.013346111587319482
0.058865272929847307
-0.13616571602512711
-0.06617221504164002
0.021701097869629007
0.00036579350526725165
-0.09294241272820408
-0.010065115542706893
0.09731305304140818
0.16148759667644383
0.14773487826168832
0.16164751880962738
0.08744139402296933
-0.17552205523345837
0.11688010711053684
0.1575802253786452
0.07036097612285032
-0.03286595255082978
-0.08602218115714079
0.1799537058454888
-0.13358178796101294
-0.03568908808043661
0.1514602892934048
0.06798846621101973
0.07623989290573803
0.1575018329074574
-0.14570353160486801
-0.19660678049803448
0.12392701577561205
-0.1666025140444962
-0.07873626283475374
-0.011815218301188198
-0.09737539497893369
-0.05453977949685018
-0.16896367297292353
0.10673695042078116
-0.11194036420749337
-0.00934691236608223
-0.03195066677217223
0.03845763436057793
0.07679768852792963
0.11932819766289479
-0.14778243120492376
-0.10995542232952782
-0.1420514473389469
-0.029141971541423693
-0.03770499499643162
-0.1204701844371957
0.1464302258304404
0.0682815037241553
0.12469072986772786
0.0027901924828218623
0.05934884286156734
-0.17088695457095548
0.04951700762876007
0.08844174822252306
0.1336517207081711
0.12816547109598334
-0.025394675102071957
-0.13329158811250222
0.15545410018047495
-0.05129266344070909
0.14770350298284177
0.003372214341333454
-0.04977702027626591
0.05450668824862842
-0.1488475794060196
-0.12223407274617638
-0.14963462971190558
-0.03013785105300284
-0.10375292221580915
-0.1474545067440846
-0.17138602193471036
-0.11560873934920513
-0.05178656372923439
0.14231259539972077
0.04841795332878018
0.1279310085879287
0.04855077412336125
-0.0013307644584613473
0.13681716005238914
0.14985757522137105
-0.0445636917510705
-0.17832030049792483
0.026260052910086065
0.06992038928178243
-0.12329703398947679
-0.012074539300097605
0.15829621121047616
0.05001028848285987
-0.07851090250136859
-0.14439714293474815
0.0695517199157254
0.017411534862264735
0.1628850058626223
0.07136860500002953
0.08755073256932848
-0.13317903258349675
0.12366721915108278
-0.004357132746424896
-0.010631965976244256
-0.06722716110913199
-0.017918896157120733
-0.04631260494959249
0.06745236046086295
0.05115187277438035
-0.11885226898918272
0.15016510990831522
-0.13477503826000622
0.13599719679231267
-0.10290733837427517
-0.07132208696506037
-0.008613244045393311
-0.11722610643356678
0.07151466374792312
0.06153751321953872
-0.024066089098849476
0.06855885848540014
0.07758725101481041
-0.1261545858168314
0.09697884545574342
-0.12472011652973249
-0.03682498410122764
0.14552249805683407
0.05858407936911923
0.11374610614558163
-0.0027713013108452474
0.05239276004381879
0.08316668089345508
-0.04371286877465136
-0.019114147292084382
0.014361385917294479
0.03382145498658313
0.15148551479384298
-0.1710095801931925
0.12050824405530217
0.10167322944215644
-0.10840809813470195
-0.08696577604989092
0.004503262310566006
-0.056038767530678595
0.12374430516946586
-0.17210545813215666
-0.14461549072003194
-0.11478283004650847
0.059235444597905695
0.0804964174607877
-0.03073640284414772
-0.13507101536099902
0.17378932472160735
0.02497413389352191
-0.07088615502064029
-0.1498139477186992
0.05785802759925492
0.05125673458330807
0.052063128175626756
-0.027735398744463912
-0.038877837148296464
-0.1358794608111569
0.09709999373451395
-0.06146888021770889
-0.15639851638875096
-0.06344063482587034
0.007943680050830354
-0.059239216989002565
-0.0235954203979614
0.03950650991198381
0.08822208301981757
0.05111781295796908
0.07904661085782963
-0.07437479645948329
0.08252695687619047
0.0011044068530546396
0.04601330125414807
0.007231625447656433
-0.05731490286712338
-0.16684044806300882
0.10140273935640397
0.15125873760905253
0.11617647670881379
-0.07234301973268403
0.02792263289323387
-0.1316153273128208
0.17172955811248045
0.15464469512791318
-0.017119779843974815
-0.023249234799289146
0.06344205070712047
-0.1374484358432456
-0.07755153807348278
0.09789860333696228
-0.150922118483189
0.12879285436326046
-0.167093518983213
0.09573014682643752
-0.11752189786021153
-0.1626545781457472
-0.13637870679600303
-0.14500806525013873
-0.0575681494963201
0.015514794929305813
0.09606057368974844
-0.09567244798627057
-0.0957289202964078
-0.016582218483500166
-0.1487258411355398
0.15747821261120148
-0.05463933091081873
-0.038866368170657715
-0.16669026754454852
0.17184460182796815
-0.11366258157698335
-0.04708447445928824
0.043450897812600524
-0.12877897954173478
0.11759247714866204
-0.004087655775818721
0.11680616800211596
-0.1721227451622295
0.020651109779786014
0.07858147260301382
0.007246001271448968
0.16358610456743772
0.025895527672539834
-0.13076239414947252
-0.0012313298432161971
0.17073897433169474
0.13160099752033952
0.05200189680183818
-0.08374776731858345
-0.17855873561094135
-0.03778970358226091
-0.03049842292378512
0.028101156039147496
0.045842651625184826
-0.05776920455408073
-0.051159256873167726
-0.11439184972896503
-0.11699680958009948
0.08337234598110002
-0.0821890908846683
0.11050623740063563
0.14638992604729753
-0.052547661671679444
0.10534522533935639
-0.09542393407803625
0.04872881634915506
-0.10105563121128963
0.1209347992010761
-0.13819526660210796
-0.09098602070969443
-0.15306477742724428
-0.04373064629283415
0.05419669536150581
0.14300413573730397
0.003280052944684043
0.08739550245943863
-0.06687355083218247
0.15000813283808853
-0.04091477863857343
0.11514903030817668
-0.1809844203089488
0.04015562522444885
0.10692888009902053
0.03550956296807226
-0.12057140719901431
-0.01130794862778467
0.0451495614873866
-0.15486653447355864
0.03861196728055762
0.04654519837166531
0.14947241121446986
0.1407240161202302
-0.17201789088692646
-0.057745321764647375
-0.17073689090647298
0.0983134298650192
0.15918916278478967
0.06980918187832305
0.027069383240578716
0.11765138346105981
0.12999132028975657
0.09340290792742786
0.09750147070829636
0.06892663975813187
-0.05042099580333223
0.11026468678776773
0.16394782127023338
0.11136255823744279
0.013110556684168781
0.07019770974888073
0.04411934766166213
0.020717162570812145
0.09105961546145004
0.06821771869365159
-0.007902022507136291
0.019703916270843364
0.14890503495547225
0.051038626754335965
-0.13195114558458548
0.07691868449962873
0.013994825400417271
-0.016057954548344397
0.03329685404059239
-0.12436115280573827
0.0071964564141046095
0.01867589559148311
-0.023996188532650155
-0.13923032862792614
-0.12212560025523436
0.1502583593502044
-0.12045133793170394
0.08115818871634617
-0.03818417951339282
0.06290590725932983
0.1531122872200887
0.03434709528007327
0.02586492336208613
0.11856297531622313
-0.002398282961991609
-0.1239125737975966
-0.15180196736220275
0.04703359971010365
-0.06520870728439884
0.11702452354775619
-0.11366053296014592
0.07469095983919247
-0.06162330895310244
-0.08892071328556261
0.1407777201269175
-0.12476696781377863
0.09696649351774628
-0.06409730827124133
0.1299998805774685
0.0670667986730814
-0.029972374008333722
-0.16649131394462202
-0.1622372897864117
0.013220664687207756
-0.010430395458739672
0.05832401442157792
-0.1042003075331717
0.03257320589143734
0.036018559696013905
-0.1660683837289574
0.1519577835496657
-0.1586207687533583
-0.027044730239610848
0.1343083148441811
-0.047764366405149195
0.1257368802925497
-0.13738924418938445
0.047240099026694356
-0.10351459564546166
-0.029371615626410358
0.14017369218703396
0.061172455626024975
0.07070137320531802
0.059535512774792604
0.13160317619609696
0.14402068532749307
-0.1531544812405344
0.14514947994958374
-0.1425605086809183
0.09073905248910058
-0.13815329845629756
0.10503785865434691
-0.04623374869740005
-0.10903849848006371
0.09148056987243915
-0.1417439336770398
0.059625764709500054
0.001656355241862361
-0.11419080985080851
0.04848239147688567
-0.011704885723392837
0.1062749551301437
0.042880836314044476
-0.041475055680299557
-0.15547192346445596
0.11964140154400138
0.12384022642931496
0.09310529892611435
-0.1317379459085808
-0.12171645875110396
0.08945986721582447
0.04107649072379463
-0.12452022030891345
-0.15145695079635196
-0.0772738541541417
0.08261140936048167
-0.07768959171256615
-0.12342839174414251
-0.03924753475223866
-0.15690860995661499
0.1320064512770979
0.06290546470669559
-0.09051881272047253
0.09614269726048849
0.0242916253212646
0.13637198207881257
-0.10097365766726703
0.13764567444968076
0.10150326911793069
0.10375298146113439
0.0007129998783904695
0.0332650810863608
-0.11019543274549973
0.01595809129182092
0.029842763929716434
-0.1467921674368406
-0.10003350288931986
-0.02298981796201989
0.10148126748623226
0.10454661679182674
0.08746378263288276
0.13768176028969073
0.19578580596167938
-0.062141681303501145
0.1518373476402046
0.09380887301061541
-0.05579851268291205
-0.12740315893032314
0.08243153647482088
0.17553126888886778
-0.15332011394312026
0.0647870904606332
0.03614696149822145
0.1038320917882333
0.06971344301231185
0.033315913988632526
0.09155314368494728
0.003533976301165074
-0.1117096394601885
-0.16245549352907301
0.007970678812188277
0.14886550389172967
-0.045537879805916566
0.0407574038913465
0.08776684268341342
-0.14559822347038875
0.03526870253841933
-0.0813773089408512
-0.018916783193475884
0.06934493326921343
-0.11884210514799401
-0.0011224360054096197
0.0511926604489079
0.17658634553559108
-0.061262021903824085
-0.0931725005940282
-0.13105549484903997
-0.03473252038576531
-0.031019581662910845
0.04478151974901622
0.10712356491491445
-0.013270186359987338
-0.14026436399576522
-0.08337370748851744
-0.05578085440627674
0.04428720703979871
0.13893147283988627
0.07518966097050211
-0.026413773814103644
-0.1430685669209774
-0.11388596552251337
0.12375998142201602
-0.026241656297896113
-0.13975280790301667
0.08536786201029656
-0.0007127512810992773
-0.014415778145021586
-0.014933520695321036
0.06929493702103105
0.11740753315287031
-0.0581252646125757
0.09666823620750238
-0.06086502549881775
-0.16256670535804824
-0.007143032183832135
-0.13177067858064115
-0.1464525296973559
0.002337606291235278
-0.0012484022681855513
-0.06429507168371348
-0.14710594268337482
0.10792728241858524
-0.09651455410679612
0.04178462144996392
0.021963627715750316
0.10009165973545638
0.01806725183412221
0.011285633537608782
-0.03742501622662745
-0.07056627394340169
0.10863658192679479
-0.16099408031034487
0.06893544541104417
-0.02342502267306884
0.07563769357471141
-0.012420473568435394
-0.037028539306852445
-0.03814886175514512
-0.12852955581256797
0.029899235060162194
-0.020795055254373782
0.0983171808381428
-0.17880507327090908
0.090030372642189
-0.11345256442257862
-0.032871440413394515
-0.125501031512598
-0.010853532321409579
-0.17203086162961373
-0.14744222118930397
-0.07797065521849962
-0.1351835142237894
-0.0529502851087421
-0.1048840413234074
0.1092833945289607
0.10964790052822307
-0.0294260320166585
0.09265470862506978
-0.05090024673742306
-0.07041559797038667
0.11433812600059691
-0.0706302919705694
0.12769652484858343
0.108775667914741
-0.018926259504240466
-0.026036360775222256
0.1174311645692227
-0.03474559281429697
0.15627867442538088
-0.10160793471692914
0.016841956101475
0.03297298334873026
0.008259500952870653
0.0284194426449996
0.09513574386549578
-0.09621042594463389
0.12539073539989848
-0.02350488064172348
-0.0106058363871168
0.023994821795371015
0.13276168826488907
0.15179990112927946
-0.003482746655846362
-0.05821868628806524
0.013340883040759598
0.04659192449964596
-0.1258345234059421
0.09528814226152477
-0.02240644666105325
0.1914367127609186
-0.04735758177273395
0.08575304956226039
0.10700230983122339
-0.08954776371804739
0.08011770977182944
0.07731904088580577
-0.03422310070233853
0.049890740838643505
0.03718102975201969
-0.13437606142699438
0.10906994508647856
0.1518488883053215
0.049298075869819075
-0.029465674709684808
-0.06869980772240818
-0.018169746245811004
0.10625609651407723
-0.08871440592105213
0.15525281812137737
-0.04275208701566593
-0.013939458436019125
0.10178950760883991
-0.10079503034417492
0.11219919849951057
-0.12079071892710082
0.1377776522209121
-0.023028812208200515
-0.0024558859857456467
0.13315684687259471
-0.04520347201525157
0.07741475988826538
0.08317511721125073
0.09841525614942846
-0.06732575190912576
0.03384396490834079
0.1551166982414183
-0.0645283439174801
0.037840212323099906
-0.13631936451358395
-0.009021933779509494
-0.14716045275534897
-0.062343546608620314
-0.05629643392429125
0.030976548289499025
0.1318633106804483
0.035354084823807926
-0.07493268177281764
0.123368225878742
-0.15477748026527466
-0.15707420390868845
-0.10672297323920263
0.1461632334682011
-0.035607658204118764
-0.02995683168250412
0.08666332356568919
0.04276553159520349
-0.01938688039620407
0.02530051119086736
0.10848427093820602
0.08535417635514109
0.005129171115688733
0.11644833026971015
-0.1290691409787865
-0.016300303398960492
-0.17307907667180744
0.05573124247044859
0.12777001199818228
-0.12762173588072945
0.10785853718883537
-0.001650422304258596
0.13615163219257878
-0.14967484459757321
0.019266321106987203
-0.15795119871832328
-0.16552490085534596
0.13150942323356501
0.15986171473154762
0.06299817522297732
0.10148969207520638
0.036633270604428024
0.04263302947573486
0.12080777973859788
-0.14031569254959636
0.13013392102909663
-0.12954124256878652
0.1630817532110542
0.033007361892992026
0.12868223496721462
0.03307225592497272
0.01513780936811522
-0.019640657293828176
-0.03064210507587653
0.07955796102287715
-0.05076226158507875
0.08286603983580107
-0.1543929847484598
-0.008152248225090418
0.10024872835881014
0.01111975898536505
-0.0863139675356131
-0.04624246516241446
0.13793284531823757
0.122031352558409
-0.015384028682761869
-0.06485602619204102
0.1595394151242215
-0.15620991553856706
-0.0079953901395753
0.022025966988561886
-0.15924051022625796
0.1098624532522395
-0.1667813215247173
-0.10159352293875362
-0.10341910721826779
-0.16023261567707173
0.13121609008728014
-0.16061254453472404
-0.06529403154036373
0.003039523709191594
-0.12651244054235602
-0.14512633932571636
0.05420340265978549
-0.025919931111506377
-0.13902606468108378
0.0040631199246186425
-0.02198221232761423
-0.08610513235456653
0.12619609201840892
0.029270327953271547
-0.1433647950419243
-0.021199064412575432
0.04493532742636473
-0.10018971640204155
-0.14518857634988988
-0.19853176573204492
-0.07721811593802522
0.1393922893598111
0.038599427136880984
0.15591087618148874
-0.06206375574285512
0.11984406745618574
0.023192910198639692
0.06520415410853125
-0.00476990113350311
-0.09397097209632463
0.03313883404651477
0.16341557065138315
0.12660796524889512
0.05361824197551446
0.16923739492849355
0.010450241814872419
-0.14272938558957052
-0.04808945973197331
-0.08249791285618134
-0.06360001345108039
0.12708769890872404
0.06536990423471094
-0.09103365740980116
0.05914106358107599
-0.1748579079534582
-0.05246548012753523
0.10414864792663685
0.14989406497657315
0.13751292598628106
0.1106044226451222
0.15182254731313724
-0.12746406944806116
-0.08729273000615706
-0.05488699958877671
-0.1295955442673766
0.16920045698354272
0.13928550041942656
0.03755715623984721
-0.006516857884123608
0.08012007720859987
-0.040758168910632275
-0.023933380147273493
0.03721350139391898
0.04690580454344309
0.015213453829348073
-0.10517688699095049
0.08668342178437871
0.08940112773612881
-0.013278668862101356
-0.01573397976718499
0.1688937637185877
-0.1696604601287605
-0.09028960572446644
-0.07107915518194273
-0.1346405710835612
0.11123213025014736
0.10292647666951618
0.10088935567064004
-0.11887690595406261
-0.05078769796006155
-0.012236112504219994
-0.15765405652080303
0.05971266376399204
-0.13292078021014284
-0.14118777028599544
-0.08079434107796146
0.14819413166440615
-0.11081170422466279
-0.04204337391483849
0.0791049408046827
-0.03692374805540363
-0.10487984092669289
-0.14611344983634847
0.06780210292788551
-0.06905416901845901
0.04721008672514851
0.17272694325256105
-0.1446605485813584
0.13213595807816175
0.054747572380922344
0.11580346266417416
-0.05055542211734372
0.09639751599752817
-0.14827299934023624
0.14236811585372422
0.03736370537346079
0.06191065491784439
-0.1568138770485229
0.11879959633738671
0.17485650497126082
0.06064059589045318
0.158740464689045
0.06999433361438268
0.04573603771667624
0.0417872605573172
0.10342385800253419
-0.1100230383587985
0.13133962762100404
0.11373656185135209
-0.05058988772443047
0.009482458297754065
-0.15075050398587733
-0.05296798520231169
-0.11968113770344639
-0.14262792290802662
0.15126764224580613
0.028192410206378367
-0.0020460926212142174
0.00879783550006186
0.05874381113552146
-0.049308526407119246
0.12098478141568982
0.07441973253595566
-0.025798627958875563
-0.15599410418208484
0.11694419507916474
0.09497624151371147
0.05148503263658059
-0.08001500382120623
0.10959599454704713
0.009179297353057512
-0.10886409216337593
0.11764049667224935
0.08502080661421133
0.0676168758799843
-0.015414478544384654
-0.03882517055386468
-0.041217098327316695
0.13513769128647227
0.07355871403066844
0.003451929616748911
0.06958536999819209
0.10542828496563426
0.13534925312414234
-0.0942354508299196
-0.07254977825247401
0.13742167775747346
0.12806304568522994
-0.1421605892954243
0.14970590986401788
-0.09938267075355905
-0.09819101680223177
-0.05403696413907124
-0.10299678559819266
-0.1371388553482898
-0.13624776246315656
0.0991866544069247
0.1618664214335292
0.11856600472860077
0.11492751051210386
-0.11074137424017433
0.06239482424044315
-0.010472521309740968
0.036498576953487794
-0.11119202323590589
-0.1516478451002289
0.06347586302369615
-0.12786621027579462
-0.08285620637961842
0.05451561174380962
0.1405553575623215
0.027584703324793763
0.156486138766912
0.09358372367532522
0.10602798758140433
-0.02935997894010956
0.12107891615746898
0.028790945631174077
-0.07797728779619574
0.040185916787461196
-0.007897105576707497
0.04219667185280419
-0.13927213097206048
-0.10193165611859425
-0.07350713046353763
0.021583815325923274
0.07242101086843017
-0.18615823293427064
-0.05448009432882497
-0.08207251149910073
0.049202211030093014
0.026320184872515747
-0.056369095694087164
-0.04805368185775476
-0.07814544172620369
-0.004661223687441292
0.11427996567288064
-0.04529072783678372
0.12050529327281653
-0.038379500032615456
-0.04964962208533988
-0.14729258816141166
0.1484116859573766
0.0946594503813804
0.09350854090866338
-0.1368712845938695
0.13855367469847976
-0.12339324852928989
-0.0999227630375
-0.010087857463353852
0.17440238792958937
-0.09768127689915708
0.11976320341938296
0.14521175923604768
-0.012013937677343016
0.16897632765169393
0.06310426198965498
0.08118599339311414
-0.0921421525437715
0.0731527052395837
-0.10099402586940837
-0.013524793883072001
0.14578339700348228
0.10860054570717927
-0.12782763768310035
0.11516629104034723
0.12440255830462102
-0.06519456336846631
-0.16404002510402696
-0.14331593244634977
0.042259026534208224
-0.1829061696347009
-0.15999356226793737
0.1811632070126796
0.15380001161149878
0.03487517487970226
0.111868190970999
-0.026256978915797136
-0.0589168087744835
-0.003025556277480208
0.08259980324522095
0.18292085711260664
0.11970783971480473
0.10023769533250597
0.13640562391927913
0.15651728409901156
-0.09900641428655838
-0.09025193782503402
-0.11853769753300611
-0.03737112117899798
-0.11783461749366261
0.06977149185673014
0.13911175707394233
-0.04615862596451571
0.047526024780223546
0.12538311864532012
-0.06346785110083203
-0.11196265114164303
0.12284448464915818
0.16910633945087133
-0.16132141307001535
-0.00029436458121298326
0.1655648951924642
-0.14282686051184482
-0.1620822345632368
-0.05997386306915585
-0.06940297485704491
-0.15125378511166063
-0.018122809686085567
-0.044052244737564646
0.07649571159108653
0.0743774734654623
0.09812775002488817
0.012440781750575326
-0.18239435910522767
-0.15080782266826473
0.06260159037080251
-0.08193623299300233
0.0775015707181565
0.1368168581636795
0.10418314146162916
-0.15835525427164257
-0.04494987037941697
0.04067509156454189
0.16003487314578102
0.09710344522081768
0.09293225595060478
0.07126645933339879
-0.056367594208592116
-0.07953838280999884
0.15007652475577085
-0.11847875807816005
-0.03967438951913745
-0.02177681100756982
-0.04153570408409577
-0.01880491656900183
-0.13899498831957208
0.005519326309785933
-0.017268226808916542
0.0720885010000439
0.08080546025607255
-0.12788355876090512
0.13985097753435793
-0.020300572978915528
-0.1334096925843481
0.005193845823801729
-0.06666634923362731
0.12059434034219793
0.13666248051747515
0.07248825300567227
-0.016424561479831547
0.009781595442857333
0.14062607264034713
-0.0013661492271885053
-0.122497233773259
0.08651147178853008
0.0751340017786345
0.013239875659387548
-0.07631425387373018
0.15230910298832026
-0.10210691668618345
0.06081438505476355
-0.14614263960953777
0.057052294450006834
-0.13024092195316753
0.15222679935916228
-0.15875155674247246
-0.009976538205408269
-0.030475118586755424
-0.028718012015135578
0.16360969550364426
-0.13859397126916925
0.12926291275915416
-0.04791244946644244
0.01735269711155372
-0.16844031572489973
0.06880938180413204
-0.19413349514748343
-0.13054364015120679
0.019608241158234372
-0.05937432393017713
-0.08875034978092226
0.05235612354420385
-0.11599390958417267
-0.11604753562648328
-0.033884722585367205
-0.16291218870892316
0.04345389972018923
-0.026712492844401747
-0.10011048021276733
0.17084769550333187
0.03646178450797864
0.04747790915195806
-0.04776583254224803
-0.08037597028182111
0.08950585331629737
0.10336949286876392
0.04263725870978892
-0.04311203653549442
-0.06824751578431343
-0.10597207254762298
-0.024548515486286414
0.015368984103385358
0.07628570711618393
-0.06048080956709835
0.045391650766388125
0.027792349836650472
-0.08059494778622878
-0.012171381586737893
0.03166954762233951
0.05490084468158957
-0.06602941758624375
-0.06539532319975083
-0.05986438073234359
-0.1219031842503005
0.10488060599968406
0.16209075357895067
-0.05727314522607506
-0.03845301661284323
-0.1593284656256263
-0.1355188000758308
0.11333717007353517
-0.04489574116779477
0.17229746916311714
0.1234710940713675
0.05345275427279884
0.08816851300651578
-0.16812260311299998
-0.03672224944742039
-0.012038912057633843
-0.10240226267821327
0.16197047419562854
0.0870730061469591
0.10432516414759743
-0.04162018522555008
-0.026370192116421866
0.06106280000717198
-0.05331230814613898
0.12654781793751385
-0.1515365172085427
0.0604382273159712
0.046097896716454353
-0.051156034099918465
-0.07831394252674984
-0.16349159834058172
0.024809120459511946
0.1326235486777246
0.12130103366063097
-0.045018747792254586
0.13127978934532133
-0.09550750388797836
0.1123918594842255
-0.13500042610885793
0.018451712597916333
0.1321887765563023
-0.09745285723470995
0.05524888771111467
-0.018662450407631148
-0.12638422429838198
-0.10879574430371376
-0.04090641751498286
0.03023575959925087
-0.12334942050056123
0.018166793613920734
0.0037626353157841613
-0.1358765965583113
0.15871731925290158
-0.15195361330994867
0.035529723548524385
0.14095880431426588
-0.16886611468830187
-0.040078142477419455
-0.031000476678396865
-0.04266924088583227
0.041210168649053525
-0.15600329372667626
-0.14748989794568867
0.1258366336592297
-0.003828462415301818
0.025715865763377817
0.07664688985657614
0.019224804598258004
0.13198079586838893
-0.1723188586704799
-0.0587207318377147
0.06780493444588742
-0.13119388410074398
-0.015923932601687146
0.13416995565659845
0.11767274620009865
-0.03338818249570981
-0.16171671604433832
0.02913312008329773
0.16686609482763168
-0.08897094445600502
0.1691051896273272
0.009820788202911641
-0.1925057887898869
-0.06020604259451859
-0.06714383377147304
0.08700194904791758
0.10300773455901709
0.039700499174571635
0.12163897178972698
0.09718807421213115
-0.12536222130813082
0.1196566668171128
0.12774689014179366
-0.04206535508587636
-0.016012657719384572
0.09446592499151243
0.03311836684803099
-0.16204141063678823
0.10376027386071404
-0.09476816265617055
0.01562596587044637
0.0018837223665772614
0.007910392742396985
-0.1507366868305642
-0.09588158756727669
-0.1331792301318111
-0.16096226434238015
0.08495348712463299
-0.13444694150812841
-0.0018777079177558942
0.017589505386794945
0.08376266888485796
-0.06932267174191926
-0.093345590598226
0.025684193085950005
-0.15909684915307198
0.07214462059819689
0.07748391116804505
0.14750917758238014
-0.021923359427500105
0.10111408116455944
-0.019133557345113687
0.11511277577092394
-0.08114747545236695
-0.008790372276924717
-0.148546575475651
-0.14003204815189385
-0.010866174757844741
0.018725475847672826
0.027930969571676605
0.13031688475080883
0.12779791626613632
-0.16310529439657676
-0.060563664644403714
0.06065329010372004
0.10072939846203788
0.1318654620006511
-0.12091961557833697
-0.1452710289931798
-0.07811416105391421
0.09696376824046417
-0.003029553355061769
-0.05562230852232404
-0.10568304045056634
-0.010714151281509496
0.014269126253154789
-0.01908220060890086
0.16951060998284387
-0.15815921529573296
-0.08278087863657863
-0.095036938196234
-0.09623253485517387
0.15419001119887388
-0.0749048831548542
0.10761881592090725
-0.012927822809858271
0.06807614907806729
0.10878883386142436
-0.09442357491772427
-0.003816439643316971
0.13654924638601124
-0.1273534261135107
0.08243891482340646
-0.1610051978553582
-0.0865835343440649
-0.132176365270151
-0.020790272567405614
0.14856578528341527
-0.07290435454812372
-0.09286258107508383
0.013257939263954271
-0.12681904667505864
-0.05230206919781484
-0.007587096854381203
-0.1235762163333854
0.07709534857855437
-0.1557029536544849
-0.0597688648696477
-0.05720203163597732
0.049425668216166035
-0.06263841830214763
-0.103214973474151
-0.11098195739486454
0.11572953368790156
0.0225320792091502
0.153300798357582
-0.08321075840569216
-0.06998398420390302
0.11278616002442139
-0.12655792940834526
0.15888985513153478
0.09798411995562245
-0.15992226316608812
0.17836350518139776
0.17141798867115005
-0.15924423849754002
0.0034917911879460486
-0.08932514236223744
-0.06132171010835932
-0.04447592044619911
-0.13785658925419841
0.12841227672613306
-0.05783364253763638
-0.09924187709950791
-0.0024740489855051033
-0.07174652830415885
-0.12467575752513758
0.07822614041982702
0.10276533724216531
0.09434162371039712
-0.0643874943652874
0.07945424761017847
0.17246367594713977
-0.030999930488518748
0.09006001186923947
-0.1253919843306623
0.0370411660444991
-0.007210350585071143
-0.05611154583615654
0.14681989558599917
-0.07205989149085493
-0.14827965092954828
0.14893792245645354
-0.03248332919076236
-0.08729957911968644
0.05836357733825527
-0.11951093298122888
-0.14678169953661735
0.17914571191301917
-0.005573546127854735
-0.0173798046413774
-0.10020757878827509
-0.10856125016442485
-0.010765166162464772
0.004823210803887229
0.012063981708459265
-0.16066440725482303
0.0480010680434443
-0.10024730413619386
-0.08286181169209741
-0.17086610509910985
-0.16927085957547633
0.12159725580315017
-0.0767979261965812
-0.08408014873856957
0.004868531930395089
0.05611455213156265
0.05659419582872207
-0.1363000817481632
-0.11591958268742476
-0.09924183213642498
0.15167367882025032
0.040540444627557466
0.12453440733814485
-0.05508047892759786
0.08183305915301424
-0.005015718829405172
0.12571730774264214
-0.020044100219744083
-0.1263031687336466
0.1001679499661726
0.02473386823859587
-0.027171834925375858
-0.003526208084061375
0.02989993583290889
-0.016726723893280133
-0.05637450587105356
0.07471513811719194
0.14215921476616722
-0.09112657584700477
-0.11996074885217814
0.16237154621223432
0.014951025957454284
0.14026185488128748
-0.15352241275296039
-0.009134597251897025
-0.11923094819844259
0.1496152467531761
-0.12394885477981424
0.10133311318010392
-0.02756072462387605
0.06429908390627018
-0.09087761594395913
0.0641800386552224
0.034804625943248374
-0.026044291560822986
0.009360065862227002
0.09496349824613241
-0.05680078335407003
-0.06277845239431554
0.04152111077820875
0.11690992362496924
0.13838031294238662
0.05697394351988721
0.08188350259699985
0.12917689971846774
0.08886167508082464
0.006659959554493342
0.14496038462502667
0.0739818162191008
0.08827670060631372
0.16799931348578823
0.0580819898009194
-0.016760551042810094
-0.0695044636442258
0.1625907105435185
0.07081263100829467
0.16428098673040611
-0.11835236787834673
-0.0593944178414288
-0.08170193040390286
-0.13293838106002992
-0.08586833687899427
0.14874679418581316
-0.07491208094365474
-0.05869212221854035
0.15669332694103574
0.02310127248992077
0.0991851654727871
0.06320890027457063
0.019164359117108835
-0.15525350179374287
0.15053099236835452
-0.032199191543766575
-0.04312648003690634
0.14612850124709748
-0.08028763838491094
0.10567022969319177
-0.0716904682038297
0.09013700681446653
0.12894640337976015
-0.0835381223922424
-0.12921616377815698
-0.08538149918162177
0.026184302478221465
-0.11047777722593911
0.11079343496030715
-0.035093268077501495
-0.09875261205068521
-0.018015010449247054
0.0967702472131273
-0.14339370440665503
-0.0716105287033571
0.010640471979559552
-0.1665713818213221
-0.027815808372241933
0.09043011856507088
0.138707845384404
-0.09486732379132712
0.08479950029230941
-0.09497810787719278
-0.17866970009236616
-0.05019088399134547
-0.08954475186393761
0.14000939702803397
-0.11131146412955445
-0.11389927231165355
-0.13813820093424897
-0.1383910979197388
0.11532328555292373
0.1328427925045326
-0.10999381298470876
-0.16643826780937637
0.06361562263180814
-0.07815433673579276
0.15367679416157573
-0.15667639804300226
-0.12292404710501907
-0.16801621867697833
-0.16047850274856923
0.061729587571395225
-0.15377060337118245
0.06717883048614581
-0.02667947997343454
0.03552264481022545
-0.04010428257212204
0.0069521477111676045
0.06544427412652018
-0.08186755259156121
-0.11152515721028346
0.09981500769813575
-0.04400639597970645
-0.10346529445758143
0.0062994022842088595
0.1427146048150235
-0.09490425226207155
-0.0942919268883255
0.05606988422849796
-0.0056758915369613215
0.04837333446465047
-0.11048776771081183
0.05750845741690934
0.1156609720290887
-0.12798198231805802
0.11067095243413409
0.013959243125668767
0.0387643589809331
0.0570015554414578
0.004918639471172719
0.1005798128446777
-0.13222142825240793
-0.1211120649094268
-0.13642486612376323
0.0365065711911392
0.15573683058817603
-0.07089052325348688
-0.11501873946217124
-0.024108127798331675
0.10553873429382853
0.06880216362707738
0.07026458370356838
0.06352169416342782
0.040244179016521664
0.06215896161255617
0.12535421074142009
-0.051691972980716344
-0.1620259809672244
0.07840648970155581
-0.1283960013872941
-0.04203640881449974
0.04279188463516184
0.025495091970181606
0.011816725140549014
0.030927683820082714
-0.10384612653735124
0.1509128507419302
0.11151672219330463
0.10331876413401184
-0.16178368813069288
-0.08457152484280947
-0.16917004422506784
-0.01712533575734937
-0.03291542982242496
-0.01469086563559354
0.13805777670996286
0.023704426347010088
-0.013529480589955067
-0.15507937471170755
0.05396501096457277
0.07197961609804783
0.006218018742130979
0.011963632405684337
-0.03352085445051778
-0.0698859413707213
-0.08226516752757596
-0.12598433180357113
0.09325020480370579
-0.06242335608065897
-0.016667063570489953
-0.14146981480941254
0.01709228513207814
0.02820937314506325
0.006484647702866262
0.11042502337129928
-0.17405767868360134
0.13197974554603636
-0.02316890764811847
0.08064298567226723
0.010931920795274355
-0.02578259643043994
0.0689519949687386
0.01881898399770544
-0.078019631955478
0.15495893004416034
-0.10011777335300019
-0.17382329656568138
-0.07920306312779171
-0.13414951629216754
0.1523583992865417
0.12916042791711244
-0.07358484120890782
-0.1160501745803638
-0.05632671681924167
-0.1686187632834901
-0.16983979835741017
-0.0109684987655323
-0.09427625677107351
0.012509403979743027
0.12261315370891919
-0.008049187737851292
-0.10175016614887697
-0.014575674325553423
-0.029003382915478687
0.1202852057179313
-0.11334806744285308
0.1345522373311681
-0.05221847302536079
-0.01809381352376588
-0.16356191849824014
0.1397427971998995
-0.08401616228015937
0.05820445830543644
0.048810743266735526
0.01997138061304856
-0.1088463412269929
0.06379035734122142
-0.11908216923756984
-0.1580525543585787
0.18627281356348688
-0.10303963100798276
0.11319398171789861
0.12555149002605193
0.006366280023613575
0.06313639558657666
-0.027710042921422998
-0.011681293887531582
-0.014962139963829106
0.08012526212672258
0.10511997490179817
0.07653528818549538
-0.052378869113676695
-0.003401736012040355
0.09919698677526798
-0.021682737463760024
-0.06810960885662809
0.08785522307441088
-0.05246608545277347
0.13981113616906918
-0.16824699602801382
-0.14543024899699178
0.05980116935698333
-0.04387972180749586
-0.05920671958013853
-0.06517549493834524
-0.0745421688915941
0.1333503687222834
0.152033164918037
-0.02388013645668677
0.15847521268996723
0.12578011441130243
-0.019760256296296817
-0.13024280651860987
-0.05178686632344646
-0.03200518517442286
-0.015070633887710908
0.01216020557848851
-0.07076685030779997
-0.16023750741888926
0.0951377258769185
-0.24593429285314666
0.13350709158622853
0.15526385223424993
0.04601716534955983
0.09671335345591289
-0.0856530320964168
0.005260859168152561
0.032751454307100164
0.0087153236920266
0.029596764444227843
-0.07516369534969555
-0.15426767700157645
0.029038970839566455
-0.0784663922203484
0.031935875281141994
-0.050084654895995645
-0.1327934772544681
0.12823410961125578
-0.06405412679676101
0.06284859054794016
0.07417872535885046
-0.13991772616067685
0.05753185490852829
0.12257715427218506
-0.16541930828768395
-0.07708667827280563
-0.11138487058536921
-0.11443183008550438
0.17811661902190423
-0.0796728792610314
0.16041758734995673
-0.16554122939185284
-0.1345443710238088
0.04368819799716053
-0.0799173131928565
-0.11754734942120064
0.10342166690829449
0.17568761997799928
-0.15691794089934435
-0.11333170031517042
0.06067548216133087
-0.04944161254167028
-0.07243409783997551
0.14218948840227957
0.03990088183862427
-0.04638916158992602
-0.12981145568141883
-0.11662679518196943
0.07578237718680537
-0.055584538254260005
0.15889213795769733
0.12876845786741364
0.08491633113595908
-0.07955027439980049
0.0022133630626505643
0.09494435993208301
0.17403083244253584
0.024906468864451827
0.1471952086045183
-0.11712856301259841
-0.08871129864062936
0.10138902284555143
-0.10888249939273852
-0.11251041126031111
0.012670010496416773
-0.06173775718058938
-0.1094475506144894
0.14319476024975616
-0.16328166506750252
0.1174472300216126
-0.17924744766108663
0.03181590044682778
-0.13788812836268857
0.03356205989163547
-0.09884203307439698
-0.08074290252381165
-0.11195911999763451
0.15091471317231825
-0.03344413348859503
0.01907255037561048
-0.13398997908305565
-0.09123519855319334
0.172049909329411
0.17493876661519908
0.1094996461797361
0.0030970233186701735
0.02167198917072547
-0.1732900070944065
-0.10920031720188457
0.008102822237533452
0.008891313848095944
-0.10876376480698634
0.10001592256536437
0.08198803053135646
0.017317972765662437
-0.2081844185244986
0.1078206735099552
-0.08445534451980931
-0.13067552291347018
0.045907548333818174
0.07405664227671901
0.05868524552706235
-0.1288258349216705
0.0066725787267818085
0.07496968519498645
0.10266209929980524
0.03245416204783854
-0.0029368003928921626
0.014101910480961533
-0.06740796583750246
-0.09556981187040284
-0.05718871264675025
0.017611438369142012
-0.007696823162230615
0.02040099405457495
-0.08591030709772303
0.06369461837266317
-0.17587238361356333
-0.11725728030913962
0.13820578420574003
-0.1108139090916235
-0.02198240865473843
0.07595063833148133
0.01086933388122179
-0.10426122118054094
0.1163587174760789
-0.1138585336513723
-0.0678559491573891
0.10163447147557815
-0.14806876261564506
0.1286599746390536
-0.007406930099222592
-0.15854598697481906
0.14823973836718773
0.01850434277651038
0.024507856297112163
-0.0010698225789212423
-0.010895287143803894
0.16132088785167994
0.03665029971378182
-0.0026175309236684385
-0.12492990465108891
-0.04008374227138509
0.05871769796454701
-0.021252518296431794
-0.08494825176091567
-0.12946681559991438
-0.007464566171070058
0.004177504466209688
0.006940097562968186
0.14259893483031585
-0.051518184442096555
0.022257486109841712
0.15800066726362572
0.03602937945407792
-0.01757525916209993
-0.07348121288743843
0.17691973879960374
-0.06698134113672025
0.15302230596631605
0.0678444158379051
-0.023734141892587348
-0.07806846199967463
0.0034719413760932872
-0.08671610051257742
0.02235291247445567
-0.01850249830392092
-0.14907496851662222
0.15627400945669348
0.050461861332326025
0.12842234104203504
-0.01472030673373539
0.024296449410352028
-0.025808879048641088
-0.11616995575742987
0.10255104919416799
0.08309137587807806
-0.12402893418111686
-0.09390213509589074
0.09499716128234569
-0.058278869684652755
0.1066668084906415
0.05933994112131204
0.14008736294389365
0.13932260287530548
0.1671207484398395
-0.0167012323304781
-0.017312948288739038
-0.05164056163058105
0.06804440306319087
0.09192135415908896
0.0386508357202365
0.06012575665879193
0.08176890170473132
0.08284374292187557
0.07900947869933798
-0.16856500589224221
0.013583599149065382
-0.02176227263809161
-0.16868243964392957
0.11014417613324054
-0.07816416817160789
0.11569045962946883
-0.137618358765779
0.03755321472944009
0.10932702122654295
-0.0028131634363117914
-0.026766997171456003
-0.03732091049499642
0.14130983702366448
-0.08464194613379748
-0.09287557032665107
0.03384757753474129
0.06173235162762071
-0.10335574378519116
0.12690350029740555
0.11906679655513483
0.1499830730010825
-0.06374452789041996
0.16147953138355725
0.09053601828442433
0.09054583786779045
0.030129944728371758
0.022623216746480188
0.07204929189401252
0.021156641863028448
0.14335895979669208
-0.13892890095228258
-0.04807843510135212
-0.17886635380521798
0.01791425955249251
0.13872348730373152
-0.04475869380361652
0.14500017016393976
-0.14460333620268132
0.03618471691425336
-0.13664348678909308
-0.11390732068168304
-0.011384926453230268
-0.09590424568749507
-0.07985738357260662
0.10385407293985471
-0.1233667933076979
-0.04201920354622978
-0.14331556233731568
-0.12733921442293397
-0.15502372151254917
0.001197904137951533
-0.07209810816659042
-0.04018047256675855
-0.03380563374816839
-0.060326469824871505
0.05352037078576799
-0.061436673537694324
0.15171855287966307
-0.11349130269043278
0.01820384519778867
0.04000598064598276
0.13384299343446013
0.18585181744144408
0.010191695599196115
0.012967666116758168
0.005396874107690628
0.016666605020399128
0.03276963943272718
-0.1630466362079914
-0.06290100675977776
-0.025684850416534795
0.023695035869283038
-0.029881120216827733
0.005828843193687843
-0.09659209275404981
0.010111257435013288
0.049347844756081144
0.15209594526176737
0.04409615058374345
0.17894601584607414
-0.006850196111737164
0.03744453573386541
-0.140206789742107
0.13288492902016005
0.03683268768669667
-0.18441118081000865
-0.0922082269917498
0.005345968949491051
0.05108452498847293
0.0486708400071104
0.12770572593443538
0.13679172704222622
-0.01212669306276624
-0.13092632155236836
-0.04118837370885071
-0.13027082592477346
0.14502694872289748
0.014687407382342806
-0.10568996279253705
0.00940684245716164
0.1631063295697748
-0.004989497111599878
0.1676766342419172
0.15272928113080758
0.0104930611864309
-0.17204660396154814
-0.05828193546688405
-0.09032097777303204
0.003292702327900055
0.16297897413105933
-0.0756919259227572
0.1711428773774871
-0.16564779962749435
0.015332244967250837
0.059375849605837486
-0.09762315177030448
-0.01716597405464089
-0.12099503153321438
0.06274102427967572
0.060121090285878885
-0.09102084093748755
0.12505485271071642
-0.05550693509390005
-0.026220265269762913
-0.04969423765204799
-0.16831402458340675
-0.11362815327903585
0.14089577296020453
-0.00412273847152059
-0.06442713928374928
-0.12386094833291167
0.13368446257658453
-0.020837701305303925
-0.05459685938990033
-0.15773575711976945
-0.03674436783837462
-0.021826027595610604
-0.0015923068855067616
0.1338434159306305
0.06600484404087073
0.038437023735854114
-0.004109665077542594
0.11994904354228489
-0.09925919835993996
-0.1170291419854784
0.04747349577091848
-0.21075205454477547
-0.007685935564091445
-0.04405825046238452
-0.055029227403319315
-0.14539361996733602
0.0848116438034632
-0.16901747520655108
0.10955744835315719
-0.1458113848602272
-0.06949107695128169
0.10452480118922626
0.05638335877421591
0.1376260857542559
-0.07344791868659044
0.04629853138578569
0.04410679884120725
0.02803525622428033
0.12971568216902332
-0.030131244679252378
0.1262292369425829
-0.1142911820150595
-0.0935819172439266
-0.15577597226932824
-0.0003462729955173817
-0.14156154035948024
-0.13025274729606584
-0.1041582364490439
-0.10574587229265373
0.05149627424305581
-0.03604407268374549
-0.09226425360668018
-0.12280621144881569
-0.08396330710384227
0.019833042270133827
-0.0018382795934965943
0.06838714249837329
-0.1182921467120504
0.10417005150526092
-0.008103320829158876
0.13471140547617746
-0.11171295810212972
-0.051265177860870655
-0.17504424805245652
-0.11267659374439497
-0.14654873469467344
-0.15190154066369907
-0.14544539994955935
-0.04689427187240377
0.028804386976651802
0.17492412451718334
0.1325862801623112
-0.07937540259683755
-0.0005773238441105484
-0.1599270239178277
-0.013086935192990168
0.006074028209514578
-0.0584575844488192
0.018632121713277966
0.02405627133009034
-0.13451744458461118
0.13670241345170256
0.033690837056373955
-0.14697758699896424
0.015183923216969696
0.05666380105590227
-0.11145859073148409
0.041695760366990214
0.07482522519858391
-0.04266579833393983
-0.05512658148190285
0.06771759938176661
-0.10813797509496365
-0.00637257624088276
-0.012011028305624366
-0.030454957465879978
-0.03238215230075182
0.11488725195483566
-0.0450539393522789
-0.0743422661170587
0.1532722024515137
0.03958118355846939
0.012512025511838859
-0.10089705191115525
-0.13671467273382762
-0.14643947185591438
0.030227212867277586
0.035987873553904925
0.10360322123897299
-0.010794133169870816
0.1075377516010025
-0.16067231363435336
-0.16687377112757498
-0.014188770386174806
0.10939454312118344
0.11513505251434951
0.02121381197228651
-0.1417117552173094
-0.1601578146947883
-0.03245468691955259
0.09006646727699513
0.16583407796975272
0.0015068489634183276
-0.15208601322846854
0.11637285149239326
-0.08281756050971316
0.11566886872973403
-0.0023300073255781892
0.05701932284881705
-0.10851878937902161
-0.015133129208480697
-0.03242687879338731
0.0028542456685323524
-0.11960365189959814
0.14956923115431456
0.1206264947199018
-0.08993038061928908
-0.06786481802350673
0.04494981994143466
-0.08568657948631514
-0.03508789392740833
-0.1696295447796503
0.14171982510973238
0.12965132202487917
0.015439262207807896
-0.0294760250894409
-0.08553795078943312
0.09830695876559727
0.08662791504287078
-0.06092712955137978
0.013048938714391306
-0.16162404935355193
0.1278196100707952
-0.07931141975398973
-0.009760418707331162
-0.16036647349252184
0.16164749623691851
-0.08206643601220724
-0.150103828151429
0.11339820875735462
0.1428943613524545
0.04614823847247986
-0.06420041694532543
-0.0877464027719013
0.0030031053115922458
0.16919974410271837
0.09087805129703044
0.0006487490197798908
-0.15187354889720847
-0.03774943257941761
-0.1278384694192543
0.046666065640600815
-0.05904655735204573
-0.13765390781722248
-0.06357485645347687
0.05606046864997989
-0.0254476676238492
0.1260368695522482
0.10469257006921423
-0.041147131857189476
-0.1697129534919399
-0.06393574712589073
-0.008819838420660642
-0.09111754646212572
0.14403799967902486
0.027450215703191838
-0.10528646085521123
0.0817338211344116
0.006743755996553319
0.0867660225286448
-0.1349375265623887
0.14012767056445677
0.1569995348628522
0.03563623953944284
-0.03768262218238733
-0.02471548155962449
-0.02274969859795366
0.06169633913092046
0.07682857066197127
-0.09320017617993898
-0.1567035510840621
-0.023581071248889657
0.06937683353209512
0.03286716567825254
-0.07457749086657965
0.1676955814312269
-0.006562988538330955
-0.12538495946153053
0.1281450886485254
0.14110646082040945
-0.049363675705852074
-0.023410158916311527
0.011412988483640134
-0.10973136729993224
-0.13632599286143365
-0.05197254068302777
-0.08476915720646469
-0.02784846665108609
-0.13452911651776567
-0.08402110818526203
-0.13206605841767688
0.11357662103842144
-0.06010077648980408
0.008336071486268028
0.12365275216868311
-0.12082154849675261
0.06002094835506136
0.06229999710224113
0.10488973121097815
0.08812526115816993
0.17444560360937186
0.10192427400226516
-0.1812952829751957
0.02600012158798036
0.07774581728531575
0.08028877496273751
-0.12574233499175824
0.03244275036066918
-0.003233096888148693
-0.05350702352943085
0.046387342443137594
-6.834433449574716e-05
-0.054105227862207325
0.16477651013726854
0.12913160952256206
-0.009551288049258446
-0.15316805651636814
-0.06176946354164776
-0.08653983016249792
0.09241277378641673
0.06460600025761833
0.05278276219296256
-0.11653348001531766
-0.07682782407517155
-0.22218595411744171
0.12721145175459095
-0.01985821102239637
-0.01676114140520226
-0.04789329651213095
0.0770624665903193
0.027248939156192174
0.16816275996220562
-0.056708476906872474
-0.05388227892270983
0.14101212310689484
-0.023828473898288172
-0.019245560835550603
0.027599444825333986
-0.043025854039046026
-0.09765202097910253
-0.10982317645907848
-0.06983065215293303
0.12758667069640078
0.03290517408401251
-0.10541580737643144
0.06827513392480689
-0.01800514710838588
-0.14272995255248921
0.005627047324300499
0.03599792387801481
-0.13161436291291911
0.14347178705661118
0.03187431526609526
-0.08894885197833564
-0.06927937083643518
0.02265674463041658
-0.10473495775112779
0.07542605767433765
-0.11770133647469523
-0.005754679032338951
-0.17801505297720654
-0.0976427048755889
-0.020755891313696574
0.042554889778036585
-0.0848483399465306
-0.13830416707619417
0.14333166649604703
-0.1267469892890572
0.10585077647979982
-0.11089102285533603
-0.0019228498706773758
-0.13745024784939675
-0.07378403425800376
0.13923493529975375
-0.034205182527422745
0.1100279418379223
0.028917802362717016
-0.059662897593360686
0.13140168342722533
-0.022023769916794247
-0.04325229583779752
-0.11326367547647398
0.1592116123478211
-0.05298570562157436
0.13723878145270751
-0.019572110568996607
-0.01912201125036712
0.07359991014167527
-0.11708742397202551
0.08394573200249061
0.07713185610180523
0.13604492342956193
0.05314077399683289
-0.12183149537645396
0.05490123241421827
-0.1412376169648894
0.1291068920880928
0.09791118655831016
0.061406320629533426
0.06844600097563386
0.03453953189364819
0.11827481824462695
-0.0882818053325227
-0.03685047257493526
0.05092920010475577
0.13881595876850306
-0.11600459744887064
-0.15246428695582045
-0.007197461526234888
0.16397258027478964
-0.03925820004934258
-0.057404675479129856
0.07950168800209254
-0.03779585212589216
-0.09823478997726798
-0.015192638048284598
-0.14245690110385983
0.03814232788093169
0.089581786408238
0.07253321084950176
0.0435102207536302
0.0025211411731128758
-0.10032792480473607
-0.11200194286298551
0.11539388509724897
-0.015409440076125068
-0.10156569605182245
-0.18466038059031997
-0.05961618058501193
-0.035785318716689524
0.06157847792174139
0.005998106225511403
0.10573030807785683
0.10322518800498345
0.07588443516799157
0.050020786125895604
0.08863062251966455
0.08866065666565141
0.08430108143106368
-0.06339047898373192
-0.11990126236026959
0.10240872981646337
0.013043534697720145
-0.10598343061679028
-0.04301351997503294
-0.04120107511018473
-0.13366199059119316
-0.12310739129682007
-0.05161540545919529
-0.051151250512719196
-0.07257675907262537
-0.059676708449467396
-0.0007525585154242239
0.15852175555848697
0.13744350968056163
0.060754937620119645
0.05145392520740647
-0.05388173435021811
-0.003690655205953567
-0.13219730062995816
-0.09245219706673274
0.1345005155635028
0.15749387344984853
0.11083829394485219
-0.01820493086547407
0.05111653762186401
0.06324652935079068
0.08295887025098617
0.1643724913200794
-0.1610937351914458
0.04954227335557256
0.009032593161943712
-0.10213816997656064
0.0058751284458087505
0.06015561450862097
-0.05827695697147095
-0.12382220968181089
0.13611426170172397
0.14920852026639247
0.15373764360336772
-0.05956272870683896
0.15280732844242442
-0.061257348252735905
0.03527511117097817
-0.07232786048699164
-0.09451967584139652
-0.08397667220325856
0.023030660889887613
0.09594069584100098
0.10448614893867321
-0.07698577452970307
-0.03906401185540841
0.15102495942653435
0.045053737089776696
0.07575087884941147
0.1012266037699969
0.015511876237216216
0.1514603146390404
0.028395155607789727
0.047371396230286356
0.12938792528605114
-0.07271087988173416
0.03624913460175236
0.011657835475752401
-0.082634975601689
-0.04525169436900684
-0.01638461189536695
-0.050212418171922506
-0.14273901057865324
0.08992129736152421
-0.06863588992598009
5.0237580812902256e-05
0.040594942959563396
0.10491712068847178
-0.039080376823993755
-0.06882062018901772
-0.05731380058443362
-0.05586104713247537
-0.1073993165904229
0.03782865275032291
0.035338331553652826
-0.0029043644390614803
0.08304518126452623
0.05696960264919873
-0.1561080567691706
-0.12447157320834894
0.1357134461334215
0.10553135576616064
0.11420565487041778
0.14209405083566343
-0.0995013908086887
-0.08085095006491605
-0.15077188718082496
0.13277162246057295
0.10470597851715135
0.023502328414338327
-0.1566881059512423
-0.16132623108010907
0.10047804570205411
-0.06153713264352133
-0.07799131589623125
-0.026501271560284777
0.12283551680528748
0.019749936394046024
-0.030238891002838032
0.02739974818243361
0.0713620165343526
-0.010752887660153787
-0.008576396233465816
-0.05479810700301039
-0.02923385643315877
0.1724875807128791
-0.13990399280383115
-0.04864157168203476
-0.01695987753651389
0.09801968024200369
-0.13286134384992682
-0.11946175625900173
-0.012583997375867226
-0.08942340254003299
-0.15646451657367066
0.07784438286622074
-0.015508281050129373
0.07044326565360223
-0.0494791341368818
0.13560846295510162
0.10852447586401993
0.08241985774024455
-0.13798284949784695
0.014932299971117871
-0.042265762134611265
0.046620897436863096
0.058254314721051886
-0.07972782857280639
0.06660951915101887
-0.14770219637980678
-0.10220946052645928
-0.1648390220998571
0.031694029188989954
0.14395079144507858
0.048410805166554605
-0.05249099671406138
0.006266018837511673
0.17195287388712732
0.15686922320790997
-0.1386623186939553
0.021520606176890677
-0.1695345392794804
0.1031326100136569
0.06514233458681927
-0.16081499445767808
-0.04122172205001494
0.011971247876272706
0.1392716623240406
0.031426833712912654
-0.09615490649506382
0.06036502015230852
0.116865665892067
0.09518072022021568
-0.13697604420977322
0.08665446321297887
0.06855790514772825
0.12256750919424511
-0.14041220780481287
0.004366343984214122
0.17014447701741964
-0.09736821394592443
0.06704592028847733
0.11492275096082606
-0.11564301705947444
-0.16588764526997404
0.03439221339485256
0.08663764877390709
0.08129734353684662
-0.08561171146391815
-0.12214992188567152
-0.08549553359779248
-0.10377300217867974
-0.05052493287229749
-0.07031047123179396
-0.1506369916129833
-0.029587920336840746
-0.12936080787836346
0.14946585718090316
-0.08062290628303156
-0.0835665769724423
0.07625028870051141
-0.1478323579096264
0.0538828318157127
0.05245985007578849
0.0672824716364495
0.1370021273645306
-0.11711737711744642
0.05073841744355387
-0.13313519013370342
-0.08658516204966019
-0.1572205936676747
-0.04941997270140066
0.0036142074924667604
-0.11394985280168278
-0.15062257542369165
0.025019091984405953
0.1381741934341831
0.04821442287535075
7.02284929738426e-05
0.02274462727572193
0.15537557275082528
0.034964118235868175
-0.04416414483764398
-0.13038913200015675
-0.13761784690491763
-0.01338040602941079
0.07131698011650611
-0.11857055369602358
-0.024743965496233335
-0.08485434906100461
-0.03922522842507899
0.024953685299908216
0.07990008597229874
0.01862313946430441
0.16239466136070127
0.07977765782418733
-0.08387553594687566
0.11070994007992307
-0.12474758417374747
-0.12098028512774184
0.0770602833009957
0.07863438728102898
-0.040817335259899695
0.13497633147017885
0.01821925103778363
-0.10773925101270568
0.15677888603698623
0.043996402930667054
0.12222135690329362
-0.14536884233481795
-0.06168668962324715
-0.13298045622627933
-0.0660296787650842
0.0663657674007142
0.15920311414074714
-0.10498764615425649
0.09434930486899294
0.020660196647171957
0.16527617543404824
0.04003276894715709
0.14629427004950848
-0.12791776357224252
0.09652146322602406
-0.015999973232773263
0.031596660486877495
-0.1151798852251048
-0.019157768641790304
-0.09849818936444239
0.16591628015296195
0.052057856522832555
-0.07076251339548327
-0.09655315916376148
-0.14475248074398514
0.13384800736633398
-0.1612267820528988
-0.0893140338594438
0.17235195457685304
-0.15397257843724935
0.0240584543711764
0.1340141342365671
-0.19148204412619868
-0.06404512118783283
-0.024155994575022943
0.0017250939296529805
-0.05640118021069393
0.1691093357869754
0.0922043909091568
0.08877930401045782
-0.12086637464322308
0.10488068838249784
0.15582784448790862
-0.16350809940101776
0.06237663708118535
-0.0997596379205973
-0.06781239461465831
0.15278324042649385
-0.07657525269146545
-0.08675507483607382
-0.053021870384515044
-0.03819625340433387
-0.01561164182756953
0.009598293698557662
0.0481464494527638
-0.15350922637010128
-0.037431939964416405
0.09317015708531506
0.020116500278951344
-0.13465480635177507
-0.021095286465270688
-0.11805695698517635
0.07511482187174778
-0.0015869022698759155
0.029941800723873153
-0.05267143039587606
0.01602241544839439
-0.09244287696207643
0.11500243248393448
0.1420374547625796
0.08878817034645399
0.1491005478400922
0.17687867562748055
-0.12311153881178966
0.007650767773648509
-0.16145370166862194
-0.1762742242518934
0.07694869706523547
0.15335490560064993
0.03178073206519929
0.13029704781408444
-0.03570846439384947
0.10703875571588128
0.13010784036329673
0.1061273408590425
0.008083588728472738
0.00031016613627802875
-0.05470163735178332
-0.11779809094557636
0.06428508917435374
0.10448428120356132
0.1385114086063874
-0.12895119541258127
-0.07104810939451077
0.13620724030435954
-0.11666658229276458
-0.022228200857824523
0.025540263059523515
0.0497051093092324
-0.11238649415610605
0.08230213229865793
0.08042193310791267
0.11562914352533167
-0.023900331532692578
-0.12365428976305093
-0.0596674239965161
0.04881361456017316
-0.07903599080722941
0.05456030086140196
-0.009335921677759785
-0.0611581073264527
-0.1521690228202402
0.06481488798668289
0.035915283803222925
0.16399814491897105
-0.12574672044756258
-0.05552513761118263
0.17176696980578557
0.1151801003151782
0.13512924246194696
-0.04832990522321448
0.00046253934913575284
-0.15955546856952904
-0.07948154022994751
-0.04791557450281724
0.1170456109688631
0.15665823728534173
0.024212346088845482
0.09350466806914116
-0.09575244016992954
-0.13370472962462532
-0.07469042368831129
-0.15344332933646446
-0.17828862488149677
0.03010986778416947
-0.11124463538782257
-0.07294483511609871
-0.10311505468679613
0.06017718527644467
0.1300778968622303
0.08097430971326895
-0.16649889442002025
0.03338911779352271
-0.09845162098829725
0.08253102095417007
0.159280546068907
-0.02344465682937466
-0.12359324819703105
0.15406327408687365
-0.16653784327957752
0.06573205717576383
-0.1418771414193581
-0.027110675746093688
0.06836014702080798
-0.054172741970378774
0.1654715427213548
-0.016459299036383487
-0.138454561294941
-0.016946462851172312
-0.09240925439428387
0.06266444922209986
-0.09788740730833312
-0.19628678346430575
0.045546494205655756
0.06397348335689186
0.1734533332203408
0.08791123590214082
0.030158125073422807
-0.04473457240088617
-0.1435276222418898
0.06184563101285975
0.13014565573843834
0.14103293913921114
0.11353183136622165
-0.14140548850693568
-0.012408143940235265
-0.1632045584273981
0.010729135356616737
0.015181890702161
0.13744427609136706
-0.04621168229277903
0.034275170263169695
-0.13965263365428604
-0.09127585675164501
0.04602054147898547
0.022742088198762826
-0.01502080562696878
-0.030154093807827152
0.0898234205304048
-0.13881095201014768
-0.12587093354443257
-0.037489507590944986
-0.0666972189313316
-0.07428367068451244
0.11101579544515691
-0.09663412859597362
-0.08125331005641875
-0.08433750727592387
-0.052034030394833695
-0.10079098993624011
0.04722524512355132
0.022686544160883747
0.05593745551644566
-0.09846682540503796
-0.06843763898063593
0.18324987573678664
0.04602122567816621
0.1399843918570705
-0.04083983743916889
0.08745193519996862
0.12546814200722517
-0.15296288104148736
0.16927646395011
-0.17228750485038588
0.012984712536907942
0.0967515622500255
0.05907545024716791
0.15412208062076346
-0.019705261567484228
0.18301560772197561
-0.1128746936043989
0.07133665649683574
-0.15708652388311448
-0.14413122489340882
-0.07207063556286408
0.11484897785760517
-0.043547291758866534
-0.13855941981306735
-0.07271026156288764
0.02891748009392512
-0.09189769847642001
0.1619711519143306
0.11155339066690156
0.17519856526612335
0.14899064347001298
0.0187354512457765
0.0032387064407041126
-0.09248276464812347
-0.1746281536959505
-0.12307085883341003
-0.05844935971940309
0.10738792931666633
0.07624428814850784
0.07684785926109483
-0.14515083990206773
0.15009946632819857
-0.0021200374215994185
-0.035699799759558185
0.10998112988581317
0.014642457978484015
0.07413721812108218
0.0479677776909065
0.000807370545740925
0.12998173836107077
0.08180101085941009
-0.051844391784735974
0.0711588686864903
-0.061452196231139476
-0.10405679535916369
-0.0313828147983379
0.013936847636875032
-0.13149793025153747
0.10919799206872997
-0.09349164883625904
-0.10917953410596991
-0.05305995926295267
0.04416542606494167
0.15544083169030362
0.09158766890529167
-0.03236968738074186
-0.1771362795923456
0.00729171704732239
-0.0494276528271087
0.05464569585540404
0.21398623942862227
0.014512801594480942
0.05396884171551514
-0.12124209839265224
-0.10961924847580777
0.0349641360817772
-0.048464414927226994
-0.04189140246270023
0.03804284478207329
-0.042345610415380514
0.048366866228877474
0.15768160871993242
0.019376773593822276
0.12925453647791948
0.05914223253508089
-0.07065316385158284
0.002578329762504054
-0.050909121803860896
0.037934452300338706
0.11646220111267848
-0.07329517208310408
-0.14511621563963847
-0.11483907503533561
-0.1161409526787113
0.0558048921587648
-0.14327234496875918
-0.06950927529736016
-0.01985189672805704
0.012498067826898138
-0.09501399818995235
0.044210864652275986
0.029193670746984868
-0.04688697260650049
0.13615437971090105
-0.15087745638106054
0.07291743109708823
-0.008318585586986045
0.011901400242123765
-0.17619303306138753
0.13944573947487454
0.0019514534143386941
-0.11161079959366797
-0.05017870399927885
-0.04223053190374911
-0.10330329813279496
0.05740013061762983
-0.029687714845758918
0.14036470453089436
0.1506044600459496
0.04060001847691672
-0.0404289688276123
0.10870659785423444
-0.06739503981298163
0.11505843059446802
-0.11587655969517159
-0.048740063877816785
0.13950575272603152
0.05101867312517988
0.025045604032630644
-0.0996442658432755
0.07100041844390428
0.01716721376797514
0.12118740109323282
0.1713393294926571
-0.1184298435131826
-0.03686906001912072
0.05550490082621728
-0.16779504326071668
0.07166679318919489
-0.14709622924314922
-0.13365624148322525
0.08553940408672171
-0.013434939210652336
0.11304873092830378
0.03996254362697462
-0.1184491382263761
-0.06461321232442686
-0.15712362657139797
0.03853321774886698
-0.032307502959469755
-0.12039760061781607
0.11954576869954874
-0.13035134739650622
0.04607017168821107
0.1824361074926381
-0.05987069932723272
0.1635474058807211
-0.12030813185294464
0.12821497913170352
0.04865602750567461
-0.04690811152326231
-0.12460664959847838
0.1314221684898239
0.0005193539634364608
-0.14972998426993325
0.12990019211430473
-0.04459760378397595
0.09720591703083821
-0.11375582854725814
-0.16611082281200332
0.09582646684530584
-0.017720336008334468
0.09872048552621854
0.06678965974403742
-0.06002017477578643
-0.08058587627904794
0.15378801981485493
0.10862590578170818
-0.04223411158543155
-0.14810344304412906
0.17719765514945307
-0.04879839142728612
-0.021155346140642906
-0.14026137763062202
-0.07476436261723729
0.08762401691818364
0.06992273454843091
-0.10110370398371835
0.05010806975738218
-0.08740844478484545
0.14276601295623778
-0.038456871286871766
-0.06353227614989392
0.08900281950421139
-0.07598453972200013
-0.1489575624132207
0.009988976395812713
-0.05755421914815824
0.12865551843250708
0.09785859884521929
-0.039164643389865694
-0.02638474462962706
0.06172490171240791
0.020517627351699444
0.0460479872832877
0.12239345204207644
0.036779591264044315
0.029921077292865896
0.08000896175582146
-0.1511886056145076
0.11740343261363541
-0.026625490773897847
-0.09347115458897767
0.16565842563292832
0.00445228178439031
0.08598704443094338
-0.04901380376110271
0.008125402114245577
0.011826696027752244
0.049183773994789584
-0.15444330150078683
0.0838678471253839
0.12413853133357253
0.045318863474940685
-0.07508866863859821
0.15398048746591916
0.05634498188635324
-0.09884531154734039
-0.0016064386127809568
0.08792397715842046
0.04223961050693095
-0.08649055549296997
-0.15149641920702353
0.0002170286742056121
-0.04240531198197727
0.14692286822601547
0.09693951558663301
-0.06015598321491492
-0.06905671387914392
0.13439534108021395
-0.1508588184268454
0.12495839416119556
0.06317658452129804
0.17590397636068433
0.12966097133958565
0.035474640954712616
-0.024334460458731944
-0.13310422293771437
0.09884679576786864
0.12075862265563371
0.10106440401442299
-0.11369561348185814
0.15590459571714255
0.08538101876921668
-0.028930815141779587
-0.10753576599878618
-0.09531124895092166
-0.021988932821970515
0.006484315645047183
0.03878117868268587
-0.15179422074448934
0.11963173743359135
-0.11697614885889747
0.09469116486084167
-0.007283067825632711
0.06045546839761695
0.12318003197214808
-0.12784537768081353
-0.15790820488610097
0.05117955144006986
-0.0627032535043067
0.1099183727826899
-0.05021016879341928
0.08656110730050709
-0.15330023081653765
-0.030094479565185652
-0.16185482123511977
0.10233228374998751
0.1625678964641075
-0.051964098243941007
-0.022427598579196947
-0.0199460948918793
0.16279593407641338
0.08765383101423332
0.011441031230324238
0.015877907279852888
0.1536874933190124
0.13294687995690438
-0.02882300332922209
0.127030285875705
-0.09947891504927361
0.11343562510827114
-0.14927919990211191
0.043924275340270685
-0.0104316667154849
-0.13391539446725895
-0.045752821053852706
0.15561252732254288
0.10372439862486972
-0.1194206615291647
0.126512022050425
0.12877536903355968
0.11642662430421444
0.06847955308788622
-0.11485276815092078
-0.013770554913844732
-0.06877272786840631
-0.04381000669573639
0.05316793325291069
-0.1122155574991831
0.1174467007163871
0.05917706191789359
-0.043454508798575646
0.0003717147739316714
0.11005264354694894
-0.046188627675956904
0.1683324947627561
0.18745336699446694
0.04525775303003182
-0.08433222622928584
-0.0026238523150159338
-0.11006287190342642
-0.09923624116940936
-0.026562103954025192
-0.03365628801324214
-0.08731227875151787
-0.11433083274018069
0.10671038995606935
-0.16743780056292565
-0.06644680054940592
0.07712084057154814
-0.11761108919459198
-0.1481854579143684
0.12391778870369863
0.022938470478104295
0.14452210839361515
0.04765464115960538
0.16507995144481313
0.00911345135423001
-0.04189015021621766
0.04757999077301513
0.07153454202360385
0.038993926624999876
0.025386179198333178
-0.17289589497335445
-0.13578735860606564
0.04585396416121319
0.14785681573254092
-0.09697348131784606
-0.006294842530679912
0.10191775695129388
0.05295715920575689
0.09542766192693684
0.007279052756410409
-0.003043794016343227
0.16283708677649328
-0.08455421803647485
0.06749710576208726
-0.14394815856899945
-0.17822862901414044
0.1319997986974912
-0.16226945173441712
-0.15700185125507407
0.04633544551247091
0.17760527919273253
0.12719168937601172
-0.08359619353465067
-0.060377424557801075
0.014346791370603811
0.006467646560301427
0.04739922025005927
0.029561848901518323
0.1556477538512906
-0.013464503829899471
-0.006809113817287965
0.12432414594449148
-0.08640821138892096
-0.05732010271828087
-0.06266616883425301
-0.11490573672720547
0.02087412253265412
0.06688930992368308
0.007430408224128798
0.010710266024506341
0.12957444808337445
-0.016386238325543742
0.1314122726874334
-0.07259937190788157
0.07767492692365537
-0.16917564748327799
-0.03606787036060706
-0.15125438116575227
0.07453561903548035
-0.0894511677827555
0.10098629673798028
0.08142778361234047
-0.1436004794778537
-0.14777940375135895
0.020598454475821287
0.03164924362857196
-0.04516029702381751
-0.12111045680129047
0.15887646718870865
0.15199580263402823
0.15068705021292428
0.05299182293468066
-0.1002926716859211
0.04600783278909568
-0.05658881154003921
-0.048849170269415494
0.14414932355627694
-0.03844978239642496
0.021159895471470794
0.06796659544664901
0.10012828387670955
0.11090992876744833
-0.0958162075041
-0.03716698716699179
0.13721110032759934
-0.1297910079080779
-0.07077889955247768
0.03745960449502733
-0.02024101895417954
-0.11594207263207956
0.12077216141235866
-0.12024167383867189
-0.038379295962209514
0.028402959707679202
0.01325486371815899
0.10651933874860589
-0.1318635900945704
0.07328417617093465
0.13512147742023747
0.1076579317162667
-0.09647501089602485
0.16162651721337565
-0.11462129185903719
0.010258434868348413
0.015178233619249248
-0.17392684420831717
-0.11640882478621928
-0.023859865307527785
0.08692704646959101
-0.1533262880847079
0.12814770929230798
-0.11545893976266305
0.16376385482364683
-0.0918935002015409
0.13413700606917753
0.14477640339976441
0.15313609136918457
0.1301374218191907
-0.00820345888428753
0.12379502725752037
0.037881703003825144
0.145187970221518
0.06055165723572622
0.17026579353151558
-0.06437922410536544
0.1500397987034533
-0.1754882554458725
0.12177684532830528
-0.1360817489000329
-0.05490491624662875
0.04283870976446808
0.15142624016890321
-0.14689864664021077
0.11131338235629222
-0.12424149556675157
0.13688290555477398
-0.05573695948612044
0.054861986769218114
-0.10155968307653868
0.09515721770095491
-0.049986316812432034
0.16651320609178186
-0.07031396418551562
-0.050746085728022056
0.014086756510398396
-0.14019958057552764
0.15691673209090914
0.08759529379432253
0.09730326501283436
-0.07129328402429869
-0.03829287295008024
-0.10488846067915353
-0.09885815639507275
-0.1371225660395859
0.03595124857891489
0.10262864102009109
-0.12320941905997694
0.1397961372526705
0.056203891752033004
0.09139910323203508
0.04931589578246012
-0.13204112061197962
-0.06145908609472168
0.1087078516702922
-0.1664102032037121
0.10345171784379824
-0.03095680738084414
-0.0052497332161208525
0.02833213469496143
-0.002749160547172643
0.06811257813645422
0.01089474542306722
-0.009597010705826164
-0.08876523839434568
-0.08592960386358954
-0.12417475214393561
0.017657082969675802
-0.12888743884693435
0.08257035660838276
0.12879646522144336
0.11853549291125079
0.08875933593952719
0.1946915521791288
0.00500727919190757
-0.06165254565666456
0.15728138956318413
-0.0077451617761768645
-0.029911047303819483
0.10123725591678272
-0.09326960848824824
-0.10461341462493316
-0.02256966716235517
-0.07504602502370841
-0.10623884775532995
0.08599440935880996
0.03193271144099888
0.15178212116404008
0.14388183226362877
0.16843716901312364
0.21214653419800744
0.049080099503606506
0.06969052860332588
-0.10776633036530418
0.05596714418781857
-0.05989376348945504
0.0018758414397102249
0.0697301039492905
-0.07302257495479152
0.12731242432870285
-0.1346612083950401
-0.0737583264484874
-0.05349205207919153
0.07157444609928817
-0.11542597006181303
0.12812576128646036
-0.12520166110059466
0.0030337771471787567
0.05346539057699166
0.10852000677668239
-0.08046689692099666
-0.1308140741374903
0.056570499031202315
0.05104702682919691
0.07624892517403163
-0.1611704705084123
-0.08560024117635036
0.053421881555513445
0.012870357267317382
-0.1274919084717092
-0.07853310202844246
0.11646332466115455
-0.17122266093022984
0.04989285196522375
-0.12586247215517546
0.0616342430656891
-0.1371782072229682
0.11331218452803006
-0.1550157365788449
-0.15627682656572925
0.023308938324598474
0.09359351523570295
0.19753466094605301
0.08836111730177579
0.1253631291398008
0.15742113249075226
-0.056877753619723775
0.07973153488108697
-0.02840028221676804
-0.09598322692926263
-0.1389520151780506
-0.039199736746531016
0.059191995633166065
0.09932842294620908
0.18016107548545562
-0.01293709802028404
-0.07904649978149525
-0.13143159334711987
0.03646525541306484
0.03928119867562835
0.07183849899254627
0.11473780433580727
0.1510374091374901
-0.011567740878727086
0.08554175449851069
0.13665566468330684
-0.048065450488810724
-0.09402052768202605
-0.12985463164908242
0.00460414642792646
-0.1664358294298727
-0.08659954578233214
-0.010762408076698815
-0.1738358898407172
0.10618704099012156
0.17193198757273218
-0.12905246530545772
0.06780737409025099
-0.11232375972162299
0.01734666167592165
0.09684474362544629
-0.12866906413847606
0.06160640448475139
-0.06982044702395686
0.1637542241813606
-0.07687624168197844
-0.14146055213708467
0.07552589426667429
0.051197596821704515
-0.15031175412560552
0.11998704178289131
-0.10240553223847733
-0.11311580331197506
0.040525006290989804
-0.03963054959849357
-0.10190664856402203
-0.1487893602733674
-0.03943135984542567
0.055930002114418405
-0.16750766329526837
-0.04586291320000522
-0.17265117153472706
0.1690174434973309
0.0578422384039884
0.007127976474409874
-0.1736082392610771
0.12012232515647392
-0.11283410278655523
-0.16893700264646386
-0.11201712095358547
0.08813695823993342
-0.02717119084279127
0.07211705259444084
0.018799731132637092
0.004724023865228633
0.10591142132604503
-0.14555676884203556
-0.08098474933628318
-0.03183102521311638
0.1441573928413776
0.015196245969192081
0.13426682399798737
0.17994096222708586
-0.16765264541486105
-0.14002923615924553
0.03633588183050843
0.03262612147324428
0.06580867658688301
0.02394276909334498
0.03695672803513313
-0.009950976258332798
-0.07738477699261534
0.13641014386533343
-0.14807067630840348
0.018371657316491898
-0.1811194620355277
-0.09519640637478874
-0.10504349633276044
-0.05248450876295946
-0.09193696100502315
0.10253894694006335
-0.0927436994668215
0.03859869709333215
-0.05346910399440965
-0.15712340704295935
-0.1734966109601313
-0.028424826266266592
0.05198218348485722
0.040993225719870005
0.13089379073800994
-0.08200187075668142
0.1537347163025036
-0.07673199474411194
0.03162115107018615
-0.08002035757518537
0.056969723376917705
-0.035441093411895
-0.037252677935712394
-0.016610335921833384
0.04937137943676177
0.07798984882755917
0.12728059236898834
-0.1405223666749926
0.15244795477999654
0.08279523269498712
0.06035768732933884
0.1679238397408533
-0.03224183395135335
-0.13247493334522617
-0.05343826101898069
-0.007316668047729192
0.17074710287225345
0.012648670700597102
0.09636018859929063
0.10068016620638916
-0.04370726074836702
-0.05347572973733664
0.08197059200186708
-0.07444648103735331
-0.06074130554657592
0.049557583530656854
0.15357895108975314
-0.05970585213887934
-0.10810133581666574
0.08122643032878894
-0.07226364692951918
-0.1304679551476232
0.11047511111530559
0.09396284839487705
-0.08803595805978694
0.07312733581852944
-0.11438552943543635
-0.03231410114620415
0.00012679222646219888
-0.023260898187620394
0.06658248509105062
0.055955325262541225
-0.1099814313930244
0.07011381407211977
-0.029631094371180687
-0.09124414957921825
-0.008639752132469591
-0.16350444282961304
0.06543134607635873
0.03733629208271382
-0.028956164211497343
-0.05485814132505463
0.14332495002524892
-0.011005910802600077
-0.014859121543753573
0.08897244979643695
0.0031046000209347903
0.04264886718097806
0.1444199274027844
0.10511706676666223
-0.11599778328617164
-0.19618353847031636
0.09340715567033828
-0.10162673778733912
0.07177325168110611
0.09528320849237142
-0.07940997014333502
0.08218316882870998
-0.08394968761238153
0.020224478848428463
-0.17655641954439805
-0.12436366538089651
-0.030634326817627917
-0.16822326664119863
0.03181239664675819
-0.07457078181882719
0.10299766425227136
-0.06332418641133687
0.041023371186030916
0.055348722222586286
-0.006235405824499738
-0.11780035060027338
-0.13631225759044674
0.06081872287233677
-0.14127294062856946
0.016101241277387733
0.008378072897234674
-0.032701412131747244
0.11221121397016555
-0.11605743820127198
-0.046965203197591156
0.117329937264755
-0.11474096838102119
-0.10446424000816827
0.06405813267236513
-0.17221832697221515
0.030500437871855548
0.13005001636171945
0.12947417707690578
-0.00581505757175316
0.157763359450552
-0.04385098400772659
0.07322148990176323
0.1514036114827386
0.04818179732540834
-0.12424761009196608
-0.024331302672216042
-0.016255366062361255
-0.08359569479777913
0.09105359487742423
0.0557263088661733
-0.1458068772242391
-0.12173696328464047
0.15686821189422348
0.11296587288353031
-0.16625164302436826
0.01853689350969331
-0.07128176232148255
-0.04841193316227485
0.11217377461557612
-0.1778947800531564
-0.04722360182572565
0.1700285624812253
-0.08150285233592171
-0.1160447291735952
-0.07317339010243162
-0.14096336519648062
0.003097928930280939
0.10946620058722246
0.07915453667863835
0.13610360460458745
0.1361401600359823
0.06494953703136909
0.12753516374194432
-0.00833334446611636
0.06788682940501242
0.17650027555186135
-0.08341125012102091
-0.09716152465089914
-0.16402858452234478
0.11395719295929113
0.1734349065335276
0.1122030951042153
-0.1425109816093785
0.14600449032501495
-0.16188380626555196
-0.03157105957333669
-0.07432267143275748
0.01001129744414336
-0.03496035105457492
0.030951645361197707
-0.14939964288576596
0.007320636623206926
-0.010438244785798472
-0.12092932887479282
-0.12677762830287928
0.06079074652074148
0.020583571181591508
0.11756190509677192
-0.17431829039516444
-0.11067866292384299
-0.025479756814787296
-0.1789824765286594
-0.16802900000682786
-0.07660370215287855
0.1140381278908619
0.11943304500046102
-0.02073674637353395
0.06616725326709029
0.16126040734463126
-0.08294921600018003
-0.15389732545997578
0.14996216126382614
0.11825126968177227
0.13805998897339858
0.0725508258191112
0.012679476622095787
0.10811731132133699
-0.11944400661607234
0.05461702647590051
-0.0335143626668688
0.060807409649238614
0.036002139714686104
0.16435661686418307
-0.006950088497107892
0.04574478857997583
0.0927870110442662
0.08090748514708748
0.13117291890695043
-0.0008153266018345089
0.0371069993235951
0.0675747804607965
-0.018335615829775977
0.07275957347982227
0.15887941925546956
0.08754515782546056
-0.05061537719903093
-0.00953423026130145
-0.04941462462881391
0.08791337193274862
-0.060886602620867564
0.13265509378718032
-0.02006724915773854
-0.10607572314182898
-0.15344788834333656
0.13984421468620345
0.08312285189962146
-0.056380006166480326
-0.1500293942110825
-0.12030641256719687
-0.16033540831489412
-0.008094929249807415
-0.10232595052773898
0.12549440372902268
-0.14304402740648214
0.0014868424523124286
-0.08479708278404904
-0.10499489632272642
-0.05161229445272138
0.028276012006485312
-0.06466170609242365
-0.15522748077913748
-0.039915058231735495
-0.06610647092345595
0.03493226175304913
0.031094992162967173
-0.10303786076763928
0.0710433932952863
0.1589525629127513
-0.20805511855397815
-0.18622267950942842
-0.05729662765767996
-0.008847784391983278
-0.09499386580933059
0.03735384111512976
-0.07594334861994047
-0.09394155458322913
0.03222554270706329
0.09812642869681545
-0.026195789802903956
0.12285723459963743
0.08296180264952074
0.14544938790939238
0.03623405265896755
-0.022811008497773108
0.17553950300888918
0.09719451074703625
-0.10170981128618795
-0.12665836019636484
-0.15035154191864966
-0.15093361777144904
0.029184315363332932
0.07258875685417573
-0.1401226027396492
-0.06497690092476356
-0.012269819179581021
-0.12382662131898203
0.11087886997739758
-0.10725177460084367
0.07273743124934948
-0.06423665936090463
-0.10152411858476469
-0.1276456537734459
0.0076719557691287184
0.1525026975680945
-0.16476040906321052
-0.11392394973848882
-0.14007192481906106
-0.009153385116945224
-0.006576430058435691
0.16889139966914432
0.04101738847337719
-0.11099255498673241
0.07244646589965827
-0.10949833403822783
0.06147053852302459
-0.043683290881445506
-0.03208333332977972
-0.15399075037357784
-0.11389494693896605
-0.039993823309824594
0.01297284142348218
0.11489989038956334
-0.17857871444917003
0.027500568754096125
0.06486325242005321
0.12216082191448283
0.023351350846876257
0.17163210404521348
0.11291254595474459
-0.05160544050059638
0.11840484361149298
-0.0784139324281022
0.1398506245783121
0.2303523474398287
-0.006537648779458719
-0.15976616405717534
-0.13600206227241243
0.0981781198406905
-0.026996130891090587
-0.07059304677640087
0.11546939496790662
0.17315737803889744
-0.007431470519902248
-0.05926381399698023
0.007413006266695686
-0.043741786790063596
0.01539734767319473
-0.13026373610028652
0.17488236686182038
0.035637701032313895
0.10509522173782113
-0.13893056192001968
0.10857840723549858
-0.16990172738412257
0.05951821532948907
0.028055776621235477
-0.0021881924054027585
0.033947200358533686
-0.0005677868340799865
-0.053430222301542055
-0.0035813105048155226
-0.10616716157846248
-0.09580615266373668
0.10718237444944424
-0.060189138467415845
0.08826090267966943
-0.03250099397280358
-0.08186187650650578
0.01332017707548152
-0.11867075779777121
-0.011415922531983307
0.01105909694331059
0.10075747183488068
0.15627345762753217
-0.06844004372401136
0.12513829340678417
-0.0028845051147556875
-0.09079829285738689
-0.08549924513755497
-0.0447049803997883
0.10293313964284452
-0.20877110929140408
0.008442526254242516
-0.12736760190469593
0.04116397003935495
0.10525666767054563
0.15183943444335013
0.02050856873031814
-0.04639669057802088
0.017333246431593508
-0.02117946204769738
-0.09919276525045141
-0.026773018274858375
-0.12352089466911832
-0.03866306503294024
-0.04399924797475312
0.06838243350551647
0.08699022222814877
-0.07337385451536935
-0.03720384400566176
-0.17548411881566786
0.05215293473715128
-0.010722106712995725
0.11016487780358196
-0.010690541681907167
-0.019289641121435358
0.04065892061639372
-0.07502839047793086
0.15687920592098273
0.007577614994121112
-0.04938147715812793
0.04533605340947595
0.15162993658702925
0.17632845192995603
-0.152618869650595
0.0016899325807144695
0.15072732670491737
-0.08638307053347645
-0.062922265922355
0.008716247554425193
-0.10232551006863075
0.09611641859444361
0.09242444038766778
0.14935825906506175
-0.14015646983062932
0.15225021933237246
0.05135481743968176
-0.04571184739003312
-0.01912202353590779
0.1745272329586494
-0.05511448945532653
-0.09851234734291629
-0.029215413981047367
0.13356740363328637
0.13157501858994958
0.08074701423103554
0.08802320169844466
0.05266947837994018
-0.030448937841326126
0.08447370743838287
0.023707725477080784
-0.06529104409568802
0.08833681206019559
-0.14374255007502457
-0.01233982317928063
-0.2666622230007831
-0.08392652250448625
-0.05505000347002218
0.02795820991877643
-0.1256850041792752
-0.1670708563235478
0.10249618484551222
-0.18372217139181216
-0.0523216135520415
0.17121889081159616
-0.06497242115697899
0.12365818853726074
-0.09149248999894724
0.146062201624207
0.16146134369382997
-0.10563865437605412
-0.043566925689924214
-0.06688265734869667
0.039717039041569216
-0.08902339640461675
-0.04751105527427291
0.06882101896538982
0.1055638670023112
-0.009093903811644044
-0.09757340718321089
-0.0006149746965194634
0.1656226106715746
0.04090495130428522
0.024573673208351382
-0.08335358734521152
0.004338184733112812
-0.08065563442469709
-0.016888292913445235
0.09698615730091716
-0.03438994289834129
0.07621438266311399
0.07471735594782154
0.14505505961739143
0.15803370113553042
-0.07713154975577807
-0.0701323261554796
-0.002988135271425915
-0.007353606951364958
-0.11277853162857614
0.07882899757289798
0.02124088339954264
-0.01702471227016838
-0.015325301925794167
0.004135208728471063
-0.08418971495925076
-0.013607935796535757
-0.025622641150091597
-0.1582288631314048
-0.08954046467429626
0.10429674155541961
0.049542769141950875
-0.01580589465697302
-0.018793174653809582
-0.14096142461905237
0.10637065511664404
-0.13762348335157454
0.07707185999657393
-0.04235944890405383
-0.10847913660539683
-0.13538939977027142
0.1076631207536472
-0.14210464511752285
-0.1059038228874573
-0.07992585262876438
-0.12164465158347237
0.11901861900668279
-0.14293533896142574
-0.14217947513178422
-0.07798504838129948
0.06829781881765862
0.14060119076117947
0.00972761223761414
0.05989872742832342
-0.156143782352257
0.18362289141285723
0.07178213333281831
0.04523751238555337
-0.1346770235839781
0.056566287510634285
-0.13530617339868356
-0.00368962145429355
0.09913135333544651
-0.11025719537027939
-0.17040617099245764
0.15721668629885155
0.13901542850033732
-0.004587667120342853
0.007345822678088715
-0.1598263552865969
0.09535991113041917
0.13311349886652232
0.1555176725149117
0.13578373173807626
-0.02487401852458598
0.14341420470788682
-0.081707166544519
-0.16227958898720493
0.01049741005518659
-0.15988891897926885
-0.01731438112232292
-0.08207234220885297
-0.13834023147842736
0.03874059178892123
-0.004475137939586669
-0.007488921420023271
0.10999133910142023
0.09438053696592226
0.15982276455453645
-0.0648499965084788
-0.011192110656552748
-0.09923519193572196
0.11745821592839725
0.14209659044408637
-0.09292748535832
0.02338276924512921
-0.15265370517441282
0.1256203012027827
-0.0837335022002133
0.08342091537556089
0.11906322979554865
0.15876082414145057
-0.14284480259974824
-0.1515301716099157
0.012613080664071453
-0.011741141294155908
0.12506716907667048
0.15716931789425206
0.16336579056145692
-0.11190894167326998
0.12303842445527484
-0.03312208978037151
0.05170678984479482
0.14093159633504598
-0.03363272577763082
-0.1750598561389139
-0.1226500598012654
-0.054407950088540415
-0.0989764565919543
0.24974164961230166
-0.11990466654099873
0.046777391235208375
-0.11852419927114698
-0.15527956512797086
0.1396502000572939
-0.18082803157523758
-0.12227613743867334
0.16929412729889684
-0.1305661851708152
0.1337509781296137
-0.033667234537231396
-0.034257384661798014
-0.0387225393311148
-0.033480837391992695
-0.14974668762583895
0.1010770955193642
-0.07899327059091604
-0.1748522609513582
-0.08018761523160495
-0.005223542441994021
0.13764656184052568
0.15460821357626053
-0.1305269101630323
0.17460886601433767
0.1602483565319223
0.03130282618110983
0.10352335427078849
0.061422323448913456
0.14382281426439783
-0.10063485740100266
0.006361114721987685
-0.1035449800473184
0.13545278268643093
0.07342425281018314
0.1407590828233445
-0.08739796143227263
0.0604637788076539
-0.07466495888836688
-0.030343722999651195
-0.06617530617046483
-0.10135295599847474
0.07904034186853896
0.12129666740336659
-0.08643665285625331
0.09672014355680544
-0.09542210837235938
-0.029856783620877174
-0.1711916804483558
0.17459402747713407
0.08673903177730162
-0.11816642471278309
-0.03875475334145909
0.030115776179340012
-0.07567220641909775
0.14351203263108062
-0.1167062470144463
-0.15485100530295406
0.041130764729985565
-0.15112453067242554
-0.14046230829828224
0.050260409126155
-0.06422684503588767
0.008446296809270075
0.14507519964529164
0.16784683455163066
0.14615920769240823
-0.05058162299675561
-0.13508344642112743
-0.12910726153531152
-0.011356862582738648
0.0016548311209015362
-0.06749513877028625
-0.16741773530745757
0.15291278692397112
-0.07633374293376982
-0.08752495032587908
-0.11867695737085235
0.05290187073016792
-0.09429252205301157
-0.01651882396166779
0.032109041910112296
-0.09652890379540652
0.0004262675841864796
0.0300418389640602
0.02937657143199239
0.06722787370993014
-0.1361168499150716
-0.009829181190207899
0.15462626965079843
-0.08408526744414839
-0.07528566950576307
0.1417272955595422
0.019580932022067888
-0.019708630415659623
0.10516667736517417
-0.11781235990142906
0.055557158805450424
0.02695433090079886
0.05681989548937032
0.08371307168492638
-0.05417921882074122
-0.11670394865663727
-0.045950812802530265
0.08561155823593594
0.16160701929175544
0.09502548454723803
0.0752993950225239
0.1633626302193313
0.07301522786187456
0.13749052029243605
-0.13246289905519537
-0.0057885354157704285
0.04017290672471124
-0.0901598649709397
0.1625023391812109
-0.06677703907005283
-0.0999986980840781
0.05579444177707601
0.11800097500509328
0.08199363228646304
-0.0074565678154139
-0.03216673661858794
0.13166222644430267
-0.07334504414418166
-0.11659383676902814
0.13674155864104803
0.10241032538126824
0.08597173688173022
0.038905945873443114
0.1254118660514932
-0.12833453512586868
-0.17942615779059476
0.07542234768388854
-0.14139023171888734
-0.14712338761239113
0.1306921157356922
-0.03480932527083663
0.03478862591244446
0.16692865388594735
-0.07251180423127705
-0.05884181685858914
-0.0005624233839681802
-0.03459208470446396
0.14942088214679497
0.0011039114157657404
-0.06724008907118283
0.17187357578917287
0.10386822014311214
-0.004660040300031891
0.08281377017012297
0.1028474352951361
-0.0698949547102013
-0.17596547745109897
-0.039049984587644866
0.08886544493548224
-0.09221581117981996
0.15799883793824834
0.05082982800799485
0.07522136099368125
-0.13579551138555618
-0.09147161116884377
-0.03152448517426139
0.15868110472626448
-0.04648339883464944
-0.1373181579271746
-0.15004736679415154
0.1640251954417713
0.0052712256562644525
0.1254589624049923
0.12916020412907916
0.10236884059963437
-0.0057912325944731655
0.08581950012815094
-0.1696087219592115
-0.02572262629053747
0.05959245441148006
0.038141208593419657
-0.054660314248523044
-0.09236193831907939
-0.000775531642371012
0.12622490031643435
-0.14007902761427515
-0.13536110674955518
0.052056691036602105
-0.1711803657691644
0.1304315300509886
0.17273461534712706
-0.09550617644126867
-0.09945280709096033
-0.00788742995261705
-0.13960463292788658
0.19687950231187507
-0.06020205844699915
-0.023558732682100382
-0.10756750733692685
0.12196618295254509
0.16743038811102146
-0.04283562261154984
-0.01678797048360721
0.13844515430758506
0.12556445442422096
0.07040994746268991
0.1498332195328398
0.042460582921320995
0.0343071180696885
-0.060709134547807436
0.046276902007780674
0.13842376166355244
0.0968865893629032
0.007298142020400872
0.04633366015974773
-0.09872868444332374
0.09358772820024107
-0.11402137190168536
-0.0689988233870216
-0.10642979826253585
-0.011045025761629634
0.00048395673911075655
0.1334568500917844
-0.13328460426886138
-0.08102421247621261
0.09417975084182796
0.15537539504349748
-0.07596338595885836
0.1575311050791842
0.08128234982731422
-0.10234011897292969
0.06625107656161937
